{"learner":{"attributes":{},"feature_names":["Team","Opp","Player","Pos","role","MP_L3_avg","team_mins_pct_L3","MP_L5_avg","team_mins_pct_L5","MP_L10_avg","team_mins_pct_L10","gms_L7_days","recent_role_L1","recent_role_L3","recent_role_L5","game_spread_type","team_MP_available","starters_out","starters_returning","MP_Change","missed_games"],"feature_types":["int","int","int","int","int","float","float","float","float","float","float","int","float","float","float","int","float","float","float","int","int"],"gradient_booster":{"model":{"cats":{"enc":[],"feature_segments":[],"sorted_idx":[]},"gbtree_model_param":{"num_parallel_tree":"1","num_trees":"100"},"iteration_indptr":[0,1,2,3,4,5,6,7,8,9,10,11,12,13,14,15,16,17,18,19,20,21,22,23,24,25,26,27,28,29,30,31,32,33,34,35,36,37,38,39,40,41,42,43,44,45,46,47,48,49,50,51,52,53,54,55,56,57,58,59,60,61,62,63,64,65,66,67,68,69,70,71,72,73,74,75,76,77,78,79,80,81,82,83,84,85,86,87,88,89,90,91,92,93,94,95,96,97,98,99,100],"tree_info":[0,0,0,0,0,0,0,0,0,0,0,0,0,0,0,0,0,0,0,0,0,0,0,0,0,0,0,0,0,0,0,0,0,0,0,0,0,0,0,0,0,0,0,0,0,0,0,0,0,0,0,0,0,0,0,0,0,0,0,0,0,0,0,0,0,0,0,0,0,0,0,0,0,0,0,0,0,0,0,0,0,0,0,0,0,0,0,0,0,0,0,0,0,0,0,0,0,0,0,0],"trees":[{"base_weights":[5.9403786E-3,8.19723E0,-7.012384E0,5.607534E0,1.118902E1,-1.1219307E1,-1.7434328E0,3.4298701E0,7.1867247E0,1.0082039E1,1.2928587E1,-1.482993E1,-9.422833E0,-4.202944E0,8.63879E-1,2.8350666E0,6.293086E0,6.1288657E0,8.06602E0,8.900615E0,1.0720882E1,1.2475722E1,1.4472957E1,-1.5760928E1,-1.1807074E1,-8.681472E0,-1.2928615E1,-6.4072094E0,-3.2784395E0,-1.2550728E0,2.1375394E0,1.2014883E-1,2.6894277E-1,3.712672E-1,5.609E-1,3.6515015E-1,5.2358013E-1,4.8900753E-1,6.801663E-1,5.19446E-1,6.0320055E-1,6.6284335E-1,7.562193E-1,7.921026E-1,4.4091392E-1,8.7566453E-1,9.902316E-1,-1.0721916E0,-8.76269E-1,-8.042234E-1,-4.2572382E-1,-5.994121E-1,-4.4989172E-1,-7.059101E-1,-9.2762744E-1,-4.687454E-1,-2.744755E-1,-2.7276525E-1,-1.4685728E-1,-2.8524682E-1,-4.616281E-2,4.8520293E-2,2.2140087E-1],"categories":[],"categories_nodes":[],"categories_segments":[],"categories_sizes":[],"default_left":[0,1,1,0,1,0,1,1,0,0,0,0,0,0,0,0,0,0,1,0,0,0,0,0,0,1,0,0,0,0,0,0,0,0,0,0,0,0,0,0,0,0,0,0,0,0,0,0,0,0,0,0,0,0,0,0,0,0,0,0,0,0,0],"id":0,"left_children":[1,3,5,7,9,11,13,15,17,19,21,23,25,27,29,31,33,35,37,39,41,43,45,47,49,51,53,55,57,59,61,-1,-1,-1,-1,-1,-1,-1,-1,-1,-1,-1,-1,-1,-1,-1,-1,-1,-1,-1,-1,-1,-1,-1,-1,-1,-1,-1,-1,-1,-1,-1,-1],"loss_changes":[6.312522E6,3.922515E5,1.310708E6,9.330669E4,4.461325E4,2.1258475E5,1.684164E5,1.9373984E4,1.43961875E4,1.03825E4,5.48675E3,2.9799E4,5.65425E4,2.7431938E4,3.4425906E4,1.2503695E4,1.8967969E3,5.2989062E3,7.4344375E3,1.8260625E3,2.234375E3,9.955E2,4.5659375E2,1.7639875E4,1.13765E4,2.2159625E4,1.0916875E4,8.075703E3,9.360898E3,8.1695127E3,1.4836297E4,0E0,0E0,0E0,0E0,0E0,0E0,0E0,0E0,0E0,0E0,0E0,0E0,0E0,0E0,0E0,0E0,0E0,0E0,0E0,0E0,0E0,0E0,0E0,0E0,0E0,0E0,0E0,0E0,0E0,0E0,0E0,0E0],"parents":[2147483647,0,0,1,1,2,2,3,3,4,4,5,5,6,6,7,7,8,8,9,9,10,10,11,11,12,12,13,13,14,14,15,15,16,16,17,17,18,18,19,19,20,20,21,21,22,22,23,23,24,24,25,25,26,26,27,27,28,28,29,29,30,30],"right_children":[2,4,6,8,10,12,14,16,18,20,22,24,26,28,30,32,34,36,38,40,42,44,46,48,50,52,54,56,58,60,62,-1,-1,-1,-1,-1,-1,-1,-1,-1,-1,-1,-1,-1,-1,-1,-1,-1,-1,-1,-1,-1,-1,-1,-1,-1,-1,-1,-1,-1,-1,-1,-1],"split_conditions":[2E0,1.2915E-1,1.7023333E1,2.6366667E1,3.4561E1,9.166667E0,9.2925E-2,2.698E1,2.9503E1,3.2128E1,3.7306E1,5.8849E1,1E0,1.7743E1,2.4641E1,2E0,3.0687E1,2E0,3.284E1,3.2533333E1,1.4764167E-1,5E0,3.8671E1,6.3133335E0,1.20182E2,1.4276667E1,3E0,5.5691E1,2.0083334E1,2E0,2.7063334E1,1.2014883E-1,2.6894277E-1,3.712672E-1,5.609E-1,3.6515015E-1,5.2358013E-1,4.8900753E-1,6.801663E-1,5.19446E-1,6.0320055E-1,6.6284335E-1,7.562193E-1,7.921026E-1,4.4091392E-1,8.7566453E-1,9.902316E-1,-1.0721916E0,-8.76269E-1,-8.042234E-1,-4.2572382E-1,-5.994121E-1,-4.4989172E-1,-7.059101E-1,-9.2762744E-1,-4.687454E-1,-2.744755E-1,-2.7276525E-1,-1.4685728E-1,-2.8524682E-1,-4.616281E-2,4.8520293E-2,2.2140087E-1],"split_indices":[4,8,5,5,9,5,8,9,9,9,9,16,20,9,9,13,9,14,5,5,8,20,9,5,16,5,13,16,5,14,5,0,0,0,0,0,0,0,0,0,0,0,0,0,0,0,0,0,0,0,0,0,0,0,0,0,0,0,0,0,0,0,0],"split_type":[0,0,0,0,0,0,0,0,0,0,0,0,0,0,0,0,0,0,0,0,0,0,0,0,0,0,0,0,0,0,0,0,0,0,0,0,0,0,0,0,0,0,0,0,0,0,0,0,0,0,0,0,0,0,0,0,0,0,0,0,0,0,0],"sum_hessian":[1.09794E5,5.0663E4,5.9131E4,2.7164E4,2.3499E4,3.2876E4,2.6255E4,1.1425E4,1.5739E4,1.4381E4,9.118E3,1.0911E4,2.1965E4,1.3509E4,1.2746E4,9.468E3,1.957E3,7.162E3,8.577E3,5.073E3,9.308E3,7.085E3,2.033E3,8.326E3,2.585E3,1.8145E4,3.82E3,3.983E3,9.526E3,4.785E3,7.961E3,5.7E3,3.768E3,1.691E3,2.66E2,6.145E3,1.017E3,7.624E3,9.53E2,2.44E3,2.633E3,7.767E3,1.541E3,7.032E3,5.3E1,1.354E3,6.79E2,5.139E3,3.187E3,2.191E3,3.94E2,1.2082E4,6.063E3,1.899E3,1.921E3,2.68E3,1.303E3,4.583E3,4.943E3,6.61E2,4.124E3,3.968E3,3.993E3],"tree_param":{"num_deleted":"0","num_feature":"21","num_nodes":"63","size_leaf_vector":"1"}},{"base_weights":[6.6177673E-3,-7.3390236E0,6.245418E0,-1.2160078E1,-4.818166E0,2.291875E0,9.116545E0,-1.450775E1,-1.047893E1,6.8982613E-1,-5.746293E0,3.8118517E-1,4.0096216E0,7.273836E0,1.102123E1,-1.4959149E1,-3.375157E0,-1.1540425E1,-7.6454167E0,-1.8859811E0,6.7675524E0,-7.2163677E0,-3.4578168E0,-1.3491193E0,1.1675466E0,4.8210444E0,2.5244768E0,8.120026E0,4.026961E0,1.2602268E1,8.559076E0,-9.954542E-1,-8.145057E-1,-3.3291128E-1,-9.282573E-2,-6.8469286E-1,-8.5405797E-1,-5.500912E-1,-1.9630763E-1,-2.627025E-1,2.297078E-2,4.8629573E-1,1.879987E-1,-4.1037354E-1,-7.2897094E-1,-2.8834048E-1,-1.3523455E-1,-3.295883E-2,-2.2433782E-1,3.6815558E-2,1.6958888E-1,3.4766066E-1,1.4651468E-1,1.0424979E-1,2.16691E-1,5.464555E-1,2.9917204E-1,2.1336251E-1,3.0448592E-1,7.29354E-1,8.723587E-1,6.3973475E-1,4.5485502E-1],"categories":[],"categories_nodes":[],"categories_segments":[],"categories_sizes":[],"default_left":[1,0,0,0,0,0,1,0,0,0,1,0,0,0,0,0,0,0,0,1,0,0,1,0,0,0,0,0,0,0,0,0,0,0,0,0,0,0,0,0,0,0,0,0,0,0,0,0,0,0,0,0,0,0,0,0,0,0,0,0,0,0,0],"id":1,"left_children":[1,3,5,7,9,11,13,15,17,19,21,23,25,27,29,31,33,35,37,39,41,43,45,47,49,51,53,55,57,59,61,-1,-1,-1,-1,-1,-1,-1,-1,-1,-1,-1,-1,-1,-1,-1,-1,-1,-1,-1,-1,-1,-1,-1,-1,-1,-1,-1,-1,-1,-1,-1,-1],"loss_changes":[5.0418E6,6.1375625E5,6.75169E5,6.77025E4,1.69672E5,8.215347E4,1.2055025E5,3.6051125E4,3.0013375E4,7.505044E4,9.542E4,1.6140577E4,1.5822125E4,4.7997188E4,6.5390625E4,1.0119625E4,9.940156E2,9.6755625E3,1.3023266E4,1.715455E4,4.8371406E3,5.417175E4,1.6066516E4,6.728763E3,7.2129863E3,1.4256578E4,3.6509023E3,2.3950625E4,1.784582E3,1.233275E4,1.3741344E4,0E0,0E0,0E0,0E0,0E0,0E0,0E0,0E0,0E0,0E0,0E0,0E0,0E0,0E0,0E0,0E0,0E0,0E0,0E0,0E0,0E0,0E0,0E0,0E0,0E0,0E0,0E0,0E0,0E0,0E0,0E0,0E0],"parents":[2147483647,0,0,1,1,2,2,3,3,4,4,5,5,6,6,7,7,8,8,9,9,10,10,11,11,12,12,13,13,14,14,15,15,16,16,17,17,18,18,19,19,20,20,21,21,22,22,23,23,24,24,25,25,26,26,27,27,28,28,29,29,30,30],"right_children":[2,4,6,8,10,12,14,16,18,20,22,24,26,28,30,32,34,36,38,40,42,44,46,48,50,52,54,56,58,60,62,-1,-1,-1,-1,-1,-1,-1,-1,-1,-1,-1,-1,-1,-1,-1,-1,-1,-1,-1,-1,-1,-1,-1,-1,-1,-1,-1,-1,-1,-1,-1,-1],"split_conditions":[2.1473333E1,1.2273334E1,2.8814E1,6.6E0,2E0,2.4964E1,3.298E1,1.20182E2,5.7676E1,2.1473333E1,1.7023333E1,2.1794E1,2E0,3E0,2E0,4.4271E1,5E0,1E0,1.10079E2,1.9186E1,3E0,1E0,1.9306E1,1E0,5.4831E1,3E0,2.9245E1,2E0,3.118E1,3.5434E1,3E0,-9.954542E-1,-8.145057E-1,-3.3291128E-1,-9.282573E-2,-6.8469286E-1,-8.5405797E-1,-5.500912E-1,-1.9630763E-1,-2.627025E-1,2.297078E-2,4.8629573E-1,1.879987E-1,-4.1037354E-1,-7.2897094E-1,-2.8834048E-1,-1.3523455E-1,-3.295883E-2,-2.2433782E-1,3.6815558E-2,1.6958888E-1,3.4766066E-1,1.4651468E-1,1.0424979E-1,2.16691E-1,5.464555E-1,2.9917204E-1,2.1336251E-1,3.0448592E-1,7.29354E-1,8.723587E-1,6.3973475E-1,4.5485502E-1],"split_indices":[5,5,7,5,12,7,7,16,16,5,5,7,12,15,15,16,17,20,16,7,15,20,7,18,16,15,16,12,5,7,15,0,0,0,0,0,0,0,0,0,0,0,0,0,0,0,0,0,0,0,0,0,0,0,0,0,0,0,0,0,0,0,0],"split_type":[0,0,0,0,0,0,0,0,0,0,0,0,0,0,0,0,0,0,0,0,0,0,0,0,0,0,0,0,0,0,0,0,0,0,0,0,0,0,0,0,0,0,0,0,0,0,0,0,0,0,0,0,0,0,0,0,0,0,0,0,0,0,0],"sum_hessian":[1.10006E5,5.0521E4,5.9485E4,1.734E4,3.3181E4,2.5029E4,3.4456E4,7.22E3,1.012E4,4.785E3,2.8396E4,1.1852E4,1.3177E4,1.7525E4,1.6931E4,6.937E3,2.83E2,7.351E3,2.769E3,3.363E3,1.422E3,1.7283E4,1.1113E4,3.702E3,8.15E3,8.514E3,4.663E3,1.3896E4,3.629E3,1.0298E4,6.633E3,5.056E3,1.881E3,1.38E2,1.45E2,5.383E3,1.968E3,2.248E3,5.21E2,1.674E3,1.689E3,1.142E3,2.8E2,1.4773E4,2.51E3,6.066E3,5.047E3,2.692E3,1.01E3,5.878E3,2.272E3,6.712E3,1.802E3,2.366E3,2.297E3,1.2068E4,1.828E3,1.988E3,1.641E3,5.397E3,4.901E3,3.106E3,3.527E3],"tree_param":{"num_deleted":"0","num_feature":"21","num_nodes":"63","size_leaf_vector":"1"}},{"base_weights":[-1.2404955E-2,-6.3871074E0,6.276495E0,-1.1434435E1,-4.054516E0,3.5254505E0,9.455921E0,-1.2249205E1,-4.5126977E0,-5.2484894E0,-1.3415813E0,1.4132396E0,5.154235E0,1.0883267E1,7.229717E0,-1.4385189E1,-1.0658756E1,-7.967494E0,-2.4945273E0,-4.587243E0,-9.911439E0,-2.1041656E0,1.7737037E0,6.0070115E-1,4.054772E0,6.1927342E0,3.5807896E0,9.2373705E0,1.2368542E1,8.639017E0,5.9799356E0,-9.5907223E-1,-8.407897E-1,-6.3538235E-1,-7.770867E-1,-2.0344844E-2,-5.735632E-1,-1.969605E-1,-2.7441883E-3,-3.3211935E-1,-4.1057505E-2,-6.9105124E-1,-2.2927724E-1,-2.0994838E-1,-1.4016722E-2,2.4152552E-1,4.8357457E-2,-1.536425E-1,1.00600846E-1,3.5250923E-1,2.0344646E-1,2.980092E-1,4.63888E-1,2.9038686E-1,1.7219153E-1,4.5245695E-1,6.1381096E-1,7.4617356E-1,8.6669874E-1,4.5767507E-1,6.4288384E-1,3.3090633E-1,4.948864E-1],"categories":[],"categories_nodes":[],"categories_segments":[],"categories_sizes":[],"default_left":[1,0,1,0,1,0,0,0,1,0,0,0,0,1,0,1,0,0,0,0,0,1,0,0,0,0,0,0,0,1,0,0,0,0,0,0,0,0,0,0,0,0,0,0,0,0,0,0,0,0,0,0,0,0,0,0,0,0,0,0,0,0,0],"id":2,"left_children":[1,3,5,7,9,11,13,15,17,19,21,23,25,27,29,31,33,35,37,39,41,43,45,47,49,51,53,55,57,59,61,-1,-1,-1,-1,-1,-1,-1,-1,-1,-1,-1,-1,-1,-1,-1,-1,-1,-1,-1,-1,-1,-1,-1,-1,-1,-1,-1,-1,-1,-1,-1,-1],"loss_changes":[4.4025785E6,6.4184825E5,4.833585E5,9.692E4,1.2080575E5,1.0194947E5,8.10825E4,5.161375E4,1.2607484E4,7.9641875E4,2.7119672E4,2.7703377E4,2.7233594E4,3.760175E4,1.741E4,4.546375E3,8.292125E3,5.5777695E3,1.7480908E3,5.8892375E4,2.0101781E4,2.091682E4,4.613505E3,2.9591336E4,3.774246E3,1.6809875E4,5.709289E3,6.7718125E3,5.50175E3,9.68525E3,7.171E3,0E0,0E0,0E0,0E0,0E0,0E0,0E0,0E0,0E0,0E0,0E0,0E0,0E0,0E0,0E0,0E0,0E0,0E0,0E0,0E0,0E0,0E0,0E0,0E0,0E0,0E0,0E0,0E0,0E0,0E0,0E0,0E0],"parents":[2147483647,0,0,1,1,2,2,3,3,4,4,5,5,6,6,7,7,8,8,9,9,10,10,11,11,12,12,13,13,14,14,15,15,16,16,17,17,18,18,19,19,20,20,21,21,22,22,23,23,24,24,25,25,26,26,27,27,28,28,29,29,30,30],"right_children":[2,4,6,8,10,12,14,16,18,20,22,24,26,28,30,32,34,36,38,40,42,44,46,48,50,52,54,56,58,60,62,-1,-1,-1,-1,-1,-1,-1,-1,-1,-1,-1,-1,-1,-1,-1,-1,-1,-1,-1,-1,-1,-1,-1,-1,-1,-1,-1,-1,-1,-1,-1,-1],"split_conditions":[2.272E1,1.2273334E1,3.0694E1,1E0,1.9052E1,2.6414E1,2E0,6.6E0,3.191E0,1E0,1E0,1E0,2E0,3.3265E1,3E0,5.1E0,1E0,7.013E1,1.45366E2,1E0,1E0,2.2328E1,6.8639E1,2.2103E1,7.013E1,2.8611E1,3E0,3.0098E1,3.625E1,3.3655E1,3.568E1,-9.5907223E-1,-8.407897E-1,-6.3538235E-1,-7.770867E-1,-2.0344844E-2,-5.735632E-1,-1.969605E-1,-2.7441883E-3,-3.3211935E-1,-4.1057505E-2,-6.9105124E-1,-2.2927724E-1,-2.0994838E-1,-1.4016722E-2,2.4152552E-1,4.8357457E-2,-1.536425E-1,1.00600846E-1,3.5250923E-1,2.0344646E-1,2.980092E-1,4.63888E-1,2.9038686E-1,1.7219153E-1,4.5245695E-1,6.1381096E-1,7.4617356E-1,8.6669874E-1,4.5767507E-1,6.4288384E-1,3.3090633E-1,4.948864E-1],"split_indices":[5,5,7,19,7,7,15,5,9,20,19,19,15,9,15,7,20,16,16,19,19,9,16,9,16,9,15,9,9,9,7,0,0,0,0,0,0,0,0,0,0,0,0,0,0,0,0,0,0,0,0,0,0,0,0,0,0,0,0,0,0,0,0],"split_type":[0,0,0,0,0,0,0,0,0,0,0,0,0,0,0,0,0,0,0,0,0,0,0,0,0,0,0,0,0,0,0,0,0,0,0,0,0,0,0,0,0,0,0,0,0,0,0,0,0,0,0,0,0,0,0,0,0,0,0,0,0,0,0],"sum_hessian":[1.09808E5,5.4532E4,5.5276E4,1.723E4,3.7302E4,2.964E4,2.5636E4,1.5412E4,1.818E3,2.5899E4,1.1403E4,1.2909E4,1.6731E4,1.5609E4,1.0027E4,6.561E3,8.851E3,6.65E2,1.153E3,2.2691E4,3.208E3,9.162E3,2.241E3,9.877E3,3.032E3,1.007E4,6.661E3,7.421E3,8.188E3,4.699E3,5.328E3,3.839E3,2.722E3,6.417E3,2.434E3,8.4E1,5.81E2,9.2E2,2.33E2,1.9437E4,3.254E3,2.763E3,4.45E2,5.571E3,3.591E3,7.37E2,1.504E3,2.429E3,7.448E3,1.073E3,1.959E3,4.373E3,5.697E3,3.061E3,3.6E3,1.35E3,6.071E3,5.72E3,2.468E3,2.45E3,2.249E3,3.793E3,1.535E3],"tree_param":{"num_deleted":"0","num_feature":"21","num_nodes":"63","size_leaf_vector":"1"}},{"base_weights":[-2.7532496E-3,-6.435864E0,5.463949E0,-1.1065548E1,-4.4220605E0,2.1191998E0,8.078006E0,-1.1820409E1,-4.5244813E0,7.0845336E-1,-5.241418E0,-9.743909E-3,3.4638278E0,6.640882E0,1.0050482E1,-1.3467453E1,-1.02885475E1,-7.6703033E0,-2.4883413E0,-1.8139952E0,6.77369E0,-5.9597263E0,-8.7019664E-1,-9.781516E-1,2.7349055E0,4.4251437E0,1.831524E0,7.829765E0,4.786614E0,1.0967322E1,6.5967894E0,-8.827999E-1,-7.529978E-1,-7.184569E-1,-5.963553E-1,5.469779E-3,-5.489708E-1,2.9579727E-2,-2.047187E-1,-2.1344893E-1,7.561234E-2,4.8134613E-1,1.974703E-1,-3.4142512E-1,-6.324777E-1,2.0772198E-1,-1.415257E-1,-2.2713992E-1,-7.909367E-3,2.831524E-1,1.200147E-1,2.3684606E-1,4.198047E-1,6.471623E-2,3.3060485E-1,3.543627E-1,5.500393E-1,3.7207344E-1,2.421056E-1,7.271192E-1,5.860556E-1,3.7860906E-1,4.938463E-1],"categories":[],"categories_nodes":[],"categories_segments":[],"categories_sizes":[],"default_left":[1,0,0,0,0,0,1,0,1,0,0,0,0,0,0,0,0,0,0,1,0,0,0,0,0,1,0,0,0,0,0,0,0,0,0,0,0,0,0,0,0,0,0,0,0,0,0,0,0,0,0,0,0,0,0,0,0,0,0,0,0,0,0],"id":3,"left_children":[1,3,5,7,9,11,13,15,17,19,21,23,25,27,29,31,33,35,37,39,41,43,45,47,49,51,53,55,57,59,61,-1,-1,-1,-1,-1,-1,-1,-1,-1,-1,-1,-1,-1,-1,-1,-1,-1,-1,-1,-1,-1,-1,-1,-1,-1,-1,-1,-1,-1,-1,-1,-1],"loss_changes":[3.859704E6,4.6982238E5,5.1867138E5,7.517675E4,1.4775562E5,7.453034E4,9.406675E4,3.3867625E4,1.0079E4,7.417007E4,9.5125125E4,2.68118E4,2.499614E4,4.2313375E4,4.405425E4,4.12375E3,6.0215E3,4.8386914E3,2.1501191E3,1.6070514E4,4.196754E3,5.916025E4,2.431207E4,1.6600418E4,3.7918965E3,1.5019547E4,1.6223158E4,2.2261625E4,7.804453E3,9.291125E3,1.9578906E3,0E0,0E0,0E0,0E0,0E0,0E0,0E0,0E0,0E0,0E0,0E0,0E0,0E0,0E0,0E0,0E0,0E0,0E0,0E0,0E0,0E0,0E0,0E0,0E0,0E0,0E0,0E0,0E0,0E0,0E0,0E0,0E0],"parents":[2147483647,0,0,1,1,2,2,3,3,4,4,5,5,6,6,7,7,8,8,9,9,10,10,11,11,12,12,13,13,14,14,15,15,16,16,17,17,18,18,19,19,20,20,21,21,22,22,23,23,24,24,25,25,26,26,27,27,28,28,29,29,30,30],"right_children":[2,4,6,8,10,12,14,16,18,20,22,24,26,28,30,32,34,36,38,40,42,44,46,48,50,52,54,56,58,60,62,-1,-1,-1,-1,-1,-1,-1,-1,-1,-1,-1,-1,-1,-1,-1,-1,-1,-1,-1,-1,-1,-1,-1,-1,-1,-1,-1,-1,-1,-1,-1,-1],"split_conditions":[2.1473333E1,1.135E1,2.9033333E1,1E0,2E0,1.0267083E-1,1.3779584E-1,6.6E0,1.3295833E-2,2.1473333E1,1E0,1E0,2E0,2E0,3E0,4.4271E1,2.505E1,3E0,3E0,8.851667E-2,3E0,1E0,3E0,8.33625E-2,3E0,1.2292916E-1,1E0,1.221E-1,3E0,2E0,1.5044166E-1,-8.827999E-1,-7.529978E-1,-7.184569E-1,-5.963553E-1,5.469779E-3,-5.489708E-1,2.9579727E-2,-2.047187E-1,-2.1344893E-1,7.561234E-2,4.8134613E-1,1.974703E-1,-3.4142512E-1,-6.324777E-1,2.0772198E-1,-1.415257E-1,-2.2713992E-1,-7.909367E-3,2.831524E-1,1.200147E-1,2.3684606E-1,4.198047E-1,6.471623E-2,3.3060485E-1,3.543627E-1,5.500393E-1,3.7207344E-1,2.421056E-1,7.271192E-1,5.860556E-1,3.7860906E-1,4.938463E-1],"split_indices":[5,5,5,19,12,10,10,5,10,5,19,19,12,15,15,16,16,17,17,10,15,20,17,10,17,10,19,10,15,15,10,0,0,0,0,0,0,0,0,0,0,0,0,0,0,0,0,0,0,0,0,0,0,0,0,0,0,0,0,0,0,0,0],"split_type":[0,0,0,0,0,0,0,0,0,0,0,0,0,0,0,0,0,0,0,0,0,0,0,0,0,0,0,0,0,0,0,0,0,0,0,0,0,0,0,0,0,0,0,0,0,0,0,0,0,0,0,0,0,0,0,0,0,0,0,0,0,0,0],"sum_hessian":[1.09741E5,5.0414E4,5.9327E4,1.5275E4,3.5139E4,2.603E4,3.3297E4,1.3691E4,1.584E3,4.839E3,3.03E4,1.0078E4,1.5952E4,1.9275E4,1.4022E4,6.579E3,7.112E3,6.17E2,9.67E2,3.42E3,1.419E3,2.6022E4,4.278E3,7.452E3,2.626E3,1.0034E4,5.918E3,1.1735E4,7.54E3,1.1072E4,2.95E3,5.017E3,1.562E3,3.175E3,3.937E3,7.1E1,5.46E2,1.95E2,7.72E2,2.253E3,1.167E3,1.152E3,2.67E2,2.2826E4,3.196E3,1.057E3,3.221E3,1.832E3,5.62E3,8.48E2,1.778E3,7.67E3,2.364E3,4.783E3,1.135E3,3.271E3,8.464E3,3.522E3,4.018E3,8.474E3,2.598E3,1.971E3,9.79E2],"tree_param":{"num_deleted":"0","num_feature":"21","num_nodes":"63","size_leaf_vector":"1"}},{"base_weights":[1.2774898E-2,-5.197901E0,5.687322E0,-8.902074E0,-2.84429E0,3.1809082E0,8.315959E0,-9.766065E0,-2.535927E0,2.0914958E0,-4.130981E0,1.9543003E0,4.93439E0,9.104827E0,5.2804437E0,-1.2214967E1,-8.411499E0,8.4517E-1,-3.4919386E0,-5.60465E-1,6.0302906E0,-5.973915E0,-2.2733917E0,1.3563366E0,4.170715E0,5.5620728E0,2.71269E0,8.106111E0,1.0792613E1,4.291161E0,6.581233E0,-8.50301E-1,-7.087019E-1,-6.119516E-1,-4.88564E-1,-8.348902E-2,7.5462796E-2,-1.5127242E-1,-4.5103726E-1,-1.23566434E-1,1.393428E-1,4.5410365E-1,2.4317726E-1,-3.0120257E-1,-4.663058E-1,-1.921091E-1,6.641426E-2,1.5963462E-1,1.5167431E-3,3.6103636E-1,2.1426897E-1,3.8751742E-1,2.2466525E-1,1.531303E-1,2.5369912E-1,4.2780697E-1,5.542587E-1,7.127785E-1,5.877318E-1,2.380829E-1,3.2868806E-1,3.761569E-1,4.685335E-1],"categories":[],"categories_nodes":[],"categories_segments":[],"categories_sizes":[],"default_left":[1,0,0,0,0,1,0,0,0,0,1,0,0,1,1,0,0,0,0,0,0,0,0,0,0,0,0,0,0,0,0,0,0,0,0,0,0,0,0,0,0,0,0,0,0,0,0,0,0,0,0,0,0,0,0,0,0,0,0,0,0,0,0],"id":4,"left_children":[1,3,5,7,9,11,13,15,17,19,21,23,25,27,29,31,33,35,37,39,41,43,45,47,49,51,53,55,57,59,61,-1,-1,-1,-1,-1,-1,-1,-1,-1,-1,-1,-1,-1,-1,-1,-1,-1,-1,-1,-1,-1,-1,-1,-1,-1,-1,-1,-1,-1,-1,-1,-1],"loss_changes":[3.251433E6,4.9963938E5,3.4667388E5,1.2236375E5,2.2270253E5,5.792275E4,6.127575E4,6.45285E4,8.639299E3,7.577941E4,9.514103E4,2.0999836E4,1.5388656E4,3.392325E4,6.691047E3,7.90725E3,1.06368125E4,4.518671E2,8.2455E3,1.6693135E4,7.1623438E3,2.3449625E4,3.5068227E4,1.9412287E4,3.9590156E3,9.620594E3,8.825332E2,1.092975E4,4.8045E3,1.3482773E3,9.764453E2,0E0,0E0,0E0,0E0,0E0,0E0,0E0,0E0,0E0,0E0,0E0,0E0,0E0,0E0,0E0,0E0,0E0,0E0,0E0,0E0,0E0,0E0,0E0,0E0,0E0,0E0,0E0,0E0,0E0,0E0,0E0,0E0],"parents":[2147483647,0,0,1,1,2,2,3,3,4,4,5,5,6,6,7,7,8,8,9,9,10,10,11,11,12,12,13,13,14,14,15,15,16,16,17,17,18,18,19,19,20,20,21,21,22,22,23,23,24,24,25,25,26,26,27,27,28,28,29,29,30,30],"right_children":[2,4,6,8,10,12,14,16,18,20,22,24,26,28,30,32,34,36,38,40,42,44,46,48,50,52,54,56,58,60,62,-1,-1,-1,-1,-1,-1,-1,-1,-1,-1,-1,-1,-1,-1,-1,-1,-1,-1,-1,-1,-1,-1,-1,-1,-1,-1,-1,-1,-1,-1,-1,-1],"split_conditions":[9.5825E-2,6.29E-2,1.2789166E-1,1E0,2E0,2.7291E1,3E0,3.4083333E-2,3E0,9.5825E-2,7.15E-2,1E0,3E0,3.4463E1,3.4054E1,2.125E-2,4.610833E-2,9.211E0,2.3769E1,1E0,2E0,2E0,1E0,2E0,3E0,2E0,3.0963E1,3.1639E1,2E0,1.391E-1,3.6106E1,-8.50301E-1,-7.087019E-1,-6.119516E-1,-4.88564E-1,-8.348902E-2,7.5462796E-2,-1.5127242E-1,-4.5103726E-1,-1.23566434E-1,1.393428E-1,4.5410365E-1,2.4317726E-1,-3.0120257E-1,-4.663058E-1,-1.921091E-1,6.641426E-2,1.5963462E-1,1.5167431E-3,3.6103636E-1,2.1426897E-1,3.8751742E-1,2.2466525E-1,1.531303E-1,2.5369912E-1,4.2780697E-1,5.542587E-1,7.127785E-1,5.877318E-1,2.380829E-1,3.2868806E-1,3.761569E-1,4.685335E-1],"split_indices":[8,8,8,19,12,9,15,8,17,8,8,19,15,9,9,8,8,9,9,19,15,15,19,12,17,12,9,9,15,8,9,0,0,0,0,0,0,0,0,0,0,0,0,0,0,0,0,0,0,0,0,0,0,0,0,0,0,0,0,0,0,0,0],"split_type":[0,0,0,0,0,0,0,0,0,0,0,0,0,0,0,0,0,0,0,0,0,0,0,0,0,0,0,0,0,0,0,0,0,0,0,0,0,0,0,0,0,0,0,0,0,0,0,0,0,0,0,0,0,0,0,0,0,0,0,0,0,0,0],"sum_hessian":[1.09954E5,5.732E4,5.2634E4,2.2265E4,3.5055E4,2.6949E4,2.5685E4,1.9602E4,2.663E3,7.248E3,2.7807E4,1.5863E4,1.1086E4,2.0379E4,5.306E3,6.967E3,1.2635E4,5.87E2,2.076E3,4.334E3,2.914E3,1.3953E4,1.3854E4,1.2499E4,3.364E3,8.638E3,2.448E3,1.2821E4,7.558E3,3.026E3,2.28E3,3.15E3,3.817E3,4.476E3,8.159E3,7.9E1,5.08E2,1.599E3,4.77E2,2.883E3,1.451E3,1.907E3,1.007E3,7.459E3,6.494E3,1.1272E4,2.582E3,6.665E3,5.834E3,1.13E3,2.234E3,6.752E3,1.886E3,2.007E3,4.41E2,4.185E3,8.636E3,5.748E3,1.81E3,1.921E3,1.105E3,1.304E3,9.76E2],"tree_param":{"num_deleted":"0","num_feature":"21","num_nodes":"63","size_leaf_vector":"1"}},{"base_weights":[-4.5453333E-3,6.15076E0,-5.276862E0,4.2094455E0,8.024424E0,-8.506603E0,-1.6719179E0,3.2515848E0,5.735416E0,8.7961855E0,5.076159E0,-1.0898467E1,-7.28205E0,-3.2577477E0,5.349298E-1,2.4677613E0,4.349795E0,6.8475204E0,4.065914E0,8.120591E0,1.0511187E1,4.4527965E0,6.449293E0,-1.1198738E1,-7.1310644E0,-6.701208E0,-9.841477E0,-5.038438E0,-2.3511488E0,-4.3815133E-1,1.7559412E0,9.458789E-2,2.4633138E-1,3.1801635E-1,1.1945348E-1,3.8574257E-1,5.083771E-1,3.250282E-1,1.9965555E-1,5.4001117E-1,4.197859E-1,6.491155E-1,8.185076E-1,2.708611E-1,4.3775284E-1,3.899037E-1,5.232698E-1,-7.7443296E-1,-6.373798E-1,-3.2543445E-1,-5.7785386E-1,-3.8389692E-1,-5.119926E-1,-5.2348137E-1,-7.157218E-1,-2.6766974E-1,-4.3360242E-1,-2.1870486E-1,-1.0035758E-1,-1.7952737E-1,-8.626441E-3,-1.0828029E-2,1.5344943E-1],"categories":[],"categories_nodes":[],"categories_segments":[],"categories_sizes":[],"default_left":[0,0,1,1,0,0,1,0,0,1,1,0,0,0,0,0,0,0,0,0,0,1,0,0,0,0,0,0,0,0,0,0,0,0,0,0,0,0,0,0,0,0,0,0,0,0,0,0,0,0,0,0,0,0,0,0,0,0,0,0,0,0,0],"id":5,"left_children":[1,3,5,7,9,11,13,15,17,19,21,23,25,27,29,31,33,35,37,39,41,43,45,47,49,51,53,55,57,59,61,-1,-1,-1,-1,-1,-1,-1,-1,-1,-1,-1,-1,-1,-1,-1,-1,-1,-1,-1,-1,-1,-1,-1,-1,-1,-1,-1,-1,-1,-1,-1,-1],"loss_changes":[3.5695632E6,1.8441412E5,6.897275E5,3.634947E4,5.852025E4,9.112775E4,9.8011125E4,1.3140172E4,1.7699125E4,2.3274125E4,4.4491094E3,1.15595E4,3.0416125E4,2.6244453E4,1.3921002E4,1.2381543E4,1.053268E4,4.8931875E3,3.6721055E3,8.6828125E3,2.9315625E3,1.4401406E3,6.2216406E2,1.0827625E4,2.9193047E3,1.465475E4,8.317875E3,7.9125625E3,9.1046875E3,4.7173613E3,6.6914473E3,0E0,0E0,0E0,0E0,0E0,0E0,0E0,0E0,0E0,0E0,0E0,0E0,0E0,0E0,0E0,0E0,0E0,0E0,0E0,0E0,0E0,0E0,0E0,0E0,0E0,0E0,0E0,0E0,0E0,0E0,0E0,0E0],"parents":[2147483647,0,0,1,1,2,2,3,3,4,4,5,5,6,6,7,7,8,8,9,9,10,10,11,11,12,12,13,13,14,14,15,15,16,16,17,17,18,18,19,19,20,20,21,21,22,22,23,23,24,24,25,25,26,26,27,27,28,28,29,29,30,30],"right_children":[2,4,6,8,10,12,14,16,18,20,22,24,26,28,30,32,34,36,38,40,42,44,46,48,50,52,54,56,58,60,62,-1,-1,-1,-1,-1,-1,-1,-1,-1,-1,-1,-1,-1,-1,-1,-1,-1,-1,-1,-1,-1,-1,-1,-1,-1,-1,-1,-1,-1,-1,-1,-1],"split_conditions":[2E0,3.1283333E1,1.633E1,2.7705E1,3E0,8.926666E0,2.2103E1,2.555E1,2E0,3.5067E1,3.4858E1,1E0,1E0,1.8011E1,2.6026667E1,2E0,3E0,3.0777E1,3E0,2E0,3.8671E1,3.7323334E1,3.9626667E1,5.5133333E0,1.9741E1,3E0,3E0,1E0,1.9956667E1,2E0,2E0,9.458789E-2,2.4633138E-1,3.1801635E-1,1.1945348E-1,3.8574257E-1,5.083771E-1,3.250282E-1,1.9965555E-1,5.4001117E-1,4.197859E-1,6.491155E-1,8.185076E-1,2.708611E-1,4.3775284E-1,3.899037E-1,5.232698E-1,-7.7443296E-1,-6.373798E-1,-3.2543445E-1,-5.7785386E-1,-3.8389692E-1,-5.119926E-1,-5.2348137E-1,-7.157218E-1,-2.6766974E-1,-4.3360242E-1,-2.1870486E-1,-1.0035758E-1,-1.7952737E-1,-8.626441E-3,-1.0828029E-2,1.5344943E-1],"split_indices":[4,5,5,9,15,5,9,5,15,9,9,19,20,9,5,13,15,9,15,15,9,5,5,5,9,12,13,18,5,13,13,0,0,0,0,0,0,0,0,0,0,0,0,0,0,0,0,0,0,0,0,0,0,0,0,0,0,0,0,0,0,0,0],"split_type":[0,0,0,0,0,0,0,0,0,0,0,0,0,0,0,0,0,0,0,0,0,0,0,0,0,0,0,0,0,0,0,0,0,0,0,0,0,0,0,0,0,0,0,0,0,0,0,0,0,0,0,0,0,0,0,0,0,0,0,0,0,0,0],"sum_hessian":[1.09983E5,5.0742E4,5.9241E4,2.4929E4,2.5813E4,3.1243E4,2.7998E4,1.5325E4,9.604E3,2.045E4,5.363E3,1.0566E4,2.0677E4,1.629E4,1.1708E4,8.952E3,6.373E3,5.755E3,3.849E3,1.4691E4,5.759E3,3.703E3,1.66E3,9.777E3,7.89E2,1.6867E4,3.81E3,5.488E3,1.0802E4,6.517E3,5.191E3,5.322E3,3.63E3,5E3,1.373E3,3.533E3,2.222E3,1.762E3,2.087E3,1.1504E4,3.187E3,5.228E3,5.31E2,3.471E3,2.32E2,1.45E3,2.1E2,5.08E3,4.697E3,4.04E2,3.85E2,1.1575E4,5.292E3,1.853E3,1.957E3,3.803E3,1.685E3,4.418E3,6.384E3,7.24E2,5.793E3,1.337E3,3.854E3],"tree_param":{"num_deleted":"0","num_feature":"21","num_nodes":"63","size_leaf_vector":"1"}},{"base_weights":[7.6525016E-3,-5.061946E0,4.7675433E0,-8.257115E0,-2.8765116E0,2.0718904E0,6.780778E0,-1.0232213E1,-6.794408E0,-2.416782E0,-6.7644997E0,5.1195663E-1,3.2460902E0,5.614974E0,8.371058E0,-1.0546434E1,-2.792699E0,-7.69631E0,-4.6019373E0,-2.992069E0,-7.273958E-2,-4.263242E0,-9.899779E0,-9.3389726E-1,1.3503454E0,2.3125226E0,4.0502696E0,4.9210124E0,6.7183433E0,7.7826056E0,9.306603E0,-7.137486E-1,-5.661791E-1,-2.933119E-1,-5.436973E-2,-5.9393007E-1,-4.4174573E-1,-3.3727747E-1,-4.736394E-2,-2.6842067E-1,-1.4002304E-1,-5.8573302E-2,5.555651E-2,-3.3210376E-1,-3.0112315E-2,-6.4742714E-1,-2.0773302E-1,-1.2273937E-1,7.8020185E-2,3.739535E-2,1.3062614E-1,7.92893E-2,1.8942259E-1,2.0513298E-1,2.91473E-1,2.6651624E-1,3.723762E-1,3.951416E-1,5.06627E-1,4.949217E-1,1.756753E-1,5.706077E-1,6.965493E-1],"categories":[],"categories_nodes":[],"categories_segments":[],"categories_sizes":[],"default_left":[1,0,0,0,0,0,1,0,0,1,0,0,0,0,0,0,0,0,0,0,0,1,0,0,0,0,0,1,0,0,0,0,0,0,0,0,0,0,0,0,0,0,0,0,0,0,0,0,0,0,0,0,0,0,0,0,0,0,0,0,0,0,0],"id":6,"left_children":[1,3,5,7,9,11,13,15,17,19,21,23,25,27,29,31,33,35,37,39,41,43,45,47,49,51,53,55,57,59,61,-1,-1,-1,-1,-1,-1,-1,-1,-1,-1,-1,-1,-1,-1,-1,-1,-1,-1,-1,-1,-1,-1,-1,-1,-1,-1,-1,-1,-1,-1,-1,-1],"loss_changes":[2.651334E6,3.7140638E5,3.0746262E5,6.2077375E4,5.6403312E4,4.4380336E4,5.9902E4,2.131825E4,2.4397812E4,3.811786E4,2.5970922E4,1.262993E4,1.03309375E4,1.417575E4,7.186375E3,9.781E3,1.3263259E3,1.0326594E4,1.0144633E4,2.2052031E4,4.5213364E3,6.930375E3,3.0299219E3,8.338864E3,3.5644219E3,4.597676E3,3.252586E3,7.7456875E3,4.168125E3,1.3841875E3,2.1258125E3,0E0,0E0,0E0,0E0,0E0,0E0,0E0,0E0,0E0,0E0,0E0,0E0,0E0,0E0,0E0,0E0,0E0,0E0,0E0,0E0,0E0,0E0,0E0,0E0,0E0,0E0,0E0,0E0,0E0,0E0,0E0,0E0],"parents":[2147483647,0,0,1,1,2,2,3,3,4,4,5,5,6,6,7,7,8,8,9,9,10,10,11,11,12,12,13,13,14,14,15,15,16,16,17,17,18,18,19,19,20,20,21,21,22,22,23,23,24,24,25,25,26,26,27,27,28,28,29,29,30,30],"right_children":[2,4,6,8,10,12,14,16,18,20,22,24,26,28,30,32,34,36,38,40,42,44,46,48,50,52,54,56,58,60,62,-1,-1,-1,-1,-1,-1,-1,-1,-1,-1,-1,-1,-1,-1,-1,-1,-1,-1,-1,-1,-1,-1,-1,-1,-1,-1,-1,-1,-1,-1,-1,-1],"split_conditions":[9.3166664E-2,5.8847222E-2,2.9338E1,3.3055555E-2,1E0,2.531E1,3.3265E1,1.20182E2,5.4015E1,2.0998E1,3E0,2.2103E1,2.7291E1,1.3640277E-1,3.62E1,3.586E1,5E0,1.1855E1,1.14236E2,7.475E-2,2.3275E1,2.2215E1,4E0,6.1886E1,2.5812E1,2.6979E1,1.1316667E-1,3.059E1,3.4732E1,6E0,3.9476E1,-7.137486E-1,-5.661791E-1,-2.933119E-1,-5.436973E-2,-5.9393007E-1,-4.4174573E-1,-3.3727747E-1,-4.736394E-2,-2.6842067E-1,-1.4002304E-1,-5.8573302E-2,5.555651E-2,-3.3210376E-1,-3.0112315E-2,-6.4742714E-1,-2.0773302E-1,-1.2273937E-1,7.8020185E-2,3.739535E-2,1.3062614E-1,7.92893E-2,1.8942259E-1,2.0513298E-1,2.91473E-1,2.6651624E-1,3.723762E-1,3.951416E-1,5.06627E-1,4.949217E-1,1.756753E-1,5.706077E-1,6.965493E-1],"split_indices":[6,6,7,6,20,7,9,16,16,9,14,9,9,6,7,16,17,9,16,6,9,9,17,16,16,16,6,9,7,20,7,0,0,0,0,0,0,0,0,0,0,0,0,0,0,0,0,0,0,0,0,0,0,0,0,0,0,0,0,0,0,0,0],"split_type":[0,0,0,0,0,0,0,0,0,0,0,0,0,0,0,0,0,0,0,0,0,0,0,0,0,0,0,0,0,0,0,0,0,0,0,0,0,0,0,0,0,0,0,0,0,0,0,0,0,0,0,0,0,0,0,0,0,0,0,0,0,0,0],"sum_hessian":[1.09864E5,5.3201E4,5.6663E4,2.1603E4,3.1598E4,2.423E4,3.2433E4,9.179E3,1.2424E4,2.8264E4,3.334E3,1.0409E4,1.3821E4,1.8727E4,1.3706E4,8.805E3,3.74E2,8.794E3,3.63E3,2.2693E4,5.571E3,1.861E3,1.473E3,3.82E3,6.589E3,6.405E3,7.416E3,1.1513E4,7.214E3,8.442E3,5.264E3,6.034E3,2.771E3,1.88E2,1.86E2,2.61E3,6.184E3,3.053E3,5.77E2,8.721E3,1.3972E4,2.937E3,2.634E3,1.476E3,3.85E2,1.401E3,7.2E1,2.61E3,1.21E3,3.195E3,3.394E3,2.508E3,3.897E3,3.026E3,4.39E3,6.633E3,4.88E3,5.283E3,1.931E3,8.38E3,6.2E1,4.515E3,7.49E2],"tree_param":{"num_deleted":"0","num_feature":"21","num_nodes":"63","size_leaf_vector":"1"}},{"base_weights":[-3.9372453E-3,-4.650617E0,4.512216E0,-8.115526E0,-2.8611696E0,2.1799626E0,6.5131016E0,-8.742707E0,-2.93594E0,-3.4556808E0,2.8236404E-1,4.9594015E-1,3.159236E0,5.4173675E0,7.831745E0,-1.0385166E1,-7.5436153E0,-5.6560864E0,-1.5351593E0,-5.5656095E0,-2.5966864E0,7.39519E-1,-5.454703E0,-3.4791297E-1,2.771734E0,2.3278189E0,3.9396765E0,4.7020316E0,6.3538246E0,7.3205705E0,8.834264E0,-6.8880767E-1,-5.6598115E-1,-4.4496694E-1,-5.6896627E-1,4.0929817E-2,-4.2417562E-1,4.9719688E-2,-1.3097793E-1,-3.9023355E-1,-2.774234E-1,-1.3368855E-1,-4.3385565E-1,1.6236271E-1,-6.1019864E-3,-3.9844802E-1,1.9537999E-1,-1.9298398E-1,1.7985502E-2,2.4754371E-1,1.3706587E-1,1.1794814E-1,2.7738E-1,2.234319E-1,3.0777723E-1,8.747467E-2,3.1311738E-1,3.7354925E-1,4.7629187E-1,4.6715504E-1,2.565322E-1,5.3394645E-1,6.463942E-1],"categories":[],"categories_nodes":[],"categories_segments":[],"categories_sizes":[],"default_left":[1,0,0,0,0,0,1,0,1,0,0,0,1,0,0,0,0,0,0,1,0,0,0,0,0,0,0,0,0,0,0,0,0,0,0,0,0,0,0,0,0,0,0,0,0,0,0,0,0,0,0,0,0,0,0,0,0,0,0,0,0,0,0],"id":7,"left_children":[1,3,5,7,9,11,13,15,17,19,21,23,25,27,29,31,33,35,37,39,41,43,45,47,49,51,53,55,57,59,61,-1,-1,-1,-1,-1,-1,-1,-1,-1,-1,-1,-1,-1,-1,-1,-1,-1,-1,-1,-1,-1,-1,-1,-1,-1,-1,-1,-1,-1,-1,-1,-1],"loss_changes":[2.3100362E6,3.3628238E5,2.604325E5,5.988525E4,6.688541E4,4.2512773E4,4.319625E4,3.2059375E4,7.585574E3,5.4469812E4,1.4955955E4,1.8224883E4,1.0530547E4,1.0851406E4,6.6581875E3,4.4835625E3,6.776375E3,4.4926523E3,1.6547136E3,6.028125E3,4.4088562E4,8.058067E3,3.1134248E3,1.1824915E4,1.7283848E3,7.50175E3,3.0904688E3,7.5252344E3,3.5395938E3,1.5872188E3,2.0895938E3,0E0,0E0,0E0,0E0,0E0,0E0,0E0,0E0,0E0,0E0,0E0,0E0,0E0,0E0,0E0,0E0,0E0,0E0,0E0,0E0,0E0,0E0,0E0,0E0,0E0,0E0,0E0,0E0,0E0,0E0,0E0,0E0],"parents":[2147483647,0,0,1,1,2,2,3,3,4,4,5,5,6,6,7,7,8,8,9,9,10,10,11,11,12,12,13,13,14,14,15,15,16,16,17,17,18,18,19,19,20,20,21,21,22,22,23,23,24,24,25,25,26,26,27,27,28,28,29,29,30,30],"right_children":[2,4,6,8,10,12,14,16,18,20,22,24,26,28,30,32,34,36,38,40,42,44,46,48,50,52,54,56,58,60,62,-1,-1,-1,-1,-1,-1,-1,-1,-1,-1,-1,-1,-1,-1,-1,-1,-1,-1,-1,-1,-1,-1,-1,-1,-1,-1,-1,-1,-1,-1,-1,-1],"split_conditions":[2.259E1,1.28E1,2.9968E1,1E0,1E0,1.04433335E-1,1.3860416E-1,6.89E0,1.3295833E-2,1.6894E1,2.259E1,1E0,1.137125E-1,3.2736668E1,3.6508E1,3.7342E1,1E0,7.013E1,6.8972E1,6.440417E-2,1E0,6.8972E1,1.69102E2,8.33625E-2,7.3911E1,1E0,1.24183334E-1,2.6933332E1,3.4732E1,3E0,1.589875E-1,-6.8880767E-1,-5.6598115E-1,-4.4496694E-1,-5.6896627E-1,4.0929817E-2,-4.2417562E-1,4.9719688E-2,-1.3097793E-1,-3.9023355E-1,-2.774234E-1,-1.3368855E-1,-4.3385565E-1,1.6236271E-1,-6.1019864E-3,-3.9844802E-1,1.9537999E-1,-1.9298398E-1,1.7985502E-2,2.4754371E-1,1.3706587E-1,1.1794814E-1,2.7738E-1,2.234319E-1,3.0777723E-1,8.747467E-2,3.1311738E-1,3.7354925E-1,4.7629187E-1,4.6715504E-1,2.565322E-1,5.3394645E-1,6.463942E-1],"split_indices":[5,5,7,19,19,10,10,5,10,7,5,19,10,5,7,16,20,16,16,10,20,16,16,10,16,19,10,5,7,20,10,0,0,0,0,0,0,0,0,0,0,0,0,0,0,0,0,0,0,0,0,0,0,0,0,0,0,0,0,0,0,0,0],"split_type":[0,0,0,0,0,0,0,0,0,0,0,0,0,0,0,0,0,0,0,0,0,0,0,0,0,0,0,0,0,0,0,0,0,0,0,0,0,0,0,0,0,0,0,0,0,0,0,0,0,0,0,0,0,0,0,0,0,0,0,0,0,0,0],"sum_hessian":[1.1007E5,5.4251E4,5.5819E4,1.847E4,3.5781E4,2.578E4,3.0039E4,1.6472E4,1.998E3,3.009E4,5.691E3,9.482E3,1.6298E4,1.642E4,1.3619E4,6.935E3,9.537E3,6.74E2,1.324E3,8.698E3,2.1392E4,5.275E3,4.16E2,6.92E3,2.562E3,7.901E3,8.397E3,9.326E3,7.094E3,9.047E3,4.572E3,5.14E3,1.795E3,7.052E3,2.485E3,9.6E1,5.78E2,2.47E2,1.077E3,5.762E3,2.936E3,1.9211E4,2.181E3,1.654E3,3.621E3,3.8E2,3.6E1,1.309E3,5.611E3,8.81E2,1.681E3,6.451E3,1.45E3,5.828E3,2.569E3,6.41E2,8.685E3,5.135E3,1.959E3,8.881E3,1.66E2,3.57E3,1.002E3],"tree_param":{"num_deleted":"0","num_feature":"21","num_nodes":"63","size_leaf_vector":"1"}},{"base_weights":[-2.5117176E-3,5.221939E0,-4.4884434E0,3.794898E0,6.850764E0,-7.148723E0,-1.586493E0,4.6467996E0,2.513283E0,7.97921E0,5.0487843E0,-8.390977E0,-5.540676E0,-2.8456328E0,2.6760185E-1,3.6874876E0,6.032844E0,3.316285E0,1.815836E0,6.694935E0,8.462829E0,6.1879015E0,4.0877748E0,-9.899868E0,-7.6873035E0,-5.0234995E0,-6.8047786E0,-4.510468E0,-2.1457121E0,-1.4803667E0,7.0372844E-1,1.9626153E-1,3.1788835E-1,3.4825194E-1,4.617687E-1,1.4733802E-1,2.6159868E-1,9.893105E-2,2.7048585E-1,3.9588666E-1,4.6291083E-1,5.1825476E-1,6.332901E-1,3.507281E-1,4.7325248E-1,2.2986805E-1,3.2362974E-1,-6.545031E-1,-4.7597086E-1,-4.4828084E-1,-5.8415174E-1,-3.0144376E-1,-4.175273E-1,-4.8593473E-1,-2.9575083E-1,-4.6256804E-1,-2.5442776E-1,-3.1853163E-1,-1.2283369E-1,-1.6164395E-1,-1.1783427E-2,1.1422054E-2,1.5703553E-1],"categories":[],"categories_nodes":[],"categories_segments":[],"categories_sizes":[],"default_left":[0,0,1,0,0,1,1,1,0,0,0,0,0,0,0,0,0,0,0,0,1,1,1,0,0,0,0,0,0,0,0,0,0,0,0,0,0,0,0,0,0,0,0,0,0,0,0,0,0,0,0,0,0,0,0,0,0,0,0,0,0,0,0],"id":8,"left_children":[1,3,5,7,9,11,13,15,17,19,21,23,25,27,29,31,33,35,37,39,41,43,45,47,49,51,53,55,57,59,61,-1,-1,-1,-1,-1,-1,-1,-1,-1,-1,-1,-1,-1,-1,-1,-1,-1,-1,-1,-1,-1,-1,-1,-1,-1,-1,-1,-1,-1,-1,-1,-1],"loss_changes":[2.5804492E6,1.1809825E5,4.572645E5,2.9552375E4,4.8084625E4,6.1501875E4,6.616398E4,2.1542406E4,6.039453E3,8.7803125E3,9.8965625E3,1.8122125E4,8.642594E3,1.9616375E4,8.74552E3,7.4703984E3,4.260828E3,4.0110547E3,3.5788652E3,8.643906E2,4.0969375E3,3.2785E3,2.2357344E3,5.386125E3,1.078725E4,3.7865156E3,7.0678594E3,6.7098047E3,6.997539E3,3.1776836E3,8.532203E3,0E0,0E0,0E0,0E0,0E0,0E0,0E0,0E0,0E0,0E0,0E0,0E0,0E0,0E0,0E0,0E0,0E0,0E0,0E0,0E0,0E0,0E0,0E0,0E0,0E0,0E0,0E0,0E0,0E0,0E0,0E0,0E0],"parents":[2147483647,0,0,1,1,2,2,3,3,4,4,5,5,6,6,7,7,8,8,9,9,10,10,11,11,12,12,13,13,14,14,15,15,16,16,17,17,18,18,19,19,20,20,21,21,22,22,23,23,24,24,25,25,26,26,27,27,28,28,29,29,30,30],"right_children":[2,4,6,8,10,12,14,16,18,20,22,24,26,28,30,32,34,36,38,40,42,44,46,48,50,52,54,56,58,60,62,-1,-1,-1,-1,-1,-1,-1,-1,-1,-1,-1,-1,-1,-1,-1,-1,-1,-1,-1,-1,-1,-1,-1,-1,-1,-1,-1,-1,-1,-1,-1,-1],"split_conditions":[2E0,3.191E1,1.6186666E1,2E0,2E0,1.0083333E1,2.2215E1,2.7804E1,3E0,3.3071E1,3E0,5.5133333E0,3E0,1.7493E1,2E0,2.716E1,3.1639E1,2.6683332E1,1.01678E2,3.3886665E1,3.821E1,3.5067E1,3.617E1,6.6519E1,1E0,1E0,5.7985E1,2E0,2E0,2.7916E1,1.16058335E-1,1.9626153E-1,3.1788835E-1,3.4825194E-1,4.617687E-1,1.4733802E-1,2.6159868E-1,9.893105E-2,2.7048585E-1,3.9588666E-1,4.6291083E-1,5.1825476E-1,6.332901E-1,3.507281E-1,4.7325248E-1,2.2986805E-1,3.2362974E-1,-6.545031E-1,-4.7597086E-1,-4.4828084E-1,-5.8415174E-1,-3.0144376E-1,-4.175273E-1,-4.8593473E-1,-2.9575083E-1,-4.6256804E-1,-2.5442776E-1,-3.1853163E-1,-1.2283369E-1,-1.6164395E-1,-1.1783427E-2,1.1422054E-2,1.5703553E-1],"split_indices":[4,5,5,15,15,5,9,9,15,9,15,5,4,9,14,5,9,5,16,5,5,9,5,16,20,20,16,11,14,9,8,0,0,0,0,0,0,0,0,0,0,0,0,0,0,0,0,0,0,0,0,0,0,0,0,0,0,0,0,0,0,0,0],"split_type":[0,0,0,0,0,0,0,0,0,0,0,0,0,0,0,0,0,0,0,0,0,0,0,0,0,0,0,0,0,0,0,0,0,0,0,0,0,0,0,0,0,0,0,0,0,0,0,0,0,0,0,0,0,0,0,0,0,0,0,0,0,0,0],"sum_hessian":[1.10094E5,5.086E4,5.9234E4,2.7118E4,2.3742E4,3.09E4,2.8334E4,1.6282E4,1.0836E4,1.4589E4,9.153E3,1.7421E4,1.3479E4,1.6873E4,1.1461E4,9.633E3,6.649E3,5.028E3,5.808E3,4.011E3,1.0578E4,4.176E3,4.977E3,5.52E3,1.1901E4,9.583E3,3.896E3,4.986E3,1.1887E4,2.286E3,9.175E3,6.7E3,2.933E3,4.696E3,1.953E3,2.282E3,2.746E3,5.273E3,5.35E2,2.371E3,1.64E3,8.996E3,1.582E3,2.796E3,1.38E3,3.458E3,1.519E3,4.647E3,8.73E2,8.56E3,3.341E3,8.232E3,1.351E3,2.757E3,1.139E3,7.35E2,4.251E3,7.82E2,1.1105E4,1.247E3,1.039E3,7.092E3,2.083E3],"tree_param":{"num_deleted":"0","num_feature":"21","num_nodes":"63","size_leaf_vector":"1"}},{"base_weights":[-1.188559E-2,4.8747807E0,-4.1934776E0,3.5388787E0,6.403697E0,-6.6284294E0,-1.3644558E0,2.9840274E0,4.994783E0,5.8998795E0,7.4774303E0,-7.8058414E0,-5.0664306E0,-3.1020544E0,-2.0086527E-1,3.4334464E0,1.803922E0,4.474252E0,5.834952E0,4.6845345E0,6.1656046E0,7.1987267E0,8.68237E0,-9.25497E0,-7.1702456E0,-4.5762916E0,-6.412704E0,-4.7540927E0,-2.570535E0,-1.2646086E0,7.4677587E-1,1.8933812E-1,2.9767582E-1,4.930126E-3,1.4911035E-1,2.6957318E-1,3.1712693E-1,2.3881035E-1,3.7259316E-1,2.567094E-1,3.3347192E-1,4.0151894E-1,3.2751274E-1,4.4529265E-1,4.9338377E-1,5.6643444E-1,4.6918932E-1,-6.0567224E-1,-4.0030423E-1,-5.402593E-1,-4.249378E-1,-3.2733533E-1,-2.447687E-1,-4.5964375E-1,-2.7056703E-1,-5.1162046E-1,-2.604198E-1,-3.4404087E-1,-1.5257284E-1,-2.342469E-1,-5.635267E-2,-6.29852E-2,7.433269E-2],"categories":[],"categories_nodes":[],"categories_segments":[],"categories_sizes":[],"default_left":[0,0,1,1,1,1,0,0,0,0,0,0,0,0,1,0,0,0,0,0,0,0,0,0,0,0,0,0,0,0,0,0,0,0,0,0,0,0,0,0,0,0,0,0,0,0,0,0,0,0,0,0,0,0,0,0,0,0,0,0,0,0,0],"id":9,"left_children":[1,3,5,7,9,11,13,15,17,19,21,23,25,27,29,31,33,35,37,39,41,43,45,47,49,51,53,55,57,59,61,-1,-1,-1,-1,-1,-1,-1,-1,-1,-1,-1,-1,-1,-1,-1,-1,-1,-1,-1,-1,-1,-1,-1,-1,-1,-1,-1,-1,-1,-1,-1,-1],"loss_changes":[2.2472695E6,1.03464625E5,4.0819294E5,2.1795406E4,1.25674375E4,5.8374375E4,5.543421E4,1.0371125E4,3.1316562E3,5.057875E3,2.2165312E3,1.6386125E4,8.893281E3,9.592914E3,1.6564938E4,7.9018438E3,5.157842E3,4.264297E2,1.8345312E2,9.598633E2,2.1525938E3,3.2746875E2,1.3719531E2,4.7501875E3,7.604125E3,4.143828E3,6.45325E3,5.523457E3,3.760246E3,7.042207E3,6.4754873E3,0E0,0E0,0E0,0E0,0E0,0E0,0E0,0E0,0E0,0E0,0E0,0E0,0E0,0E0,0E0,0E0,0E0,0E0,0E0,0E0,0E0,0E0,0E0,0E0,0E0,0E0,0E0,0E0,0E0,0E0,0E0,0E0],"parents":[2147483647,0,0,1,1,2,2,3,3,4,4,5,5,6,6,7,7,8,8,9,9,10,10,11,11,12,12,13,13,14,14,15,15,16,16,17,17,18,18,19,19,20,20,21,21,22,22,23,23,24,24,25,25,26,26,27,27,28,28,29,29,30,30],"right_children":[2,4,6,8,10,12,14,16,18,20,22,24,26,28,30,32,34,36,38,40,42,44,46,48,50,52,54,56,58,60,62,-1,-1,-1,-1,-1,-1,-1,-1,-1,-1,-1,-1,-1,-1,-1,-1,-1,-1,-1,-1,-1,-1,-1,-1,-1,-1,-1,-1,-1,-1,-1,-1],"split_conditions":[2E0,3.191E1,1.661E1,2.9503E1,3.4958E1,1.054E1,2.1082E1,5E0,3.1933E1,3.1061E1,3.8514E1,5.5133333E0,3E0,1.6107E1,2.3645E1,6.2229E1,2.1328E1,3.618E1,4.2E1,3.3063E1,5E0,3.7088E1,4E0,8.4813E1,1E0,2.8465E1,5.8849E1,2E0,2E0,2E0,2E0,1.8933812E-1,2.9767582E-1,4.930126E-3,1.4911035E-1,2.6957318E-1,3.1712693E-1,2.3881035E-1,3.7259316E-1,2.567094E-1,3.3347192E-1,4.0151894E-1,3.2751274E-1,4.4529265E-1,4.9338377E-1,5.6643444E-1,4.6918932E-1,-6.0567224E-1,-4.0030423E-1,-5.402593E-1,-4.249378E-1,-3.2733533E-1,-2.447687E-1,-4.5964375E-1,-2.7056703E-1,-5.1162046E-1,-2.604198E-1,-3.4404087E-1,-1.5257284E-1,-2.342469E-1,-5.635267E-2,-6.29852E-2,7.433269E-2],"split_indices":[4,5,5,9,9,5,7,3,9,9,7,5,4,9,9,16,7,16,2,16,3,9,11,16,11,16,16,11,13,13,13,0,0,0,0,0,0,0,0,0,0,0,0,0,0,0,0,0,0,0,0,0,0,0,0,0,0,0,0,0,0,0,0],"split_type":[0,0,0,0,0,0,0,0,0,0,0,0,0,0,0,0,0,0,0,0,0,0,0,0,0,0,0,0,0,0,0,0,0,0,0,0,0,0,0,0,0,0,0,0,0,0,0,0,0,0,0,0,0,0,0,0,0,0,0,0,0,0,0],"sum_hessian":[1.09967E5,5.0708E4,5.9259E4,2.7071E4,2.3637E4,3.1844E4,2.7415E4,1.9612E4,7.459E3,1.611E4,7.527E3,1.8146E4,1.3698E4,1.0992E4,1.6423E4,1.4196E4,5.416E3,4.625E3,2.834E3,2.907E3,1.3203E4,6.141E3,1.386E3,5.512E3,1.2634E4,1.0058E4,3.64E3,2.666E3,8.326E3,7.737E3,8.686E3,1.0537E4,3.659E3,1.313E3,4.103E3,3.327E3,1.298E3,7.7E1,2.757E3,1.417E3,1.49E3,1.1182E4,2.021E3,4.859E3,1.282E3,1.122E3,2.64E2,4.971E3,5.41E2,3.153E3,9.481E3,5.457E3,4.601E3,2.598E3,1.042E3,4.21E2,2.245E3,4.33E2,7.893E3,1.025E3,6.712E3,1.71E3,6.976E3],"tree_param":{"num_deleted":"0","num_feature":"21","num_nodes":"63","size_leaf_vector":"1"}},{"base_weights":[-4.6841153E-3,4.5876894E0,-3.9434302E0,3.145684E0,5.8375435E0,-6.190324E0,-1.3259912E0,2.5023913E0,4.08394E0,5.37061E0,6.994013E0,-7.613325E0,-5.2976465E0,-2.495151E0,2.557198E-1,1.9180676E0,3.7695606E0,3.7950253E0,4.947239E0,4.653212E0,5.6219535E0,6.736425E0,8.142903E0,-7.9181485E0,-4.633399E0,-7.218986E0,-4.55231E0,-3.750666E0,-1.8757374E0,-3.0228484E-1,1.2831358E0,1.4834148E-2,1.526504E-1,1.6996108E-1,3.142187E-1,2.3260663E-1,3.6953855E-1,3.0224255E-1,4.002539E-1,2.5865072E-1,3.124147E-1,3.505789E-1,4.5776328E-1,4.3502232E-1,3.885262E-1,4.828651E-1,5.64962E-1,-5.955617E-1,-4.726511E-1,-3.6603302E-1,-2.096713E-1,-4.975392E-1,-3.357181E-1,-3.1144422E-1,-2.1601343E-1,-4.4630638E-1,-2.1927561E-1,-2.4464145E-1,-1.0323609E-1,-1.317763E-1,-2.5745218E-3,-2.3960985E-2,1.1889414E-1],"categories":[],"categories_nodes":[],"categories_segments":[],"categories_sizes":[],"default_left":[0,0,1,1,1,0,1,0,0,0,0,0,0,0,0,0,0,0,0,0,0,0,0,0,0,0,0,0,0,0,0,0,0,0,0,0,0,0,0,0,0,0,0,0,0,0,0,0,0,0,0,0,0,0,0,0,0,0,0,0,0,0,0],"id":10,"left_children":[1,3,5,7,9,11,13,15,17,19,21,23,25,27,29,31,33,35,37,39,41,43,45,47,49,51,53,55,57,59,61,-1,-1,-1,-1,-1,-1,-1,-1,-1,-1,-1,-1,-1,-1,-1,-1,-1,-1,-1,-1,-1,-1,-1,-1,-1,-1,-1,-1,-1,-1,-1,-1],"loss_changes":[1.9866394E6,9.1296625E4,3.476642E5,1.4163859E4,1.4475625E4,4.020675E4,5.051877E4,1.0318227E4,2.2916562E3,3.3594375E3,2.0317812E3,1.09436875E4,2.78515E4,1.2177781E4,6.6606646E3,7.954551E3,5.6414453E3,1.6637578E3,4.140586E2,7.052656E2,1.7355312E3,3.06375E2,2.2511719E2,7.1274375E3,1.6456133E3,6.4880625E3,5.823625E3,4.782711E3,5.0956367E3,3.503609E3,4.046504E3,0E0,0E0,0E0,0E0,0E0,0E0,0E0,0E0,0E0,0E0,0E0,0E0,0E0,0E0,0E0,0E0,0E0,0E0,0E0,0E0,0E0,0E0,0E0,0E0,0E0,0E0,0E0,0E0,0E0,0E0,0E0,0E0],"parents":[2147483647,0,0,1,1,2,2,3,3,4,4,5,5,6,6,7,7,8,8,9,9,10,10,11,11,12,12,13,13,14,14,15,15,16,16,17,17,18,18,19,19,20,20,21,21,22,22,23,23,24,24,25,25,26,26,27,27,28,28,29,29,30,30],"right_children":[2,4,6,8,10,12,14,16,18,20,22,24,26,28,30,32,34,36,38,40,42,44,46,48,50,52,54,56,58,60,62,-1,-1,-1,-1,-1,-1,-1,-1,-1,-1,-1,-1,-1,-1,-1,-1,-1,-1,-1,-1,-1,-1,-1,-1,-1,-1,-1,-1,-1,-1,-1,-1],"split_conditions":[2E0,1.2915E-1,6.755833E-2,2.7291E1,3.4958E1,2E0,2.2215E1,6.0227E1,3.0777E1,3.2128E1,1.60475E-1,8.8677E1,4.1033335E-2,1.8132E1,2.6882E1,8.8366665E-2,2E0,2E0,3.3071E1,1.9709E1,3E0,2.4E1,3.8671E1,2.7508333E-2,1.12377E2,5.7985E1,4.6476E1,2E0,2E0,2E0,2E0,1.4834148E-2,1.526504E-1,1.6996108E-1,3.142187E-1,2.3260663E-1,3.6953855E-1,3.0224255E-1,4.002539E-1,2.5865072E-1,3.124147E-1,3.505789E-1,4.5776328E-1,4.3502232E-1,3.885262E-1,4.828651E-1,5.64962E-1,-5.955617E-1,-4.726511E-1,-3.6603302E-1,-2.096713E-1,-4.975392E-1,-3.357181E-1,-3.1144422E-1,-2.1601343E-1,-4.4630638E-1,-2.1927561E-1,-2.4464145E-1,-1.0323609E-1,-1.317763E-1,-2.5745218E-3,-2.3960985E-2,1.1889414E-1],"split_indices":[4,8,8,9,9,11,9,16,9,9,8,16,8,9,9,8,13,13,9,16,12,1,9,8,16,16,16,13,11,13,13,0,0,0,0,0,0,0,0,0,0,0,0,0,0,0,0,0,0,0,0,0,0,0,0,0,0,0,0,0,0,0,0],"split_type":[0,0,0,0,0,0,0,0,0,0,0,0,0,0,0,0,0,0,0,0,0,0,0,0,0,0,0,0,0,0,0,0,0,0,0,0,0,0,0,0,0,0,0,0,0,0,0,0,0,0,0,0,0,0,0,0,0,0,0,0,0,0,0],"sum_hessian":[1.09821E5,5.0703E4,5.9118E4,2.355E4,2.7153E4,3.1807E4,2.7311E4,1.3982E4,9.568E3,1.9363E4,7.79E3,1.2247E4,1.956E4,1.5702E4,1.1609E4,9.578E3,4.404E3,7.189E3,2.379E3,5.049E3,1.4314E4,6.391E3,1.399E3,1.1103E4,1.144E3,5.455E3,1.4105E4,5.179E3,1.0523E4,7.525E3,4.084E3,2.172E3,7.406E3,2.316E3,2.088E3,6.801E3,3.88E2,2.133E3,2.46E2,1.701E3,3.348E3,1.3624E4,6.9E2,5.171E3,1.22E3,8.75E2,5.24E2,2.562E3,8.541E3,6.03E2,5.41E2,4.077E3,1.378E3,1.0655E4,3.45E3,4.05E2,4.774E3,1.146E3,9.377E3,9.6E2,6.565E3,1.077E3,3.007E3],"tree_param":{"num_deleted":"0","num_feature":"21","num_nodes":"63","size_leaf_vector":"1"}},{"base_weights":[2.3952547E-2,4.3015428E0,-3.645381E0,3.01025E0,5.5535774E0,-6.027649E0,-1.3571678E0,3.811615E0,1.8122857E0,6.225685E0,2.9784381E0,-7.741312E0,-5.3046975E0,-2.823939E0,-1.4242189E-1,2.7614484E0,4.719451E0,1.6782798E0,5.4757113E0,5.758923E0,7.344951E0,2.5833225E0,3.8974288E0,-8.359332E0,-6.2389536E0,-6.5139217E0,-4.583296E0,-4.4993763E0,-2.3961215E0,-8.8319385E-1,8.6017746E-1,2.0844267E-1,9.48619E-2,2.5402224E-1,3.380657E-1,1.5248296E-1,6.5414E-2,5.143866E-1,2.3641747E-1,3.886479E-1,2.7854374E-1,4.8735082E-1,3.9038908E-1,1.24527566E-1,1.8597461E-1,2.2570188E-1,3.5119724E-1,-5.8374196E-1,-4.8693877E-1,-4.1819367E-1,-2.2210662E-1,-3.137588E-1,-4.9135184E-1,-3.1303212E-1,-2.1540406E-1,-3.4653562E-1,-1.5576792E-1,-1.8890844E-1,-1.1742573E-1,-1.7571239E-1,-3.847849E-2,-5.7082392E-2,8.593628E-2],"categories":[],"categories_nodes":[],"categories_segments":[],"categories_sizes":[],"default_left":[0,0,1,0,0,0,0,0,0,1,1,0,0,0,0,0,0,0,1,0,0,0,0,1,0,0,0,0,1,0,0,0,0,0,0,0,0,0,0,0,0,0,0,0,0,0,0,0,0,0,0,0,0,0,0,0,0,0,0,0,0,0,0],"id":11,"left_children":[1,3,5,7,9,11,13,15,17,19,21,23,25,27,29,31,33,35,37,39,41,43,45,47,49,51,53,55,57,59,61,-1,-1,-1,-1,-1,-1,-1,-1,-1,-1,-1,-1,-1,-1,-1,-1,-1,-1,-1,-1,-1,-1,-1,-1,-1,-1,-1,-1,-1,-1,-1,-1],"loss_changes":[1.7217744E6,8.1802E4,3.2182344E5,2.3910672E4,4.440275E4,3.5630375E4,5.3669844E4,1.4177906E4,4.86459E3,1.04361875E4,1.8832656E3,7.6972188E3,1.7609438E4,9.725016E3,1.2245503E4,4.6292695E3,3.4038906E3,4.5376914E3,1.464793E3,7.3089375E3,2.2519688E3,7.867285E2,7.720117E2,3.1302812E3,2.4048203E3,1.4568E4,5.3633125E3,5.434203E3,3.4329102E3,4.9312607E3,6.1446265E3,0E0,0E0,0E0,0E0,0E0,0E0,0E0,0E0,0E0,0E0,0E0,0E0,0E0,0E0,0E0,0E0,0E0,0E0,0E0,0E0,0E0,0E0,0E0,0E0,0E0,0E0,0E0,0E0,0E0,0E0,0E0,0E0],"parents":[2147483647,0,0,1,1,2,2,3,3,4,4,5,5,6,6,7,7,8,8,9,9,10,10,11,11,12,12,13,13,14,14,15,15,16,16,17,17,18,18,19,19,20,20,21,21,22,22,23,23,24,24,25,25,26,26,27,27,28,28,29,29,30,30],"right_children":[2,4,6,8,10,12,14,16,18,20,22,24,26,28,30,32,34,36,38,40,42,44,46,48,50,52,54,56,58,60,62,-1,-1,-1,-1,-1,-1,-1,-1,-1,-1,-1,-1,-1,-1,-1,-1,-1,-1,-1,-1,-1,-1,-1,-1,-1,-1,-1,-1,-1,-1,-1,-1],"split_conditions":[2E0,1.3034722E-1,6.447222E-2,2E0,3E0,3.198611E-2,2.1082E1,1.0986111E-1,1.34267E2,1.5009722E-1,1.5009722E-1,4.5512E1,2E0,1.5184E1,1.06458336E-1,5E0,2.9503E1,3E0,1.6732E1,2E0,2E0,3.298E1,1.6511111E-1,4.478E0,1.20182E2,2E0,5.4015E1,5.6444E1,1.8011E1,8.090278E-2,2E0,2.0844267E-1,9.48619E-2,2.5402224E-1,3.380657E-1,1.5248296E-1,6.5414E-2,5.143866E-1,2.3641747E-1,3.886479E-1,2.7854374E-1,4.8735082E-1,3.9038908E-1,1.24527566E-1,1.8597461E-1,2.2570188E-1,3.5119724E-1,-5.8374196E-1,-4.8693877E-1,-4.1819367E-1,-2.2210662E-1,-3.137588E-1,-4.9135184E-1,-3.1303212E-1,-2.1540406E-1,-3.4653562E-1,-1.5576792E-1,-1.8890844E-1,-1.1742573E-1,-1.7571239E-1,-3.847849E-2,-5.7082392E-2,8.593628E-2],"split_indices":[4,6,6,15,15,6,7,6,16,6,6,16,11,9,6,3,9,15,9,15,15,7,6,7,16,15,16,16,9,6,12,0,0,0,0,0,0,0,0,0,0,0,0,0,0,0,0,0,0,0,0,0,0,0,0,0,0,0,0,0,0,0,0],"split_type":[0,0,0,0,0,0,0,0,0,0,0,0,0,0,0,0,0,0,0,0,0,0,0,0,0,0,0,0,0,0,0,0,0,0,0,0,0,0,0,0,0,0,0,0,0,0,0,0,0,0,0,0,0,0,0,0,0,0,0,0,0,0,0],"sum_hessian":[1.09686E5,5.0645E4,5.9041E4,2.494E4,2.5705E4,2.8922E4,3.0119E4,1.4937E4,1.0003E4,2.0379E4,5.326E3,8.567E3,2.0355E4,1.3641E4,1.6478E4,6.935E3,8.002E3,9.657E3,3.46E2,1.4403E4,5.976E3,3.738E3,1.588E3,6.054E3,2.513E3,7.591E3,1.2764E4,2.765E3,1.0876E4,9.477E3,7.001E3,4.876E3,2.059E3,3.759E3,4.243E3,4.522E3,5.135E3,1.3E2,2.16E2,1.124E4,3.163E3,4.576E3,1.4E3,1.377E3,2.361E3,1.335E3,2.53E2,2.615E3,3.439E3,2.209E3,3.04E2,3.387E3,4.204E3,9.76E3,3.004E3,1.865E3,9E2,5.202E3,5.674E3,1.198E3,8.279E3,1.54E3,5.461E3],"tree_param":{"num_deleted":"0","num_feature":"21","num_nodes":"63","size_leaf_vector":"1"}},{"base_weights":[-1.8669346E-3,-3.3467495E0,3.3481183E0,-5.625595E0,-1.8619909E0,1.6740392E0,4.745303E0,-6.137231E0,-1.6700689E0,5.4578936E-1,-2.3947124E0,3.140981E-1,2.29628E0,3.9230247E0,5.6575255E0,-7.388258E0,-5.173595E0,-3.7649014E0,-7.496665E-1,-6.420843E-1,4.3955317E0,-2.867072E0,3.0328426E-1,-3.9474168E-1,2.136018E0,1.7484603E0,3.1023092E0,3.0582592E0,4.3488727E0,5.2953267E0,6.452019E0,-5.211485E-1,-4.168681E-1,-4.0805265E-1,-3.0012435E-1,2.4218166E-2,-2.9076838E-1,-8.016193E-2,1.0451222E-1,-1.4890945E-1,3.6994588E-2,2.8727055E-1,1.0035015E-3,-2.3047973E-1,-9.4059125E-2,-2.2911203E-1,5.412211E-2,-1.5753749E-1,6.851601E-3,8.770954E-2,1.7117697E-1,9.189353E-2,2.0146877E-1,1.773082E-1,2.8800943E-1,1.19637206E-1,2.0920147E-1,9.2300236E-2,2.8615305E-1,3.3742118E-1,1.6451007E-1,3.93646E-1,4.8703867E-1],"categories":[],"categories_nodes":[],"categories_segments":[],"categories_sizes":[],"default_left":[1,0,0,0,0,0,1,0,1,0,0,0,0,0,0,1,0,0,0,0,0,1,1,0,0,0,0,0,0,0,0,0,0,0,0,0,0,0,0,0,0,0,0,0,0,0,0,0,0,0,0,0,0,0,0,0,0,0,0,0,0,0,0],"id":12,"left_children":[1,3,5,7,9,11,13,15,17,19,21,23,25,27,29,31,33,35,37,39,41,43,45,47,49,51,53,55,57,59,61,-1,-1,-1,-1,-1,-1,-1,-1,-1,-1,-1,-1,-1,-1,-1,-1,-1,-1,-1,-1,-1,-1,-1,-1,-1,-1,-1,-1,-1,-1,-1,-1],"loss_changes":[1.2327602E6,1.8620831E5,1.2852306E5,4.3892375E4,4.27716E4,2.1161312E4,2.235825E4,2.2984562E4,4.792324E3,2.7654371E4,3.479847E4,1.0153055E4,7.548133E3,5.7395156E3,3.9110312E3,5.391625E3,5.8329688E3,2.6207783E3,2.1664324E3,9.703753E3,8.85916E2,2.4799875E4,8.824346E3,5.9640674E3,9.1821094E2,4.3293633E3,2.9607188E3,1.4697383E3,5.192172E3,8.4303125E2,1.0430781E3,0E0,0E0,0E0,0E0,0E0,0E0,0E0,0E0,0E0,0E0,0E0,0E0,0E0,0E0,0E0,0E0,0E0,0E0,0E0,0E0,0E0,0E0,0E0,0E0,0E0,0E0,0E0,0E0,0E0,0E0,0E0,0E0],"parents":[2147483647,0,0,1,1,2,2,3,3,4,4,5,5,6,6,7,7,8,8,9,9,10,10,11,11,12,12,13,13,14,14,15,15,16,16,17,17,18,18,19,19,20,20,21,21,22,22,23,23,24,24,25,25,26,26,27,27,28,28,29,29,30,30],"right_children":[2,4,6,8,10,12,14,16,18,20,22,24,26,28,30,32,34,36,38,40,42,44,46,48,50,52,54,56,58,60,62,-1,-1,-1,-1,-1,-1,-1,-1,-1,-1,-1,-1,-1,-1,-1,-1,-1,-1,-1,-1,-1,-1,-1,-1,-1,-1,-1,-1,-1,-1,-1,-1],"split_conditions":[9.516667E-2,5.8847222E-2,2.9968E1,1E0,2E0,2.4641E1,3.3071E1,3.3055555E-2,3.191E0,9.516667E-2,1E0,1E0,1.1688889E-1,3.0874E1,3.6106E1,5.1E0,2E0,6.7019E1,1.45366E2,2.1244E1,2.0246E1,1.7873E1,2E0,1.9741E1,1.0451389E-1,1E0,1E0,2.7804E1,1.1368056E-1,2E0,3.9476E1,-5.211485E-1,-4.168681E-1,-4.0805265E-1,-3.0012435E-1,2.4218166E-2,-2.9076838E-1,-8.016193E-2,1.0451222E-1,-1.4890945E-1,3.6994588E-2,2.8727055E-1,1.0035015E-3,-2.3047973E-1,-9.4059125E-2,-2.2911203E-1,5.412211E-2,-1.5753749E-1,6.851601E-3,8.770954E-2,1.7117697E-1,9.189353E-2,2.0146877E-1,1.773082E-1,2.8800943E-1,1.19637206E-1,2.0920147E-1,9.2300236E-2,2.8615305E-1,3.3742118E-1,1.6451007E-1,3.93646E-1,4.8703867E-1],"split_indices":[6,6,7,19,12,9,9,6,9,6,19,19,6,9,9,7,11,16,16,9,16,9,13,9,6,19,19,9,6,12,7,0,0,0,0,0,0,0,0,0,0,0,0,0,0,0,0,0,0,0,0,0,0,0,0,0,0,0,0,0,0,0,0],"split_type":[0,0,0,0,0,0,0,0,0,0,0,0,0,0,0,0,0,0,0,0,0,0,0,0,0,0,0,0,0,0,0,0,0,0,0,0,0,0,0,0,0,0,0,0,0,0,0,0,0,0,0,0,0,0,0,0,0,0,0,0,0,0,0],"sum_hessian":[1.10006E5,5.5045E4,5.4961E4,2.171E4,3.3335E4,2.5008E4,2.9953E4,1.9221E4,2.489E3,6.039E3,2.7296E4,7.853E3,1.7155E4,1.5767E4,1.4186E4,8.349E3,1.0872E4,7.55E2,1.734E3,4.618E3,1.421E3,2.3229E4,4.067E3,5.656E3,2.197E3,1.0223E4,6.932E3,5.216E3,1.0551E4,9.77E3,4.416E3,4.049E3,4.3E3,2.742E3,8.13E3,1.26E2,6.29E2,1.429E3,3.05E2,1.927E3,2.691E3,1.376E3,4.5E1,1.4884E4,8.345E3,4.98E2,3.569E3,1.092E3,4.564E3,9.54E2,1.243E3,8.478E3,1.745E3,5.749E3,1.183E3,9.16E2,4.3E3,5.93E2,9.958E3,9.641E3,1.29E2,3.741E3,6.75E2],"tree_param":{"num_deleted":"0","num_feature":"21","num_nodes":"63","size_leaf_vector":"1"}},{"base_weights":[1.2718474E-3,-3.5068982E0,2.853254E0,-5.959451E0,-2.447139E0,1.0600286E0,4.317601E0,-6.379569E0,-2.267612E0,-2.8670058E0,-2.1967093E-2,-3.2463118E-1,1.7172824E0,5.254272E0,2.8619633E0,-7.4342837E0,-5.7212005E0,-4.197973E0,-9.842983E-1,-2.4681137E0,-5.7363772E0,1.7561908E0,-7.083731E-1,-1.0087528E0,1.5096796E0,2.3004675E0,8.3318734E-1,3.994153E0,6.080054E0,3.751349E0,2.077285E0,-4.9092418E-1,-3.6825675E-1,-4.0003973E-1,-2.9069537E-1,-3.1028515E-2,-2.9552543E-1,-1.0790391E-1,1.00673474E-1,-2.1853009E-1,-9.003406E-2,-2.7370578E-1,-4.726032E-1,1.9933736E-1,5.8195036E-2,-8.5100435E-2,8.736872E-2,-3.8620493E-1,-5.3072724E-2,1.6078992E-1,6.396982E-2,1.058777E-1,2.046771E-1,2.5647208E-2,9.6673965E-2,1.9355054E-1,2.8448388E-1,3.3785456E-1,4.1697294E-1,2.0297785E-1,3.3181712E-1,9.740989E-2,1.8882889E-1],"categories":[],"categories_nodes":[],"categories_segments":[],"categories_sizes":[],"default_left":[1,0,0,0,0,0,0,1,1,0,0,0,0,0,0,0,0,0,0,0,0,0,0,0,0,1,1,0,0,0,0,0,0,0,0,0,0,0,0,0,0,0,0,0,0,0,0,0,0,0,0,0,0,0,0,0,0,0,0,0,0,0,0],"id":13,"left_children":[1,3,5,7,9,11,13,15,17,19,21,23,25,27,29,31,33,35,37,39,41,43,45,47,49,51,53,55,57,59,61,-1,-1,-1,-1,-1,-1,-1,-1,-1,-1,-1,-1,-1,-1,-1,-1,-1,-1,-1,-1,-1,-1,-1,-1,-1,-1,-1,-1,-1,-1,-1,-1],"loss_changes":[1.0976619E6,1.2778775E5,1.5887856E5,2.2941812E4,3.4985125E4,2.4765496E4,4.5339062E4,9.0358125E3,3.7522173E3,3.344992E4,6.200821E3,1.1002366E4,9.502664E3,2.0960562E4,9.068383E3,2.4182188E3,5.405625E3,1.0443398E3,1.7225903E3,2.6443094E4,8.559594E3,1.6328389E3,4.877567E3,5.511279E3,1.2105908E3,6.4812344E3,2.176753E3,3.6903828E3,4.4274062E3,4.877742E3,3.3626777E3,0E0,0E0,0E0,0E0,0E0,0E0,0E0,0E0,0E0,0E0,0E0,0E0,0E0,0E0,0E0,0E0,0E0,0E0,0E0,0E0,0E0,0E0,0E0,0E0,0E0,0E0,0E0,0E0,0E0,0E0,0E0,0E0],"parents":[2147483647,0,0,1,1,2,2,3,3,4,4,5,5,6,6,7,7,8,8,9,9,10,10,11,11,12,12,13,13,14,14,15,15,16,16,17,17,18,18,19,19,20,20,21,21,22,22,23,23,24,24,25,25,26,26,27,27,28,28,29,29,30,30],"right_children":[2,4,6,8,10,12,14,16,18,20,22,24,26,28,30,32,34,36,38,40,42,44,46,48,50,52,54,56,58,60,62,-1,-1,-1,-1,-1,-1,-1,-1,-1,-1,-1,-1,-1,-1,-1,-1,-1,-1,-1,-1,-1,-1,-1,-1,-1,-1,-1,-1,-1,-1,-1,-1],"split_conditions":[2.1076666E1,1.1146667E1,2.9033333E1,1E0,1E0,9.852083E-2,2E0,5.714E0,1.3295833E-2,1E0,3E0,1E0,2E0,1.3463333E-1,3E0,5.7141E1,3.4446E1,3E0,1.45366E2,1.8076666E1,3E0,3E0,1.26217E2,0E0,3E0,1.1285417E-1,1.137125E-1,1.2041666E-1,3.4206665E1,3.5616665E1,3.4546665E1,-4.9092418E-1,-3.6825675E-1,-4.0003973E-1,-2.9069537E-1,-3.1028515E-2,-2.9552543E-1,-1.0790391E-1,1.00673474E-1,-2.1853009E-1,-9.003406E-2,-2.7370578E-1,-4.726032E-1,1.9933736E-1,5.8195036E-2,-8.5100435E-2,8.736872E-2,-3.8620493E-1,-5.3072724E-2,1.6078992E-1,6.396982E-2,1.058777E-1,2.046771E-1,2.5647208E-2,9.6673965E-2,1.9355054E-1,2.8448388E-1,3.3785456E-1,4.1697294E-1,2.0297785E-1,3.3181712E-1,9.740989E-2,1.8882889E-1],"split_indices":[5,5,5,19,19,10,15,7,10,20,17,19,15,10,15,16,16,17,16,5,13,3,16,19,17,10,10,10,5,5,5,0,0,0,0,0,0,0,0,0,0,0,0,0,0,0,0,0,0,0,0,0,0,0,0,0,0,0,0,0,0,0,0],"split_type":[0,0,0,0,0,0,0,0,0,0,0,0,0,0,0,0,0,0,0,0,0,0,0,0,0,0,0,0,0,0,0,0,0,0,0,0,0,0,0,0,0,0,0,0,0,0,0,0,0,0,0,0,0,0,0,0,0,0,0,0,0,0,0],"sum_hessian":[1.09699E5,4.919E4,6.0509E4,1.4835E4,3.4355E4,2.7204E4,3.3305E4,1.3316E4,1.519E3,2.9284E4,5.071E3,8.757E3,1.8447E4,2.0257E4,1.3048E4,5.098E3,8.218E3,6.02E2,9.17E2,2.5718E4,3.566E3,1.41E3,3.661E3,6.38E3,2.377E3,1.111E4,7.337E3,8.031E3,1.2226E4,6.107E3,6.941E3,4.239E3,8.59E2,5.358E3,2.86E3,6.9E1,5.33E2,7.18E2,1.99E2,1.3246E4,1.2472E4,1.972E3,1.594E3,5.24E2,8.86E2,2.808E3,8.53E2,2.01E2,6.179E3,7.69E2,1.608E3,6.648E3,4.462E3,4.543E3,2.794E3,2.806E3,5.225E3,4.979E3,7.247E3,4.483E3,1.624E3,4.361E3,2.58E3],"tree_param":{"num_deleted":"0","num_feature":"21","num_nodes":"63","size_leaf_vector":"1"}},{"base_weights":[2.9606998E-3,-3.1955745E0,2.719276E0,-5.3650246E0,-2.103337E0,8.26882E-1,3.8941011E0,-5.7634325E0,-1.9731176E0,3.90807E-1,-2.515783E0,1.2030628E-1,1.6483868E0,4.4530807E0,1.7776245E0,-6.8471746E0,-5.060732E0,-3.9106884E0,-1.3399423E0,-1.2589074E0,4.3097034E0,-2.9236474E0,-3.194085E-2,-3.5793152E-1,1.6821737E0,2.3050973E0,6.4314955E-1,3.4375422E0,5.333204E0,1.029965E0,2.4651403E0,-4.7503266E-1,-3.9385414E-1,-2.9593083E-1,-4.0345815E-1,-3.9550444E-1,-1.8267317E-1,-1.2784687E-1,-1.882604E-2,-1.5517645E-1,2.8978616E-2,3.126821E-1,1.0264523E-1,-1.622764E-1,-3.5308927E-1,2.5566066E-2,-2.5575417E-1,-3.555473E-1,-1.5736997E-2,1.2342541E-1,1.7827693E-2,1.8227199E-1,8.199005E-2,7.506708E-2,1.1080373E-2,2.3628816E-1,1.5056992E-1,3.5909835E-1,2.6608914E-1,-2.8960234E-1,6.8216436E-2,1.4411272E-1,2.7684698E-1],"categories":[],"categories_nodes":[],"categories_segments":[],"categories_sizes":[],"default_left":[1,0,0,0,0,0,0,1,1,0,0,0,0,0,0,0,0,0,0,1,0,0,0,0,0,0,0,0,0,0,0,0,0,0,0,0,0,0,0,0,0,0,0,0,0,0,0,0,0,0,0,0,0,0,0,0,0,0,0,0,0,0,0],"id":14,"left_children":[1,3,5,7,9,11,13,15,17,19,21,23,25,27,29,31,33,35,37,39,41,43,45,47,49,51,53,55,57,59,61,-1,-1,-1,-1,-1,-1,-1,-1,-1,-1,-1,-1,-1,-1,-1,-1,-1,-1,-1,-1,-1,-1,-1,-1,-1,-1,-1,-1,-1,-1,-1,-1],"loss_changes":[9.55477E5,1.19612875E5,1.3219719E5,2.2790562E4,3.4570094E4,1.3223723E4,4.3364875E4,1.13463125E4,2.1614731E3,3.0878467E4,2.9207766E4,9.157323E3,6.9458496E3,2.5844875E4,3.9304062E3,2.2045625E3,4.5095156E3,9.5397363E2,9.543806E2,6.887591E3,2.3520625E3,2.3605172E4,7.122051E3,5.386845E3,1.0728608E3,3.673246E3,1.0575134E3,4.1668906E3,5.8348438E3,1.0053928E3,1.3859102E3,0E0,0E0,0E0,0E0,0E0,0E0,0E0,0E0,0E0,0E0,0E0,0E0,0E0,0E0,0E0,0E0,0E0,0E0,0E0,0E0,0E0,0E0,0E0,0E0,0E0,0E0,0E0,0E0,0E0,0E0,0E0,0E0],"parents":[2147483647,0,0,1,1,2,2,3,3,4,4,5,5,6,6,7,7,8,8,9,9,10,10,11,11,12,12,13,13,14,14,15,15,16,16,17,17,18,18,19,19,20,20,21,21,22,22,23,23,24,24,25,25,26,26,27,27,28,28,29,29,30,30],"right_children":[2,4,6,8,10,12,14,16,18,20,22,24,26,28,30,32,34,36,38,40,42,44,46,48,50,52,54,56,58,60,62,-1,-1,-1,-1,-1,-1,-1,-1,-1,-1,-1,-1,-1,-1,-1,-1,-1,-1,-1,-1,-1,-1,-1,-1,-1,-1,-1,-1,-1,-1,-1,-1],"split_conditions":[8.947222E-2,5.0333332E-2,1.1736111E-1,1E0,2E0,2.531E1,3E0,6.33E0,4.478E0,8.947222E-2,1E0,1E0,2E0,3.2574E1,1.3683334E-1,1.7375E-2,1E0,1.1777778E-2,3E0,2.0066E1,3E0,1E0,8.947222E-2,0E0,1E0,2E0,3E0,1E0,2E0,0E0,1.63375E-1,-4.7503266E-1,-3.9385414E-1,-2.9593083E-1,-4.0345815E-1,-3.9550444E-1,-1.8267317E-1,-1.2784687E-1,-1.882604E-2,-1.5517645E-1,2.8978616E-2,3.126821E-1,1.0264523E-1,-1.622764E-1,-3.5308927E-1,2.5566066E-2,-2.5575417E-1,-3.555473E-1,-1.5736997E-2,1.2342541E-1,1.7827693E-2,1.8227199E-1,8.199005E-2,7.506708E-2,1.1080373E-2,2.3628816E-1,1.5056992E-1,3.5909835E-1,2.6608914E-1,-2.8960234E-1,6.8216436E-2,1.4411272E-1,2.7684698E-1],"split_indices":[6,6,6,19,12,7,15,7,7,6,19,19,15,7,6,6,18,6,12,7,15,20,6,19,18,12,15,18,15,19,6,0,0,0,0,0,0,0,0,0,0,0,0,0,0,0,0,0,0,0,0,0,0,0,0,0,0,0,0,0,0,0,0],"split_type":[0,0,0,0,0,0,0,0,0,0,0,0,0,0,0,0,0,0,0,0,0,0,0,0,0,0,0,0,0,0,0,0,0,0,0,0,0,0,0,0,0,0,0,0,0,0,0,0,0,0,0,0,0,0,0,0,0,0,0,0,0,0,0],"sum_hessian":[1.09964E5,5.0499E4,5.9465E4,1.6904E4,3.3595E4,2.278E4,3.6685E4,1.5124E4,1.78E3,4.767E3,2.8828E4,1.225E4,1.053E4,2.9016E4,7.669E3,5.932E3,9.192E3,4.32E2,1.348E3,3.357E3,1.41E3,2.4761E4,4.067E3,9.381E3,2.869E3,6.365E3,4.165E3,1.3483E4,1.5533E4,3.68E3,3.989E3,2.868E3,3.064E3,7.12E3,2.072E3,1.24E2,3.08E2,8.13E2,5.35E2,1.98E3,1.377E3,1.139E3,2.71E2,2.181E4,2.951E3,3.672E3,3.95E2,1.86E2,9.195E3,2.407E3,4.62E2,4.052E3,2.313E3,1.925E3,2.24E3,1.0536E4,2.947E3,1.1931E4,3.602E3,2.7E1,3.653E3,3.64E3,3.49E2],"tree_param":{"num_deleted":"0","num_feature":"21","num_nodes":"63","size_leaf_vector":"1"}},{"base_weights":[5.594017E-3,-3.1701987E0,2.4047506E0,-5.2917557E0,-2.2454112E0,6.425842E-1,3.6250088E0,-5.6637654E0,-2.020365E0,-2.6215494E0,-1.50824385E-2,-4.0102205E-1,1.2833184E0,2.3298936E0,4.2611957E0,-6.9346495E0,-5.2265306E0,-8.798079E-1,-3.888579E0,-2.262799E0,-5.071633E0,-3.2673955E0,3.001698E-1,-9.949822E-1,1.2500875E0,8.765307E-1,2.1446497E0,2.032888E0,3.5386086E0,3.6736271E0,4.848896E0,-4.639217E-1,-3.8669235E-1,-3.0820605E-1,-4.1218477E-1,3.6530912E-2,-8.573381E-2,-4.1039887E-1,-2.0937419E-1,-2.1088518E-1,-9.289954E-2,-2.3838428E-1,-4.1573682E-1,-3.0116633E-1,-7.781292E-2,-1.7894061E-2,7.111607E-2,-4.9485568E-2,-2.872832E-1,8.794122E-2,-4.8399135E-2,3.6018204E-2,1.4447953E-1,1.3975105E-1,-1.9884366E-1,5.9317324E-2,1.558285E-1,1.8734819E-1,2.6731914E-1,2.3575874E-1,5.6002323E-2,2.9328433E-1,3.839191E-1],"categories":[],"categories_nodes":[],"categories_segments":[],"categories_sizes":[],"default_left":[1,0,0,0,0,0,0,0,0,0,0,0,1,0,0,1,0,0,0,0,0,1,1,0,0,0,0,0,0,0,0,0,0,0,0,0,0,0,0,0,0,0,0,0,0,0,0,0,0,0,0,0,0,0,0,0,0,0,0,0,0,0,0],"id":15,"left_children":[1,3,5,7,9,11,13,15,17,19,21,23,25,27,29,31,33,35,37,39,41,43,45,47,49,51,53,55,57,59,61,-1,-1,-1,-1,-1,-1,-1,-1,-1,-1,-1,-1,-1,-1,-1,-1,-1,-1,-1,-1,-1,-1,-1,-1,-1,-1,-1,-1,-1,-1,-1,-1],"loss_changes":[8.3882094E5,9.289303E4,1.3484212E5,1.7439188E4,2.7685781E4,1.7165068E4,3.047825E4,6.9896875E3,3.1256636E3,2.476311E4,4.894807E3,9.584238E3,5.561664E3,4.347875E3,8.487E3,8.44625E2,4.265125E3,6.421399E2,7.316387E2,2.0913703E4,6.911125E3,1.2495728E3,2.0894827E3,5.41032E3,7.299529E2,4.666425E3,1.7283809E3,4.599285E3,8.874043E2,1.7341094E3,3.115625E3,0E0,0E0,0E0,0E0,0E0,0E0,0E0,0E0,0E0,0E0,0E0,0E0,0E0,0E0,0E0,0E0,0E0,0E0,0E0,0E0,0E0,0E0,0E0,0E0,0E0,0E0,0E0,0E0,0E0,0E0,0E0,0E0],"parents":[2147483647,0,0,1,1,2,2,3,3,4,4,5,5,6,6,7,7,8,8,9,9,10,10,11,11,12,12,13,13,14,14,15,15,16,16,17,17,18,18,19,19,20,20,21,21,22,22,23,23,24,24,25,25,26,26,27,27,28,28,29,29,30,30],"right_children":[2,4,6,8,10,12,14,16,18,20,22,24,26,28,30,32,34,36,38,40,42,44,46,48,50,52,54,56,58,60,62,-1,-1,-1,-1,-1,-1,-1,-1,-1,-1,-1,-1,-1,-1,-1,-1,-1,-1,-1,-1,-1,-1,-1,-1,-1,-1,-1,-1,-1,-1,-1,-1],"split_conditions":[8.527778E-2,4.5555554E-2,1.1688889E-1,1E0,1E0,2.3645E1,3.1061E1,1.7375E-2,2.3275E1,1E0,1E0,1E0,2.7291E1,1E0,1.429861E-1,5.678E0,1E0,2.91E2,1.1777778E-2,1.716E1,3E0,2E0,7.201389E-2,1E0,1E0,1E0,8E0,2.7393E1,2E0,3E0,3.8514E1,-4.639217E-1,-3.8669235E-1,-3.0820605E-1,-4.1218477E-1,3.6530912E-2,-8.573381E-2,-4.1039887E-1,-2.0937419E-1,-2.1088518E-1,-9.289954E-2,-2.3838428E-1,-4.1573682E-1,-3.0116633E-1,-7.781292E-2,-1.7894061E-2,7.111607E-2,-4.9485568E-2,-2.872832E-1,8.794122E-2,-4.8399135E-2,3.6018204E-2,1.4447953E-1,1.3975105E-1,-1.9884366E-1,5.9317324E-2,1.558285E-1,1.8734819E-1,2.6731914E-1,2.3575874E-1,5.6002323E-2,2.9328433E-1,3.839191E-1],"split_indices":[6,6,6,19,19,9,9,6,9,20,11,19,9,19,6,9,18,2,6,7,13,14,6,20,20,19,20,9,14,20,7,0,0,0,0,0,0,0,0,0,0,0,0,0,0,0,0,0,0,0,0,0,0,0,0,0,0,0,0,0,0,0,0],"split_type":[0,0,0,0,0,0,0,0,0,0,0,0,0,0,0,0,0,0,0,0,0,0,0,0,0,0,0,0,0,0,0,0,0,0,0,0,0,0,0,0,0,0,0,0,0,0,0,0,0,0,0,0,0,0,0,0,0,0,0,0,0,0,0],"sum_hessian":[1.10083E5,4.7373E4,6.271E4,1.4374E4,3.2999E4,2.5661E4,3.7049E4,1.2903E4,1.471E3,2.8236E4,4.763E3,9.762E3,1.5899E4,1.2212E4,2.4837E4,3.284E3,9.619E3,9.18E2,5.53E2,2.4638E4,3.598E3,4.17E2,4.346E3,7.181E3,2.581E3,1.0806E4,5.093E3,9.814E3,2.398E3,1.2438E4,1.2399E4,2.198E3,1.086E3,7.541E3,2.078E3,2.25E2,6.93E2,9.2E1,4.61E2,1.0507E4,1.4131E4,1.93E3,1.668E3,2.37E2,1.8E2,2.546E3,1.8E3,6.779E3,4.02E2,2.416E3,1.65E2,8.872E3,1.934E3,5.036E3,5.7E1,2.764E3,7.05E3,1.313E3,1.085E3,1.2215E4,2.23E2,1.0548E4,1.851E3],"tree_param":{"num_deleted":"0","num_feature":"21","num_nodes":"63","size_leaf_vector":"1"}},{"base_weights":[-1.4820878E-2,-3.034385E0,2.1960504E0,-4.890676E0,-2.1589398E0,4.4861227E-1,3.3101814E0,-5.2484264E0,-1.8704771E0,3.823838E-1,-2.5096874E0,5.06799E-2,1.8353775E0,2.535533E0,4.2025814E0,-5.9518585E0,-4.482976E0,-2.5192857E0,6.201126E-1,-1.7777692E0,4.0899324E0,-2.8591049E0,-2.6044816E-1,-1.2239158E0,5.380969E-1,2.9514072E0,1.2524506E0,2.1420872E0,3.1978536E0,3.8155706E0,4.937373E0,-4.0531915E-1,-3.0773816E-1,-3.9471376E-1,-2.5839108E-1,1.3622084E-2,-2.0321111E-1,8.812287E-2,-1.6334854E-1,-1.7976186E-1,2.7842233E-2,2.654514E-1,1.9303922E-2,-1.6070406E-1,-3.1472048E-1,1.12009436E-1,-5.5374674E-2,-2.3288333E-1,-5.935187E-2,7.238899E-2,-5.3024557E-3,1.5397781E-1,2.5872636E-1,5.9729908E-2,2.0959899E-1,1.5118164E-1,8.052123E-2,2.043969E-1,-7.288166E-2,2.4495195E-1,-4.2485697E-3,3.0099446E-1,3.9155236E-1],"categories":[],"categories_nodes":[],"categories_segments":[],"categories_sizes":[],"default_left":[1,0,0,0,0,0,0,0,0,0,0,0,0,1,0,0,0,0,0,0,0,0,0,0,0,0,0,0,0,0,1,0,0,0,0,0,0,0,0,0,0,0,0,0,0,0,0,0,0,0,0,0,0,0,0,0,0,0,0,0,0,0,0],"id":16,"left_children":[1,3,5,7,9,11,13,15,17,19,21,23,25,27,29,31,33,35,37,39,41,43,45,47,49,51,53,55,57,59,61,-1,-1,-1,-1,-1,-1,-1,-1,-1,-1,-1,-1,-1,-1,-1,-1,-1,-1,-1,-1,-1,-1,-1,-1,-1,-1,-1,-1,-1,-1,-1,-1],"loss_changes":[7.331692E5,7.538422E4,1.23426375E5,1.6018281E4,2.8131734E4,1.3623955E4,2.670875E4,7.023125E3,2.5663848E3,3.0717607E4,2.178675E4,1.1925371E4,3.561086E3,5.367875E3,5.0175E3,3.2408281E3,4.361703E3,2.3787935E3,8.3429266E2,5.714696E3,5.431133E2,1.6185281E4,4.6626167E3,3.7135713E3,5.2285264E3,1.0592695E3,2.2877407E3,2.771707E3,1.0554375E3,2.4672344E3,1.2618281E3,0E0,0E0,0E0,0E0,0E0,0E0,0E0,0E0,0E0,0E0,0E0,0E0,0E0,0E0,0E0,0E0,0E0,0E0,0E0,0E0,0E0,0E0,0E0,0E0,0E0,0E0,0E0,0E0,0E0,0E0,0E0,0E0],"parents":[2147483647,0,0,1,1,2,2,3,3,4,4,5,5,6,6,7,7,8,8,9,9,10,10,11,11,12,12,13,13,14,14,15,15,16,16,17,17,18,18,19,19,20,20,21,21,22,22,23,23,24,24,25,25,26,26,27,27,28,28,29,29,30,30],"right_children":[2,4,6,8,10,12,14,16,18,20,22,24,26,28,30,32,34,36,38,40,42,44,46,48,50,52,54,56,58,60,62,-1,-1,-1,-1,-1,-1,-1,-1,-1,-1,-1,-1,-1,-1,-1,-1,-1,-1,-1,-1,-1,-1,-1,-1,-1,-1,-1,-1,-1,-1,-1,-1],"split_conditions":[2.0213333E1,1.1146667E1,1.15158334E-1,1E0,2E0,1E0,3.305E1,2.889E1,1.39521E2,2.0213333E1,1E0,9.239167E-2,3E0,1.2915E-1,1.5083334E-1,3E0,3.6066666E0,3E0,2.5E1,1E0,3.0698E1,1E0,3E0,2E0,2E0,1.0401667E-1,5E0,2E0,7E0,3E0,1.6448334E-1,-4.0531915E-1,-3.0773816E-1,-3.9471376E-1,-2.5839108E-1,1.3622084E-2,-2.0321111E-1,8.812287E-2,-1.6334854E-1,-1.7976186E-1,2.7842233E-2,2.654514E-1,1.9303922E-2,-1.6070406E-1,-3.1472048E-1,1.12009436E-1,-5.5374674E-2,-2.3288333E-1,-5.935187E-2,7.238899E-2,-5.3024557E-3,1.5397781E-1,2.5872636E-1,5.9729908E-2,2.0959899E-1,1.5118164E-1,8.052123E-2,2.043969E-1,-7.288166E-2,2.4495195E-1,-4.2485697E-3,3.0099446E-1,3.9155236E-1],"split_indices":[5,5,8,19,12,19,5,16,16,5,19,8,17,8,8,11,5,17,1,19,16,20,17,11,12,8,17,12,20,20,8,0,0,0,0,0,0,0,0,0,0,0,0,0,0,0,0,0,0,0,0,0,0,0,0,0,0,0,0,0,0,0,0],"split_type":[0,0,0,0,0,0,0,0,0,0,0,0,0,0,0,0,0,0,0,0,0,0,0,0,0,0,0,0,0,0,0,0,0,0,0,0,0,0,0,0,0,0,0,0,0,0,0,0,0,0,0,0,0,0,0,0,0,0,0,0,0,0,0],"sum_hessian":[1.09814E5,4.6417E4,6.3397E4,1.4868E4,3.1549E4,2.4686E4,3.8711E4,1.329E4,1.578E3,3.826E3,2.7723E4,1.9186E4,5.5E3,2.0733E4,1.7978E4,6.908E3,6.382E3,1.252E3,3.26E2,2.419E3,1.407E3,2.3994E4,3.729E3,5.305E3,1.3881E4,1.88E3,3.62E3,1.302E4,7.713E3,1.1796E4,6.182E3,4.871E3,2.037E3,1.176E3,5.206E3,2.53E2,9.99E2,2.65E2,6.1E1,1.635E3,7.84E2,1.369E3,3.8E1,2.0842E4,3.152E3,8.64E2,2.865E3,5.48E2,4.757E3,7.032E3,6.849E3,1.301E3,5.79E2,3.154E3,4.66E2,1.0143E4,2.877E3,7.66E3,5.3E1,1.1635E4,1.61E2,5.413E3,7.69E2],"tree_param":{"num_deleted":"0","num_feature":"21","num_nodes":"63","size_leaf_vector":"1"}},{"base_weights":[2.3398718E-3,3.097853E0,-2.6459165E0,2.374667E0,4.1099997E0,-4.2822533E0,-1.1111308E0,2.0670505E0,3.397664E0,3.8005471E0,5.110572E0,-4.9282017E0,-3.2777987E0,-1.9854239E0,-1.3494705E-1,1.8159124E0,3.3400354E0,3.0683286E0,3.66387E0,3.542014E0,4.477053E0,4.810979E0,6.957677E0,-5.9926133E0,-4.573346E0,-2.9337826E0,-4.4968724E0,-1.4792479E0,-3.6605432E0,-1.8712201E0,2.3312098E-1,5.9998643E-2,1.404476E-1,1.7753808E-1,3.4419134E-1,2.5701886E-1,1.8224017E-1,2.4621753E-1,2.1086553E-1,2.3313047E-1,1.8543637E-1,2.7461684E-1,3.175347E-1,3.1995177E-1,1.83913E-1,4.756026E-1,2.9885694E-1,-3.8814056E-1,-1.6708305E-1,-3.905175E-1,-2.7039963E-1,-2.2731936E-1,-1.5502912E-1,-3.2394597E-1,-2.1589352E-1,-2.61782E-1,-8.565561E-2,-3.7805033E-1,-2.0295417E-1,-2.1143934E-1,-7.997702E-2,-1.0282197E-2,6.639266E-2],"categories":[],"categories_nodes":[],"categories_segments":[],"categories_sizes":[],"default_left":[0,0,1,1,0,1,1,0,0,1,0,0,0,0,0,0,0,0,0,0,0,0,0,0,0,0,1,0,0,0,0,0,0,0,0,0,0,0,0,0,0,0,0,0,0,0,0,0,0,0,0,0,0,0,0,0,0,0,0,0,0,0,0],"id":17,"left_children":[1,3,5,7,9,11,13,15,17,19,21,23,25,27,29,31,33,35,37,39,41,43,45,47,49,51,53,55,57,59,61,-1,-1,-1,-1,-1,-1,-1,-1,-1,-1,-1,-1,-1,-1,-1,-1,-1,-1,-1,-1,-1,-1,-1,-1,-1,-1,-1,-1,-1,-1,-1,-1],"loss_changes":[8.9982E5,3.6993312E4,1.4853962E5,9.255719E3,6.4289062E3,1.8492188E4,2.605566E4,7.2299297E3,5.395547E2,2.7384531E3,2.5788047E3,6.4384062E3,4.6372734E3,1.3627215E4,9.225262E3,6.6241133E3,4.1182344E3,5.1832227E2,2.1427344E2,9.511094E2,2.2185156E2,1.9113359E3,6.675078E2,1.9326094E3,6.169125E3,2.746414E3,1.5684336E3,4.118453E3,3.8252188E3,2.2313076E3,3.8439783E3,0E0,0E0,0E0,0E0,0E0,0E0,0E0,0E0,0E0,0E0,0E0,0E0,0E0,0E0,0E0,0E0,0E0,0E0,0E0,0E0,0E0,0E0,0E0,0E0,0E0,0E0,0E0,0E0,0E0,0E0,0E0,0E0],"parents":[2147483647,0,0,1,1,2,2,3,3,4,4,5,5,6,6,7,7,8,8,9,9,10,10,11,11,12,12,13,13,14,14,15,15,16,16,17,17,18,18,19,19,20,20,21,21,22,22,23,23,24,24,25,25,26,26,27,27,28,28,29,29,30,30],"right_children":[2,4,6,8,10,12,14,16,18,20,22,24,26,28,30,32,34,36,38,40,42,44,46,48,50,52,54,56,58,60,62,-1,-1,-1,-1,-1,-1,-1,-1,-1,-1,-1,-1,-1,-1,-1,-1,-1,-1,-1,-1,-1,-1,-1,-1,-1,-1,-1,-1,-1,-1,-1,-1],"split_conditions":[2E0,3.2633335E1,1.5323334E1,3.059E1,3.821E1,1.0083333E1,2.0755E1,2E0,3.2032E1,3.5282E1,3E0,1E0,1E0,1E0,2E0,2.5083334E1,1.01678E2,1.209E-1,3.1493334E1,1E0,3.7306E1,5E0,5E0,1.18661E2,3.6066666E0,2.4553E1,1.4368E1,2E0,2E0,2.4641E1,2.5939E1,5.9998643E-2,1.404476E-1,1.7753808E-1,3.4419134E-1,2.5701886E-1,1.8224017E-1,2.4621753E-1,2.1086553E-1,2.3313047E-1,1.8543637E-1,2.7461684E-1,3.175347E-1,3.1995177E-1,1.83913E-1,4.756026E-1,2.9885694E-1,-3.8814056E-1,-1.6708305E-1,-3.905175E-1,-2.7039963E-1,-2.2731936E-1,-1.5502912E-1,-3.2394597E-1,-2.1589352E-1,-2.61782E-1,-8.565561E-2,-3.7805033E-1,-2.0295417E-1,-2.1143934E-1,-7.997702E-2,-1.0282197E-2,6.639266E-2],"split_indices":[4,5,5,9,5,5,9,12,9,9,12,11,18,18,14,5,16,8,5,18,9,3,3,16,5,16,9,14,11,9,9,0,0,0,0,0,0,0,0,0,0,0,0,0,0,0,0,0,0,0,0,0,0,0,0,0,0,0,0,0,0,0,0],"split_type":[0,0,0,0,0,0,0,0,0,0,0,0,0,0,0,0,0,0,0,0,0,0,0,0,0,0,0,0,0,0,0,0,0,0,0,0,0,0,0,0,0,0,0,0,0,0,0,0,0,0,0,0,0,0,0,0,0,0,0,0,0,0,0],"sum_hessian":[1.09755E5,5.0604E4,5.9151E4,2.9525E4,2.1079E4,2.8624E4,3.0527E4,2.2711E4,6.814E3,1.6118E4,4.961E3,1.7409E4,1.1215E4,1.6101E4,1.4426E4,1.8979E4,3.732E3,3.074E3,3.74E3,1.1684E4,4.434E3,4.284E3,6.77E2,4.333E3,1.3076E4,8.76E3,2.455E3,1.2372E4,3.729E3,2.52E3,1.1906E4,6.019E3,1.296E4,2.982E3,7.5E2,4.77E2,2.597E3,2.198E3,1.542E3,9.483E3,2.201E3,3.56E3,8.74E2,3.792E3,4.92E2,5.33E2,1.44E2,4.157E3,1.76E2,2.066E3,1.101E4,3.706E3,5.054E3,1.551E3,9.04E2,5.54E2,1.1818E4,6.03E2,3.126E3,7.31E2,1.789E3,8.02E3,3.886E3],"tree_param":{"num_deleted":"0","num_feature":"21","num_nodes":"63","size_leaf_vector":"1"}},{"base_weights":[1.1465897E-2,-2.6726267E0,1.9762071E0,-4.508559E0,-1.972392E0,4.4692078E-1,2.9594653E0,-4.1880746E0,-5.7758408E0,-1.6334693E0,-3.5713148E0,-4.8709154E-1,9.738334E-1,1.9254036E0,3.5508654E0,-4.9767394E0,-3.571823E0,-6.182785E0,-5.1005163E0,-2.3828893E0,-1.2211461E0,-4.6988077E0,-2.434655E0,2.9275088E-2,-1.8929248E0,7.999044E-1,2.2386303E0,2.23454E0,9.906516E-1,3.1981027E0,4.297098E0,-3.6102036E-1,-2.9872945E-1,-2.4713318E-1,-1.748381E-1,-4.151946E-1,-3.59456E-1,-3.4160876E-1,-2.7736935E-1,-1.8247643E-1,-1.1858278E-1,-1.3448666E-1,-4.4616535E-2,-3.9257E-1,-2.554958E-1,-1.7102793E-1,-5.274201E-3,-1.1110602E-1,7.4324594E-3,-3.1025627E-1,-9.263084E-2,6.455148E-2,-8.800877E-3,1.16176605E-1,1.9239116E-1,1.3790214E-1,3.0122197E-1,-8.303493E-2,8.453901E-2,1.9503728E-1,2.6418144E-1,2.6212063E-1,3.3618656E-1],"categories":[],"categories_nodes":[],"categories_segments":[],"categories_sizes":[],"default_left":[1,0,0,0,0,0,0,1,1,0,1,0,1,0,1,0,1,0,0,1,0,0,0,0,0,0,0,0,0,0,0,0,0,0,0,0,0,0,0,0,0,0,0,0,0,0,0,0,0,0,0,0,0,0,0,0,0,0,0,0,0,0,0],"id":18,"left_children":[1,3,5,7,9,11,13,15,17,19,21,23,25,27,29,31,33,35,37,39,41,43,45,47,49,51,53,55,57,59,61,-1,-1,-1,-1,-1,-1,-1,-1,-1,-1,-1,-1,-1,-1,-1,-1,-1,-1,-1,-1,-1,-1,-1,-1,-1,-1,-1,-1,-1,-1,-1,-1],"loss_changes":[5.798723E5,5.9696812E4,9.545594E4,5.086547E3,1.8204133E4,1.2232742E4,2.3594438E4,4.8935E3,5.48375E2,8.566172E3,7.4773516E3,6.509788E3,3.4852334E3,4.0532578E3,6.3985938E3,7.0346094E2,1.4969375E3,1.1257422E2,9.166406E1,2.4799062E3,8.352523E3,2.8076172E3,1.8422559E3,1.0320498E3,3.0752832E3,2.88529E3,5.896846E2,1.4445938E3,2.7912769E3,1.8430938E3,1.137125E3,0E0,0E0,0E0,0E0,0E0,0E0,0E0,0E0,0E0,0E0,0E0,0E0,0E0,0E0,0E0,0E0,0E0,0E0,0E0,0E0,0E0,0E0,0E0,0E0,0E0,0E0,0E0,0E0,0E0,0E0,0E0,0E0],"parents":[2147483647,0,0,1,1,2,2,3,3,4,4,5,5,6,6,7,7,8,8,9,9,10,10,11,11,12,12,13,13,14,14,15,15,16,16,17,17,18,18,19,19,20,20,21,21,22,22,23,23,24,24,25,25,26,26,27,27,28,28,29,29,30,30],"right_children":[2,4,6,8,10,12,14,16,18,20,22,24,26,28,30,32,34,36,38,40,42,44,46,48,50,52,54,56,58,60,62,-1,-1,-1,-1,-1,-1,-1,-1,-1,-1,-1,-1,-1,-1,-1,-1,-1,-1,-1,-1,-1,-1,-1,-1,-1,-1,-1,-1,-1,-1,-1,-1],"split_conditions":[2.0213333E1,1.0083333E1,2.76E1,1E0,1E0,2.3062E1,3.1258E1,5.714E0,8.209E0,1.5473333E1,1.5058E1,1E0,2.9006E1,1E0,3.4958E1,2.8266666E0,1.1693E1,5.5133333E0,3E0,1.3016E1,2E0,2E0,2.2692E1,1.4498E1,2E0,1E0,3.0874E1,3.6023335E1,2.4418E1,3.662E1,3.9626667E1,-3.6102036E-1,-2.9872945E-1,-2.4713318E-1,-1.748381E-1,-4.151946E-1,-3.59456E-1,-3.4160876E-1,-2.7736935E-1,-1.8247643E-1,-1.1858278E-1,-1.3448666E-1,-4.4616535E-2,-3.9257E-1,-2.554958E-1,-1.7102793E-1,-5.274201E-3,-1.1110602E-1,7.4324594E-3,-3.1025627E-1,-9.263084E-2,6.455148E-2,-8.800877E-3,1.16176605E-1,1.9239116E-1,1.3790214E-1,3.0122197E-1,-8.303493E-2,8.453901E-2,1.9503728E-1,2.6418144E-1,2.6212063E-1,3.3618656E-1],"split_indices":[5,5,5,18,18,9,9,7,9,5,9,18,9,18,9,5,9,5,11,9,11,11,9,9,11,18,9,5,9,5,5,0,0,0,0,0,0,0,0,0,0,0,0,0,0,0,0,0,0,0,0,0,0,0,0,0,0,0,0,0,0,0,0],"split_type":[0,0,0,0,0,0,0,0,0,0,0,0,0,0,0,0,0,0,0,0,0,0,0,0,0,0,0,0,0,0,0,0,0,0,0,0,0,0,0,0,0,0,0,0,0,0,0,0,0,0,0,0,0,0,0,0,0,0,0,0,0,0,0],"sum_hessian":[1.09949E5,4.6467E4,6.3482E4,1.2822E4,3.3645E4,2.4846E4,3.8636E4,1.0251E4,2.571E3,2.7769E4,5.876E3,8.961E3,1.5885E4,1.4065E4,2.4571E4,4.481E3,5.77E3,1.579E3,9.92E2,9.847E3,1.7922E4,2.942E3,2.934E3,6.557E3,2.404E3,1.3972E4,1.913E3,1.0564E4,3.501E3,1.6702E4,7.869E3,1.147E3,3.334E3,4.079E3,1.691E3,8.71E2,7.08E2,6.8E2,3.12E2,4.961E3,4.886E3,6.513E3,1.1409E4,8.88E2,2.054E3,2.634E3,3E2,3.04E2,6.253E3,2.94E2,2.11E3,1.1322E4,2.65E3,1.283E3,6.3E2,1.0343E4,2.21E2,4.54E2,3.047E3,1.4928E4,1.774E3,6.838E3,1.031E3],"tree_param":{"num_deleted":"0","num_feature":"21","num_nodes":"63","size_leaf_vector":"1"}},{"base_weights":[-1.2722501E-2,-2.5545287E0,1.7934893E0,-4.1098547E0,-1.8332626E0,4.0776798E-1,2.7471287E0,-4.713735E0,-2.8345854E0,4.3157163E-1,-2.132221E0,-7.635474E-1,8.1564975E-1,2.2020829E0,3.6451502E0,-5.373854E0,-4.158147E0,-3.097723E0,9.5273036E-1,-1.6599644E0,3.688304E0,-2.6134841E0,-1.1256402E0,-1.5297903E-1,-2.2345915E0,1.0508752E0,-6.309384E-2,1.5925144E0,2.6183746E0,3.2815394E0,4.0413146E0,-3.730309E-1,-3.158866E-1,-2.4075298E-1,-3.289725E-1,-2.6429802E-1,-1.5388769E-1,1.2687644E-1,-1.03614904E-1,-5.265715E-2,-2.1157464E-1,2.3758171E-1,-2.6337445E-1,-1.4906728E-1,-2.5771838E-1,-9.819128E-2,-1.3226721E-2,-2.6516555E-2,1.1614464E-1,-3.3793765E-1,-1.1239146E-1,5.1997554E-2,1.1791539E-1,-3.481636E-2,5.4700553E-2,-5.323835E-2,1.05774075E-1,4.238528E-2,1.7286307E-1,2.6575324E-1,2.0327735E-1,2.4745102E-1,3.2898098E-1],"categories":[],"categories_nodes":[],"categories_segments":[],"categories_sizes":[],"default_left":[1,0,0,0,0,0,1,1,0,0,1,0,0,0,0,0,0,1,0,0,0,0,0,0,0,1,1,0,0,0,0,0,0,0,0,0,0,0,0,0,0,0,0,0,0,0,0,0,0,0,0,0,0,0,0,0,0,0,0,0,0,0,0],"id":19,"left_children":[1,3,5,7,9,11,13,15,17,19,21,23,25,27,29,31,33,35,37,39,41,43,45,47,49,51,53,55,57,59,61,-1,-1,-1,-1,-1,-1,-1,-1,-1,-1,-1,-1,-1,-1,-1,-1,-1,-1,-1,-1,-1,-1,-1,-1,-1,-1,-1,-1,-1,-1,-1,-1],"loss_changes":[5.038613E5,5.110425E4,8.477614E4,1.1051266E4,2.1100742E4,1.2501154E4,1.8558875E4,3.4774062E3,4.6524805E3,2.4803717E4,1.3317141E4,6.0677393E3,4.012079E3,5.9818906E3,1.998125E3,7.3896094E2,1.8678516E3,3.0733164E3,8.489817E2,3.0740322E3,7.9805273E2,6.9714297E3,3.473044E3,2.530166E3,2.774745E3,2.8432227E3,1.8538013E3,1.8400234E3,3.0627812E3,4.1545312E2,9.439453E2,0E0,0E0,0E0,0E0,0E0,0E0,0E0,0E0,0E0,0E0,0E0,0E0,0E0,0E0,0E0,0E0,0E0,0E0,0E0,0E0,0E0,0E0,0E0,0E0,0E0,0E0,0E0,0E0,0E0,0E0,0E0,0E0],"parents":[2147483647,0,0,1,1,2,2,3,3,4,4,5,5,6,6,7,7,8,8,9,9,10,10,11,11,12,12,13,13,14,14,15,15,16,16,17,17,18,18,19,19,20,20,21,21,22,22,23,23,24,24,25,25,26,26,27,27,28,28,29,29,30,30],"right_children":[2,4,6,8,10,12,14,16,18,20,22,24,26,28,30,32,34,36,38,40,42,44,46,48,50,52,54,56,58,60,62,-1,-1,-1,-1,-1,-1,-1,-1,-1,-1,-1,-1,-1,-1,-1,-1,-1,-1,-1,-1,-1,-1,-1,-1,-1,-1,-1,-1,-1,-1,-1,-1],"split_conditions":[1.9956667E1,1.0933333E1,2.7854E1,2E0,2E0,2.1378E1,3.3071E1,6.33E0,5E0,1.9956667E1,1.6238E1,1E0,1E0,3.039E1,3.5282E1,4.478E0,1E0,5.678E0,2.2E1,1E0,2E0,1E0,2E0,4E0,2E0,2.698E1,2.6033E1,1E0,2.544E1,2E0,3.8671E1,-3.730309E-1,-3.158866E-1,-2.4075298E-1,-3.289725E-1,-2.6429802E-1,-1.5388769E-1,1.2687644E-1,-1.03614904E-1,-5.265715E-2,-2.1157464E-1,2.3758171E-1,-2.6337445E-1,-1.4906728E-1,-2.5771838E-1,-9.819128E-2,-1.3226721E-2,-2.6516555E-2,1.1614464E-1,-3.3793765E-1,-1.1239146E-1,5.1997554E-2,1.1791539E-1,-3.481636E-2,5.4700553E-2,-5.323835E-2,1.05774075E-1,4.238528E-2,1.7286307E-1,2.6575324E-1,2.0327735E-1,2.4745102E-1,3.2898098E-1],"split_indices":[5,5,7,17,12,9,9,7,17,5,9,18,18,9,9,7,18,9,0,18,18,18,17,17,11,9,9,11,5,1,9,0,0,0,0,0,0,0,0,0,0,0,0,0,0,0,0,0,0,0,0,0,0,0,0,0,0,0,0,0,0,0,0],"split_type":[0,0,0,0,0,0,0,0,0,0,0,0,0,0,0,0,0,0,0,0,0,0,0,0,0,0,0,0,0,0,0,0,0,0,0,0,0,0,0,0,0,0,0,0,0,0,0,0,0,0,0,0,0,0,0,0,0,0,0,0,0,0,0],"sum_hessian":[1.09739E5,4.5586E4,6.4153E4,1.4435E4,3.1151E4,2.6155E4,3.7998E4,9.787E3,4.648E3,3.632E3,2.7519E4,6.754E3,1.9401E4,2.3657E4,1.4341E4,4.453E3,5.334E3,4.347E3,3.01E2,2.213E3,1.419E3,1.8612E4,8.907E3,4.777E3,1.977E3,1.5304E4,4.097E3,9.61E3,1.4047E4,7.502E3,6.839E3,1.864E3,2.589E3,3.992E3,1.342E3,1.652E3,2.695E3,2.15E2,8.6E1,1.488E3,7.25E2,1.41E3,9E0,1.5817E4,2.795E3,6.081E3,2.826E3,4.217E3,5.6E2,2.48E2,1.729E3,1.1939E4,3.365E3,2.688E3,1.409E3,2.98E2,9.312E3,7.67E2,1.328E4,5.15E2,6.987E3,6.155E3,6.84E2],"tree_param":{"num_deleted":"0","num_feature":"21","num_nodes":"63","size_leaf_vector":"1"}},{"base_weights":[1.6521992E-3,2.6567519E0,-2.2845519E0,3.432901E0,1.4551107E0,-3.750564E0,-1.1251466E0,2.782063E0,4.441682E0,2.2101145E0,8.0486864E-1,-4.5476546E0,-3.1214845E0,-2.4361691E0,-6.6104037E-1,2.4074621E0,3.534118E0,4.1039844E0,5.4951134E0,1.8904545E0,3.5313313E0,6.591681E-1,2.6117325E0,-3.2261493E0,-5.360092E0,-4.027918E0,-2.7166078E0,-3.513689E0,-1.8786051E0,-1.6497732E0,-3.9666843E-1,1.4332783E-1,2.6553383E-1,3.4666926E-1,2.2037925E-1,2.3651533E-1,2.805684E-1,4.8588082E-1,3.1851864E-1,1.15082055E-1,3.2170817E-1,2.009017E-1,2.7850494E-1,3.4206662E-2,1.4132541E-1,2.836408E-1,1.256432E-1,-2.786016E-1,-1.9362357E-1,-4.1290876E-1,-2.913934E-1,-2.759044E-1,-1.7706448E-1,-1.9371012E-1,-1.0033853E-1,-3.3593202E-1,-1.871048E-1,-2.0368916E-1,-1.03148036E-1,-1.6019376E-1,-8.254451E-2,-1.1772782E-1,-1.35481935E-2],"categories":[],"categories_nodes":[],"categories_segments":[],"categories_sizes":[],"default_left":[0,0,1,0,0,0,0,1,0,0,0,0,0,0,0,0,0,0,0,0,0,0,0,0,0,0,0,0,0,1,0,0,0,0,0,0,0,0,0,0,0,0,0,0,0,0,0,0,0,0,0,0,0,0,0,0,0,0,0,0,0,0,0],"id":20,"left_children":[1,3,5,7,9,11,13,15,17,19,21,23,25,27,29,31,33,35,37,39,41,43,45,47,49,51,53,55,57,59,61,-1,-1,-1,-1,-1,-1,-1,-1,-1,-1,-1,-1,-1,-1,-1,-1,-1,-1,-1,-1,-1,-1,-1,-1,-1,-1,-1,-1,-1,-1,-1,-1],"loss_changes":[6.678007E5,4.744597E4,1.0045291E5,2.0237875E4,9.800555E3,1.3015719E4,2.0079188E4,5.2543125E3,4.195953E3,3.8687305E3,2.8186274E3,1.226125E4,5.3030938E3,5.1497617E3,6.3713643E3,3.1718594E3,5.4416406E2,1.0247031E3,2.7638281E3,1.6778965E3,4.8553125E2,1.8527832E3,8.905884E2,7.952617E2,6.1104062E3,1.7664141E3,3.9019766E3,2.8579219E3,1.8734473E3,1.5488164E3,5.141603E3,0E0,0E0,0E0,0E0,0E0,0E0,0E0,0E0,0E0,0E0,0E0,0E0,0E0,0E0,0E0,0E0,0E0,0E0,0E0,0E0,0E0,0E0,0E0,0E0,0E0,0E0,0E0,0E0,0E0,0E0,0E0,0E0],"parents":[2147483647,0,0,1,1,2,2,3,3,4,4,5,5,6,6,7,7,8,8,9,9,10,10,11,11,12,12,13,13,14,14,15,15,16,16,17,17,18,18,19,19,20,20,21,21,22,22,23,23,24,24,25,25,26,26,27,27,28,28,29,29,30,30],"right_children":[2,4,6,8,10,12,14,16,18,20,22,24,26,28,30,32,34,36,38,40,42,44,46,48,50,52,54,56,58,60,62,-1,-1,-1,-1,-1,-1,-1,-1,-1,-1,-1,-1,-1,-1,-1,-1,-1,-1,-1,-1,-1,-1,-1,-1,-1,-1,-1,-1,-1,-1,-1,-1],"split_conditions":[2E0,2E0,1.4276667E1,3.305E1,3E0,2E0,1.8011E1,2.9503E1,3.8493332E1,3.575E1,3.921E1,2E0,7.9333334E0,2.294E1,1.8616667E1,1.06367E2,2.4733334E1,3.4561E1,1E0,1.34267E2,1.6215834E-1,1.01678E2,1E0,4.17E0,3E0,5.9575E1,3E0,1.3915E1,2E0,6.581666E-2,2E0,1.4332783E-1,2.6553383E-1,3.4666926E-1,2.2037925E-1,2.3651533E-1,2.805684E-1,4.8588082E-1,3.1851864E-1,1.15082055E-1,3.2170817E-1,2.009017E-1,2.7850494E-1,3.4206662E-2,1.4132541E-1,2.836408E-1,1.256432E-1,-2.786016E-1,-1.9362357E-1,-4.1290876E-1,-2.913934E-1,-2.759044E-1,-1.7706448E-1,-1.9371012E-1,-1.0033853E-1,-3.3593202E-1,-1.871048E-1,-2.0368916E-1,-1.03148036E-1,-1.6019376E-1,-8.254451E-2,-1.1772782E-1,-1.35481935E-2],"split_indices":[4,15,5,5,15,11,9,9,5,5,5,15,5,16,5,16,5,9,11,16,8,16,11,5,15,16,15,9,11,8,11,0,0,0,0,0,0,0,0,0,0,0,0,0,0,0,0,0,0,0,0,0,0,0,0,0,0,0,0,0,0,0,0],"split_type":[0,0,0,0,0,0,0,0,0,0,0,0,0,0,0,0,0,0,0,0,0,0,0,0,0,0,0,0,0,0,0,0,0,0,0,0,0,0,0,0,0,0,0,0,0,0,0,0,0,0,0,0,0,0,0,0,0,0,0,0,0,0,0],"sum_hessian":[1.10005E5,5.0896E4,5.9109E4,3.0917E4,1.9979E4,2.6098E4,3.3011E4,1.8804E4,1.2113E4,9.239E3,1.074E4,1.1498E4,1.46E4,8.625E3,2.4386E4,1.2566E4,6.238E3,9.191E3,2.922E3,7.449E3,1.79E3,9.945E3,7.95E2,4.387E3,7.111E3,4.494E3,1.0106E4,2.932E3,5.693E3,5.139E3,1.9247E4,1.1643E4,9.23E2,1.52E2,6.086E3,4.361E3,4.83E3,4.99E2,2.423E3,7.291E3,1.58E2,1.284E3,5.06E2,9.253E3,6.92E2,1.92E2,6.03E2,5.32E2,3.855E3,2.79E3,4.321E3,3.533E3,9.61E2,7.747E3,2.359E3,6.86E2,2.246E3,8.84E2,4.809E3,1.44E3,3.699E3,2.131E3,1.7116E4],"tree_param":{"num_deleted":"0","num_feature":"21","num_nodes":"63","size_leaf_vector":"1"}},{"base_weights":[-3.5639564E-3,2.479901E0,-2.1323578E0,3.202803E0,1.3637146E0,-3.3835502E0,-9.568904E-1,2.5517623E0,4.118825E0,2.0489862E0,7.706891E-1,-4.1605206E0,-2.8286643E0,-2.0363908E0,-4.8764881E-1,2.2089853E0,3.2840173E0,3.9991732E0,7.37112E0,1.7541972E0,3.201745E0,5.703872E-1,2.522947E0,-2.9867759E0,-4.900165E0,-3.6403294E0,-2.4021926E0,-1.8900064E0,-6.3734145E0,-2.0385373E0,-2.6568547E-1,1.2313174E-1,2.1695529E-1,2.1274517E-1,1.4195842E-1,2.2396615E-1,2.7443475E-1,4.7122332E-1,-1.5523833E-2,1.06753305E-1,3.0297673E-1,1.8078573E-1,2.398855E-1,1.1794107E-2,7.3747166E-2,3.070924E-1,1.17759004E-1,-1.4937142E-1,-2.411556E-1,-3.7623653E-1,-2.674342E-1,-2.7544326E-1,-1.9527277E-1,-1.7119603E-1,-8.627313E-2,-1.4692476E-1,-7.166587E-2,-5.3831595E-1,-2.1881807E-1,-1.070209E-1,-2.33202E-1,-4.6415713E-2,2.8528864E-2],"categories":[],"categories_nodes":[],"categories_segments":[],"categories_sizes":[],"default_left":[0,0,1,0,0,0,0,1,0,0,0,0,0,0,0,0,0,0,0,0,0,0,1,0,0,0,0,0,0,0,0,0,0,0,0,0,0,0,0,0,0,0,0,0,0,0,0,0,0,0,0,0,0,0,0,0,0,0,0,0,0,0,0],"id":21,"left_children":[1,3,5,7,9,11,13,15,17,19,21,23,25,27,29,31,33,35,37,39,41,43,45,47,49,51,53,55,57,59,61,-1,-1,-1,-1,-1,-1,-1,-1,-1,-1,-1,-1,-1,-1,-1,-1,-1,-1,-1,-1,-1,-1,-1,-1,-1,-1,-1,-1,-1,-1,-1,-1],"loss_changes":[5.814127E5,4.0933344E4,8.707291E4,1.8315156E4,8.102617E3,1.2304625E4,1.5463215E4,4.484539E3,4.827172E3,3.115746E3,3.7499976E3,1.0289406E4,5.751578E3,5.8101523E3,7.326038E3,3.9159297E3,4.1782812E2,1.8342812E3,2.5988477E2,1.4767754E3,3.2579492E2,2.194319E3,1.6449883E3,2.3408945E3,5.0281406E3,2.2051719E3,3.4317969E3,2.9101914E3,1.7136992E3,1.4925869E3,6.2418584E3,0E0,0E0,0E0,0E0,0E0,0E0,0E0,0E0,0E0,0E0,0E0,0E0,0E0,0E0,0E0,0E0,0E0,0E0,0E0,0E0,0E0,0E0,0E0,0E0,0E0,0E0,0E0,0E0,0E0,0E0,0E0,0E0],"parents":[2147483647,0,0,1,1,2,2,3,3,4,4,5,5,6,6,7,7,8,8,9,9,10,10,11,11,12,12,13,13,14,14,15,15,16,16,17,17,18,18,19,19,20,20,21,21,22,22,23,23,24,24,25,25,26,26,27,27,28,28,29,29,30,30],"right_children":[2,4,6,8,10,12,14,16,18,20,22,24,26,28,30,32,34,36,38,40,42,44,46,48,50,52,54,56,58,60,62,-1,-1,-1,-1,-1,-1,-1,-1,-1,-1,-1,-1,-1,-1,-1,-1,-1,-1,-1,-1,-1,-1,-1,-1,-1,-1,-1,-1,-1,-1,-1,-1],"split_conditions":[2E0,2E0,1.5323334E1,3.2736668E1,3E0,2E0,1.9267E1,2.9503E1,3E0,3.5616665E1,2E0,2E0,9.166667E0,3E0,2E0,2E0,1E0,3.4659E1,2.6155E1,1.34267E2,3.7549E1,3.325E1,6.3133335E0,1E0,3E0,2.4668E1,3E0,3.7771E1,3E0,1E0,2.4113333E1,1.2313174E-1,2.1695529E-1,2.1274517E-1,1.4195842E-1,2.2396615E-1,2.7443475E-1,4.7122332E-1,-1.5523833E-2,1.06753305E-1,3.0297673E-1,1.8078573E-1,2.398855E-1,1.1794107E-2,7.3747166E-2,3.070924E-1,1.17759004E-1,-1.4937142E-1,-2.411556E-1,-3.7623653E-1,-2.674342E-1,-2.7544326E-1,-1.9527277E-1,-1.7119603E-1,-8.627313E-2,-1.4692476E-1,-7.166587E-2,-5.3831595E-1,-2.1881807E-1,-1.070209E-1,-2.33202E-1,-4.6415713E-2,2.8528864E-2],"split_indices":[4,15,5,5,15,11,9,9,12,5,12,15,5,18,12,12,20,9,16,16,9,5,5,20,15,16,15,16,11,20,5,0,0,0,0,0,0,0,0,0,0,0,0,0,0,0,0,0,0,0,0,0,0,0,0,0,0,0,0,0,0,0,0],"split_type":[0,0,0,0,0,0,0,0,0,0,0,0,0,0,0,0,0,0,0,0,0,0,0,0,0,0,0,0,0,0,0,0,0,0,0,0,0,0,0,0,0,0,0,0,0,0,0,0,0,0,0,0,0,0,0,0,0,0,0,0,0,0,0],"sum_hessian":[1.09965E5,5.0754E4,5.9211E4,3.0798E4,1.9956E4,2.8677E4,3.0534E4,1.8014E4,1.2784E4,9.252E3,1.0704E4,1.1934E4,1.6743E4,9.246E3,2.1288E4,1.2284E4,5.73E3,1.2341E4,4.43E2,7.378E3,1.874E3,9.612E3,1.092E3,4.623E3,7.311E3,5.754E3,1.0989E4,8.951E3,2.95E2,2.66E3,1.8628E4,1.0107E4,2.177E3,5.327E3,4.03E2,5.224E3,7.117E3,4.39E2,4E0,7.224E3,1.54E2,1.198E3,6.76E2,5.844E3,3.768E3,2.35E2,8.57E2,2.634E3,1.989E3,2.859E3,4.452E3,2.51E3,3.244E3,8.508E3,2.481E3,5.7E3,3.251E3,1.65E2,1.3E2,2.204E3,4.56E2,1.1272E4,7.356E3],"tree_param":{"num_deleted":"0","num_feature":"21","num_nodes":"63","size_leaf_vector":"1"}},{"base_weights":[6.8316334E-3,2.3184006E0,-1.980096E0,1.7810323E0,3.0709615E0,-3.2543297E0,-9.5195735E-1,1.6219959E0,2.83359E0,2.9626477E0,6.1613283E0,-3.6709268E0,-2.2723706E0,-1.565486E0,-1.8609215E-1,1.2660109E0,2.352032E0,2.0562506E0,4.128079E0,2.8209593E0,4.024617E0,6.299616E0,3.7509208E0,-3.2612274E0,-4.479595E0,-3.2571244E0,-1.7143731E0,-1.1873931E0,-2.8214521E0,-1.6868914E0,6.843823E-2,-6.30302E-2,8.5689425E-2,1.2659165E-1,1.7048277E-1,5.9052873E-2,1.7536661E-1,2.2750078E-1,3.54218E-1,1.5649065E-1,1.9611852E-1,2.4126855E-1,3.1979883E-1,3.6958522E-1,4.472528E-1,1.04637355E-1,2.7316618E-1,-1.9228178E-1,-2.9100943E-1,-3.0921903E-1,-2.0145184E-1,-2.859301E-1,-1.8027136E-1,-1.1320086E-1,4.4130653E-2,-1.3769506E-1,-6.0006477E-2,-1.5931024E-1,-3.421987E-1,-2.0728369E-1,-8.137523E-2,-2.93779E-2,3.0994236E-2],"categories":[],"categories_nodes":[],"categories_segments":[],"categories_sizes":[],"default_left":[0,0,1,0,0,1,1,1,0,1,0,0,0,0,0,0,0,0,0,0,0,0,0,0,0,0,0,0,0,0,0,0,0,0,0,0,0,0,0,0,0,0,0,0,0,0,0,0,0,0,0,0,0,0,0,0,0,0,0,0,0,0,0],"id":22,"left_children":[1,3,5,7,9,11,13,15,17,19,21,23,25,27,29,31,33,35,37,39,41,43,45,47,49,51,53,55,57,59,61,-1,-1,-1,-1,-1,-1,-1,-1,-1,-1,-1,-1,-1,-1,-1,-1,-1,-1,-1,-1,-1,-1,-1,-1,-1,-1,-1,-1,-1,-1,-1,-1],"loss_changes":[5.048895E5,2.0519719E4,7.7428484E4,4.939711E3,6.9894844E3,1.0754344E4,1.5373977E4,6.682297E3,3.865627E3,3.0187969E3,1.1693945E2,6.0622812E3,4.2979375E3,8.609016E3,5.5636387E3,3.4405645E3,9.856719E2,1.9407188E3,1.0364648E3,1.7058594E3,4.2683203E2,2.7523438E1,2.236969E1,3.6101484E3,3.1856719E3,1.3997852E3,9.030625E2,3.2937715E3,3.2389219E3,1.3230112E3,2.794117E3,0E0,0E0,0E0,0E0,0E0,0E0,0E0,0E0,0E0,0E0,0E0,0E0,0E0,0E0,0E0,0E0,0E0,0E0,0E0,0E0,0E0,0E0,0E0,0E0,0E0,0E0,0E0,0E0,0E0,0E0,0E0,0E0],"parents":[2147483647,0,0,1,1,2,2,3,3,4,4,5,5,6,6,7,7,8,8,9,9,10,10,11,11,12,12,13,13,14,14,15,15,16,16,17,17,18,18,19,19,20,20,21,21,22,22,23,23,24,24,25,25,26,26,27,27,28,28,29,29,30,30],"right_children":[2,4,6,8,10,12,14,16,18,20,22,24,26,28,30,32,34,36,38,40,42,44,46,48,50,52,54,56,58,60,62,-1,-1,-1,-1,-1,-1,-1,-1,-1,-1,-1,-1,-1,-1,-1,-1,-1,-1,-1,-1,-1,-1,-1,-1,-1,-1,-1,-1,-1,-1,-1,-1],"split_conditions":[2E0,3.2633335E1,1.4416667E1,2E0,3E0,1.1129E1,2.0755E1,2.9804E1,6.7992E1,3.8493332E1,2.8E1,1E0,2.1609E1,1E0,2E0,1.7423334E1,3.1735E1,1.9416666E1,1.29998E2,3.4463E1,4.1293335E1,6.53E2,4.71E2,6.00001E0,5.7985E1,2E0,1.26217E2,1.533E1,3E0,2E0,2.505E1,-6.30302E-2,8.5689425E-2,1.2659165E-1,1.7048277E-1,5.9052873E-2,1.7536661E-1,2.2750078E-1,3.54218E-1,1.5649065E-1,1.9611852E-1,2.4126855E-1,3.1979883E-1,3.6958522E-1,4.472528E-1,1.04637355E-1,2.7316618E-1,-1.9228178E-1,-2.9100943E-1,-3.0921903E-1,-2.0145184E-1,-2.859301E-1,-1.8027136E-1,-1.1320086E-1,4.4130653E-2,-1.3769506E-1,-6.0006477E-2,-1.5931024E-1,-3.421987E-1,-2.0728369E-1,-8.137523E-2,-2.93779E-2,3.0994236E-2],"split_indices":[4,5,5,12,12,9,9,9,16,5,0,20,16,18,12,5,9,5,16,9,5,2,2,12,16,11,16,9,18,11,16,0,0,0,0,0,0,0,0,0,0,0,0,0,0,0,0,0,0,0,0,0,0,0,0,0,0,0,0,0,0,0,0],"split_type":[0,0,0,0,0,0,0,0,0,0,0,0,0,0,0,0,0,0,0,0,0,0,0,0,0,0,0,0,0,0,0,0,0,0,0,0,0,0,0,0,0,0,0,0,0,0,0,0,0,0,0,0,0,0,0,0,0,0,0,0,0,0,0],"sum_hessian":[1.09918E5,5.0808E4,5.911E4,2.9652E4,2.1156E4,2.6391E4,3.2719E4,2.5771E4,3.881E3,2.0449E4,7.07E2,1.852E4,7.871E3,1.8163E4,1.4556E4,1.7333E4,8.438E3,2.433E3,1.448E3,1.8058E4,2.391E3,6.61E2,4.6E1,1.2309E4,6.211E3,2.838E3,5.033E3,1.3968E4,4.195E3,2.107E3,1.2449E4,6.44E2,1.6689E4,4.167E3,4.271E3,9.5E2,1.483E3,1.074E3,3.74E2,8.013E3,1.0045E4,1.999E3,3.92E2,4.39E2,2.22E2,1.4E1,3.2E1,1.0556E4,1.753E3,4.723E3,1.488E3,6.84E2,2.154E3,4.885E3,1.48E2,2.718E3,1.125E4,3.761E3,4.34E2,4.18E2,1.689E3,5.497E3,6.952E3],"tree_param":{"num_deleted":"0","num_feature":"21","num_nodes":"63","size_leaf_vector":"1"}},{"base_weights":[5.6688683E-3,-1.5465575E0,1.8001964E0,-2.7201679E0,-7.812354E-1,2.4439855E0,8.1567454E-1,-3.169704E0,-1.4242703E0,-5.6749797E-1,-2.7492337E0,1.5713354E0,3.2132714E0,1.4294819E0,2.814472E-1,-3.752924E0,-2.4854205E0,-1.77931E0,5.172718E-1,-9.801959E-1,-2.0410687E-2,-1.4645079E0,-4.5408173E0,8.7373954E-1,2.028695E0,2.706816E0,3.7554944E0,7.0593446E-1,2.1266332E0,-8.044399E-2,8.239656E-1,-2.972496E-1,-2.209176E-1,-1.3810265E-1,-2.239544E-1,-1.7244278E-1,-7.058521E-2,4.8170824E-2,-3.0843595E-1,-4.713216E-2,-1.477338E-1,1.2664225E-2,-5.4252088E-2,-4.5636933E-2,-1.4961644E-1,-1.8083915E-1,-3.491907E-1,6.509031E-2,-9.601777E-2,1.4451273E-1,6.807533E-2,1.7790845E-1,2.7101228E-2,2.3152716E-1,3.3296356E-1,4.910659E-2,-1.1577997E-1,1.3702805E-1,-1.743458E-1,-8.754387E-3,1.8287729E-1,4.5735434E-2,1.4882462E-1],"categories":[],"categories_nodes":[],"categories_segments":[],"categories_sizes":[],"default_left":[1,0,0,0,0,0,0,1,0,1,0,1,0,0,0,0,0,1,0,0,0,0,0,0,0,0,1,0,0,0,0,0,0,0,0,0,0,0,0,0,0,0,0,0,0,0,0,0,0,0,0,0,0,0,0,0,0,0,0,0,0,0,0],"id":23,"left_children":[1,3,5,7,9,11,13,15,17,19,21,23,25,27,29,31,33,35,37,39,41,43,45,47,49,51,53,55,57,59,61,-1,-1,-1,-1,-1,-1,-1,-1,-1,-1,-1,-1,-1,-1,-1,-1,-1,-1,-1,-1,-1,-1,-1,-1,-1,-1,-1,-1,-1,-1,-1,-1],"loss_changes":[3.0642253E5,5.296747E4,3.232689E4,1.3537391E4,1.5011504E4,2.0680297E4,6.6143916E3,6.8475E3,4.1444434E3,7.2735938E3,8.0132188E3,4.603957E3,4.447703E3,4.727176E3,2.1202893E3,2.2279844E3,2.506754E3,3.1698633E3,1.2396309E3,5.847703E3,2.5571748E3,1.3562734E3,2.3131816E3,2.125079E3,2.1011602E3,1.9950312E3,1.0688984E3,8.2254297E2,9.1297656E2,1.1134507E3,6.598789E2,0E0,0E0,0E0,0E0,0E0,0E0,0E0,0E0,0E0,0E0,0E0,0E0,0E0,0E0,0E0,0E0,0E0,0E0,0E0,0E0,0E0,0E0,0E0,0E0,0E0,0E0,0E0,0E0,0E0,0E0,0E0,0E0],"parents":[2147483647,0,0,1,1,2,2,3,3,4,4,5,5,6,6,7,7,8,8,9,9,10,10,11,11,12,12,13,13,14,14,15,15,16,16,17,17,18,18,19,19,20,20,21,21,22,22,23,23,24,24,25,25,26,26,27,27,28,28,29,29,30,30],"right_children":[2,4,6,8,10,12,14,16,18,20,22,24,26,28,30,32,34,36,38,40,42,44,46,48,50,52,54,56,58,60,62,-1,-1,-1,-1,-1,-1,-1,-1,-1,-1,-1,-1,-1,-1,-1,-1,-1,-1,-1,-1,-1,-1,-1,-1,-1,-1,-1,-1,-1,-1,-1,-1],"split_conditions":[2.401E1,1.4716666E1,2E0,5.7985E1,1E0,3.0783333E1,3E0,1.0056E1,1.20182E2,1.9186E1,3E0,2.6414E1,3.4182E1,3.0996E1,3.2426666E1,4.478E0,3E0,8.442E0,1E0,1E0,1E0,2E0,2E0,2E0,1E0,2E0,3.9476E1,2E0,5E0,1.34267E2,3.9626667E1,-2.972496E-1,-2.209176E-1,-1.3810265E-1,-2.239544E-1,-1.7244278E-1,-7.058521E-2,4.8170824E-2,-3.0843595E-1,-4.713216E-2,-1.477338E-1,1.2664225E-2,-5.4252088E-2,-4.5636933E-2,-1.4961644E-1,-1.8083915E-1,-3.491907E-1,6.509031E-2,-9.601777E-2,1.4451273E-1,6.807533E-2,1.7790845E-1,2.7101228E-2,2.3152716E-1,3.3296356E-1,4.910659E-2,-1.1577997E-1,1.3702805E-1,-1.743458E-1,-8.754387E-3,1.8287729E-1,4.5735434E-2,1.4882462E-1],"split_indices":[5,5,15,16,20,5,15,7,16,7,14,7,7,7,5,7,14,7,18,18,18,15,15,18,18,18,7,20,20,16,5,0,0,0,0,0,0,0,0,0,0,0,0,0,0,0,0,0,0,0,0,0,0,0,0,0,0,0,0,0,0,0,0],"split_type":[0,0,0,0,0,0,0,0,0,0,0,0,0,0,0,0,0,0,0,0,0,0,0,0,0,0,0,0,0,0,0,0,0,0,0,0,0,0,0,0,0,0,0,0,0,0,0,0,0,0,0,0,0,0,0,0,0,0,0,0,0,0,0],"sum_hessian":[1.09996E5,5.898E4,5.1016E4,2.3275E4,3.5705E4,3.0841E4,2.0175E4,1.7275E4,6E3,3.2213E4,3.492E3,1.4457E4,1.6384E4,9.384E3,1.0791E4,9.314E3,7.961E3,5.073E3,9.27E2,1.8359E4,1.3854E4,2.039E3,1.453E3,5.731E3,8.726E3,8.487E3,7.897E3,4.61E3,4.774E3,6.475E3,4.316E3,2.015E3,7.299E3,6.189E3,1.772E3,2.088E3,2.985E3,8.91E2,3.6E1,1.5643E4,2.716E3,1.0967E4,2.887E3,1.121E3,9.18E2,5.4E2,9.13E2,5.386E3,3.45E2,6.884E3,1.842E3,8.117E3,3.7E2,7.429E3,4.68E2,4.49E3,1.2E2,4.74E3,3.4E1,6.356E3,1.19E2,4.054E3,2.62E2],"tree_param":{"num_deleted":"0","num_feature":"21","num_nodes":"63","size_leaf_vector":"1"}},{"base_weights":[1.4377668E-3,2.0848403E0,-1.7801603E0,2.7518678E0,1.0481911E0,-2.9138575E0,-8.843626E-1,2.236286E0,3.5464723E0,1.662475E0,5.2246535E-1,-4.0755587E0,-2.6350353E0,-2.0114017E0,-5.3232986E-1,1.6720463E0,2.5429013E0,3.2340426E0,4.534501E0,1.325327E0,2.5081453E0,2.9980808E-1,1.5147926E0,-2.6874008E0,-4.8381557E0,-4.140708E0,-2.4661021E0,-1.7957071E0,-4.0720377E0,-2.187241E0,-2.9569575E-1,6.075302E-2,1.8223776E-1,1.5624605E-1,2.3744987E-1,2.0639712E-1,-1.0254571E-1,4.0707514E-1,2.6093253E-1,7.216681E-2,1.4789738E-1,1.4325313E-1,2.1789347E-1,-8.368149E-3,4.9192406E-2,6.498214E-2,1.8953325E-1,-1.5576127E-1,-2.6458198E-1,-2.5744396E-1,-3.8208157E-1,-2.8933337E-1,-2.2567871E-1,-1.7460112E-1,-1.0794825E-1,-3.117301E-1,-1.0710337E-1,-4.1634694E-1,-1.9758396E-1,-2.0356396E-1,-8.9727245E-2,-4.159223E-2,3.0168133E-2],"categories":[],"categories_nodes":[],"categories_segments":[],"categories_sizes":[],"default_left":[0,0,1,0,0,0,0,0,0,0,0,0,0,0,0,0,1,0,0,1,0,1,0,0,0,0,0,0,0,1,1,0,0,0,0,0,0,0,0,0,0,0,0,0,0,0,0,0,0,0,0,0,0,0,0,0,0,0,0,0,0,0,0],"id":24,"left_children":[1,3,5,7,9,11,13,15,17,19,21,23,25,27,29,31,33,35,37,39,41,43,45,47,49,51,53,55,57,59,61,-1,-1,-1,-1,-1,-1,-1,-1,-1,-1,-1,-1,-1,-1,-1,-1,-1,-1,-1,-1,-1,-1,-1,-1,-1,-1,-1,-1,-1,-1,-1,-1],"loss_changes":[4.0828453E5,3.504439E4,6.020117E4,1.2596625E4,6.4082812E3,8.420516E3,1.3137506E4,3.2162422E3,3.6692188E3,2.5923086E3,2.3629634E3,5.284922E3,5.3183125E3,3.4650215E3,9.884023E3,5.6636797E3,1.0466016E3,1.2044141E3,2.1359062E3,1.2138359E3,5.554512E2,1.805417E3,1.3992515E3,5.572529E2,2.8836094E3,4.4164844E2,4.1956953E3,2.2776309E3,1.6643486E3,2.4754414E3,6.167339E3,0E0,0E0,0E0,0E0,0E0,0E0,0E0,0E0,0E0,0E0,0E0,0E0,0E0,0E0,0E0,0E0,0E0,0E0,0E0,0E0,0E0,0E0,0E0,0E0,0E0,0E0,0E0,0E0,0E0,0E0,0E0,0E0],"parents":[2147483647,0,0,1,1,2,2,3,3,4,4,5,5,6,6,7,7,8,8,9,9,10,10,11,11,12,12,13,13,14,14,15,15,16,16,17,17,18,18,19,19,20,20,21,21,22,22,23,23,24,24,25,25,26,26,27,27,28,28,29,29,30,30],"right_children":[2,4,6,8,10,12,14,16,18,20,22,24,26,28,30,32,34,36,38,40,42,44,46,48,50,52,54,56,58,60,62,-1,-1,-1,-1,-1,-1,-1,-1,-1,-1,-1,-1,-1,-1,-1,-1,-1,-1,-1,-1,-1,-1,-1,-1,-1,-1,-1,-1,-1,-1,-1,-1],"split_conditions":[2E0,2E0,1.4276667E1,3.305E1,3E0,1E0,7.3375E-2,1.1200833E-1,1.59125E-1,3.4316666E1,2E0,2E0,3.6066666E0,2E0,2E0,2E0,2E0,5E0,1E0,2E0,1.6215834E-1,1.3060834E-1,3E0,1E0,1.4276667E1,3E0,2E0,2E0,2E0,1.0267083E-1,9.852083E-2,6.075302E-2,1.8223776E-1,1.5624605E-1,2.3744987E-1,2.0639712E-1,-1.0254571E-1,4.0707514E-1,2.6093253E-1,7.216681E-2,1.4789738E-1,1.4325313E-1,2.1789347E-1,-8.368149E-3,4.9192406E-2,6.498214E-2,1.8953325E-1,-1.5576127E-1,-2.6458198E-1,-2.5744396E-1,-3.8208157E-1,-2.8933337E-1,-2.2567871E-1,-1.7460112E-1,-1.0794825E-1,-3.117301E-1,-1.0710337E-1,-4.1634694E-1,-1.9758396E-1,-2.0356396E-1,-8.9727245E-2,-4.159223E-2,3.0168133E-2],"split_indices":[4,15,5,5,15,11,10,10,8,5,14,15,5,18,14,14,14,20,11,14,8,10,17,18,5,15,17,14,11,10,10,0,0,0,0,0,0,0,0,0,0,0,0,0,0,0,0,0,0,0,0,0,0,0,0,0,0,0,0,0,0,0,0],"split_type":[0,0,0,0,0,0,0,0,0,0,0,0,0,0,0,0,0,0,0,0,0,0,0,0,0,0,0,0,0,0,0,0,0,0,0,0,0,0,0,0,0,0,0,0,0,0,0,0,0,0,0,0,0,0,0,0,0,0,0,0,0,0,0],"sum_hessian":[1.09987E5,5.0699E4,5.9288E4,3.0844E4,1.9855E4,2.6164E4,3.3124E4,1.8718E4,1.2126E4,9.151E3,1.0704E4,5.051E3,2.1113E4,7.878E3,2.5246E4,6.602E3,1.2116E4,9.229E3,2.897E3,6.552E3,2.599E3,8.748E3,1.956E3,1.799E3,3.252E3,2.118E3,1.8995E4,7.14E3,7.38E2,3.153E3,2.2093E4,4.157E3,2.445E3,1.1424E4,6.92E2,9.181E3,4.8E1,5.05E2,2.392E3,5.546E3,1.006E3,2.072E3,5.27E2,4.593E3,4.155E3,1.477E3,4.79E2,1.573E3,2.26E2,1.991E3,1.261E3,1.193E3,9.25E2,1.3718E4,5.277E3,2.22E2,6.918E3,1.95E2,5.43E2,1.343E3,1.81E3,1.5052E4,7.041E3],"tree_param":{"num_deleted":"0","num_feature":"21","num_nodes":"63","size_leaf_vector":"1"}},{"base_weights":[4.6137623E-3,-1.3658222E0,1.591398E0,-2.4180887E0,-7.1750087E-1,2.162499E0,7.1757066E-1,-2.6722836E0,-4.693353E-1,-5.195361E-1,-2.5115464E0,1.2348676E0,2.8140554E0,2.9625207E-1,1.3428546E0,-3.1270776E0,-1.9284229E0,-1.6235459E0,3.4695473E-2,-7.4588525E-1,6.191477E-1,-1.3675625E0,-4.1265965E0,9.2969805E-1,2.3624885E0,2.4030504E0,3.299646E0,3.9864808E-1,-1.4032874E0,2.013277E0,7.473791E-1,-1.8265215E-1,-2.5280896E-1,-1.4913435E-1,-9.414894E-2,-2.0838077E-1,-6.977456E-2,-2.7889429E-2,9.1600515E-2,-9.486718E-2,-2.0874344E-2,-6.249038E-2,5.276218E-2,-1.1117269E-1,4.023573E-2,-1.8199362E-1,-3.0826446E-1,9.4668654E-4,8.817405E-2,8.567436E-2,1.7316374E-1,3.4020998E-2,1.5972939E-1,1.9851533E-1,2.6738468E-1,1.3114601E-2,7.777865E-2,-5.0181395E-1,-6.3494466E-2,1.07112534E-1,1.611032E-1,4.9754262E-2,-9.3451224E-2],"categories":[],"categories_nodes":[],"categories_segments":[],"categories_sizes":[],"default_left":[1,0,0,0,0,0,1,1,1,0,0,0,1,0,0,0,0,0,0,0,1,1,0,0,0,0,0,0,0,0,0,0,0,0,0,0,0,0,0,0,0,0,0,0,0,0,0,0,0,0,0,0,0,0,0,0,0,0,0,0,0,0,0],"id":25,"left_children":[1,3,5,7,9,11,13,15,17,19,21,23,25,27,29,31,33,35,37,39,41,43,45,47,49,51,53,55,57,59,61,-1,-1,-1,-1,-1,-1,-1,-1,-1,-1,-1,-1,-1,-1,-1,-1,-1,-1,-1,-1,-1,-1,-1,-1,-1,-1,-1,-1,-1,-1,-1,-1],"loss_changes":[2.3934756E5,4.0280297E4,2.5445602E4,1.1144328E4,1.2973406E4,1.862314E4,5.3103154E3,6.7049062E3,1.5159177E3,8.48838E3,6.6780273E3,4.369865E3,3.5735781E3,2.100244E3,3.231662E3,2.5279219E3,1.4080898E3,6.6873535E2,1.2230596E3,8.600169E3,1.884054E3,1.6661216E3,1.3252715E3,4.24871E3,9.9913477E2,2.1939453E3,1.1866328E3,1.8057955E3,1.7477445E3,6.283574E2,3.74542E2,0E0,0E0,0E0,0E0,0E0,0E0,0E0,0E0,0E0,0E0,0E0,0E0,0E0,0E0,0E0,0E0,0E0,0E0,0E0,0E0,0E0,0E0,0E0,0E0,0E0,0E0,0E0,0E0,0E0,0E0,0E0,0E0],"parents":[2147483647,0,0,1,1,2,2,3,3,4,4,5,5,6,6,7,7,8,8,9,9,10,10,11,11,12,12,13,13,14,14,15,15,16,16,17,17,18,18,19,19,20,20,21,21,22,22,23,23,24,24,25,25,26,26,27,27,28,28,29,29,30,30],"right_children":[2,4,6,8,10,12,14,16,18,20,22,24,26,28,30,32,34,36,38,40,42,44,46,48,50,52,54,56,58,60,62,-1,-1,-1,-1,-1,-1,-1,-1,-1,-1,-1,-1,-1,-1,-1,-1,-1,-1,-1,-1,-1,-1,-1,-1,-1,-1,-1,-1,-1,-1,-1,-1],"split_conditions":[2.401E1,1.4416667E1,2E0,1E0,1E0,1.2623334E-1,1.3024166E-1,4.55625E-2,1.3295833E-2,1E0,3E0,1E0,1.3860416E-1,1E0,3E0,1E0,3E0,1E0,3E0,8.395E-2,1.5323334E1,1.012625E-1,2E0,1.0715417E-1,9.7529165E-2,1.10541664E-1,1.5544167E-1,1E0,8.281667E-2,1.461125E-1,3E0,-1.8265215E-1,-2.5280896E-1,-1.4913435E-1,-9.414894E-2,-2.0838077E-1,-6.977456E-2,-2.7889429E-2,9.1600515E-2,-9.486718E-2,-2.0874344E-2,-6.249038E-2,5.276218E-2,-1.1117269E-1,4.023573E-2,-1.8199362E-1,-3.0826446E-1,9.4668654E-4,8.817405E-2,8.567436E-2,1.7316374E-1,3.4020998E-2,1.5972939E-1,1.9851533E-1,2.6738468E-1,1.3114601E-2,7.777865E-2,-5.0181395E-1,-6.3494466E-2,1.07112534E-1,1.611032E-1,4.9754262E-2,-9.3451224E-2],"split_indices":[5,5,15,19,20,10,10,10,10,19,14,19,10,20,15,18,11,11,15,10,5,10,15,10,10,8,10,19,10,10,20,0,0,0,0,0,0,0,0,0,0,0,0,0,0,0,0,0,0,0,0,0,0,0,0,0,0,0,0,0,0,0,0],"split_type":[0,0,0,0,0,0,0,0,0,0,0,0,0,0,0,0,0,0,0,0,0,0,0,0,0,0,0,0,0,0,0,0,0,0,0,0,0,0,0,0,0,0,0,0,0,0,0,0,0,0,0,0,0,0,0,0,0,0,0,0,0,0,0],"sum_hessian":[1.10056E5,5.9054E4,5.1002E4,2.2508E4,3.6546E4,3.0839E4,2.0163E4,1.9909E4,2.599E3,3.292E4,3.626E3,1.273E4,1.8109E4,1.2051E4,8.112E3,1.2345E4,7.564E3,7.87E2,1.812E3,2.7463E4,5.457E3,2.128E3,1.498E3,1.0026E4,2.704E3,9.824E3,8.285E3,1.137E4,6.81E2,3.81E3,4.302E3,9.668E3,2.677E3,3.831E3,3.733E3,1.81E2,6.06E2,1.358E3,4.54E2,9.773E3,1.769E4,6.4E2,4.817E3,1.783E3,3.45E2,5.67E2,9.31E2,3.372E3,6.654E3,7.36E2,1.968E3,5.96E2,9.228E3,7.056E3,1.229E3,9.244E3,2.126E3,3.4E1,6.47E2,2.388E3,1.422E3,4.232E3,7E1],"tree_param":{"num_deleted":"0","num_feature":"21","num_nodes":"63","size_leaf_vector":"1"}},{"base_weights":[-1.7893694E-2,1.8476539E0,-1.6166345E0,1.5938977E0,2.9163313E0,-2.5043597E0,-7.587161E-1,1.8103958E0,7.998759E-1,4.6766844E0,2.7332726E0,-3.216141E0,-2.0132532E0,-2.4963293E0,-5.3272027E-1,1.6592926E0,2.872727E0,3.2599363E-1,1.5124224E0,1.5160334E0,5.4801164E0,2.6432161E0,3.8661509E0,-3.5414574E0,-2.3434339E0,-2.926697E0,-1.7575125E0,-3.9609501E0,-1.6934311E0,-1.1798614E0,-8.929993E-2,7.075735E-2,1.2551187E-1,1.5446499E-1,3.0854958E-1,-5.7830356E-2,2.8855074E-2,7.738808E-2,1.2469084E-1,1.3045311E-1,-6.981467E-2,3.8645583E-1,1.8724613E-1,1.746345E-1,1.11289926E-1,2.6120973E-1,1.3409938E-1,-2.51726E-1,-2.0206612E-1,-1.9883597E-1,-9.476725E-2,-2.0201822E-1,-1.23433635E-1,-1.1473096E-1,1.0294779E-1,-2.1977831E-1,-3.8673714E-1,-9.6974894E-2,-2.2034149E-1,-2.7387378E-1,-7.017919E-2,-2.2022963E-2,3.843269E-2],"categories":[],"categories_nodes":[],"categories_segments":[],"categories_sizes":[],"default_left":[0,0,1,0,0,0,0,0,1,0,1,0,0,0,0,0,0,0,0,0,0,0,0,0,1,1,1,0,0,0,0,0,0,0,0,0,0,0,0,0,0,0,0,0,0,0,0,0,0,0,0,0,0,0,0,0,0,0,0,0,0,0,0],"id":26,"left_children":[1,3,5,7,9,11,13,15,17,19,21,23,25,27,29,31,33,35,37,39,41,43,45,47,49,51,53,55,57,59,61,-1,-1,-1,-1,-1,-1,-1,-1,-1,-1,-1,-1,-1,-1,-1,-1,-1,-1,-1,-1,-1,-1,-1,-1,-1,-1,-1,-1,-1,-1,-1,-1],"loss_changes":[3.273792E5,1.3712047E4,4.500689E4,7.030539E3,3.0641484E3,1.011975E4,1.1799016E4,5.1383984E3,2.9619639E3,2.2613242E3,8.457578E2,3.321039E3,