{"learner":{"attributes":{},"feature_names":["Team","Opp","Player","Pos","MP","MP_L1_avg","MP_L3_avg","MP_L5_avg","MP_L10_avg","PTS_L1_avg","PTS_L3_avg","PTS_L5_avg","PTS_L10_avg","DefPTS_L1_avg","DefPTS_L3_avg","DefPTS_L5_avg","DefPTS_L10_avg","FG_L1_avg","FG_L3_avg","FG_L5_avg","FG_L10_avg","FGA_L1_avg","FGA_L3_avg","FGA_L5_avg","FGA_L10_avg","FT_L1_avg","FT_L3_avg","FT_L5_avg","FT_L10_avg","FTA_L1_avg","FTA_L3_avg","FTA_L5_avg","FTA_L10_avg","TPM_L1_avg","TPM_L3_avg","TPM_L5_avg","TPM_L10_avg","TPA_L1_avg","TPA_L3_avg","TPA_L5_avg","TPA_L10_avg","eFG_L1_avg","eFG_L3_avg","eFG_L5_avg","eFG_L10_avg","TS_L1_avg","TS_L3_avg","TS_L5_avg","TS_L10_avg","TeamPTS","TeamPTS_pct_L3","TeamPTS_pct_L5","TeamPTS_pct_L10","team_PTS_available"],"feature_types":["int","int","int","int","float","float","float","float","float","float","float","float","float","float","float","float","float","float","float","float","float","float","float","float","float","float","float","float","float","float","float","float","float","float","float","float","float","float","float","float","float","float","float","float","float","float","float","float","float","float","float","float","float","float"],"gradient_booster":{"model":{"cats":{"enc":[],"feature_segments":[],"sorted_idx":[]},"gbtree_model_param":{"num_parallel_tree":"1","num_trees":"100"},"iteration_indptr":[0,1,2,3,4,5,6,7,8,9,10,11,12,13,14,15,16,17,18,19,20,21,22,23,24,25,26,27,28,29,30,31,32,33,34,35,36,37,38,39,40,41,42,43,44,45,46,47,48,49,50,51,52,53,54,55,56,57,58,59,60,61,62,63,64,65,66,67,68,69,70,71,72,73,74,75,76,77,78,79,80,81,82,83,84,85,86,87,88,89,90,91,92,93,94,95,96,97,98,99,100],"tree_info":[0,0,0,0,0,0,0,0,0,0,0,0,0,0,0,0,0,0,0,0,0,0,0,0,0,0,0,0,0,0,0,0,0,0,0,0,0,0,0,0,0,0,0,0,0,0,0,0,0,0,0,0,0,0,0,0,0,0,0,0,0,0,0,0,0,0,0,0,0,0,0,0,0,0,0,0,0,0,0,0,0,0,0,0,0,0,0,0,0,0,0,0,0,0,0,0,0,0,0,0],"trees":[{"base_weights":[-7.322697E-3,-5.1361094E0,6.2672844E0,-8.009561E0,-2.5216856E0,4.371811E0,1.4133679E1,-9.112409E0,-6.274597E0,-3.8016367E0,-1.0020176E0,2.2916615E0,7.263227E0,1.1773506E1,1.683846E1,-6.4165586E-1,-5.431986E-1,-6.3158E0,-9.581977E-1,-4.5838223E0,-2.9144492E0,-1.4122514E0,4.1994333E0,5.417449E-1,4.0044127E0,4.8591204E0,9.210921E0,9.709152E0,1.4467219E1,1.5187733E1,1.9767374E1,-4.4302195E-1,-3.700499E-1,-1.3612805E-1,3.850248E-2,-3.2212266E-1,-1.3542096E-1,-2.3538856E-1,-1.2670317E-1,-1.926228E-1,-3.9957E-2,1.1433703E-1,3.9573509E-1,-9.499502E-2,8.779419E-2,1.4492193E-1,3.6020556E-1,2.0313254E-1,3.9940035E-1,4.8668155E-1,6.853944E-1,3.912337E-1,7.2002894E-1,4.110574E-1,9.902836E-1,2.505724E-1,1.0275239E0,4.8064786E-1,1.3634006E0],"categories":[],"categories_nodes":[],"categories_segments":[],"categories_sizes":[],"default_left":[0,0,1,0,0,0,0,0,1,0,1,0,0,1,0,0,0,0,0,1,1,0,0,0,0,0,0,0,0,0,0,0,0,0,0,0,0,0,0,0,0,0,0,0,0,0,0,0,0,0,0,0,0,0,0,0,0,0,0],"id":0,"left_children":[1,3,5,7,9,11,13,15,17,19,21,23,25,27,29,-1,-1,31,33,35,37,39,41,43,45,47,49,51,53,55,57,-1,-1,-1,-1,-1,-1,-1,-1,-1,-1,-1,-1,-1,-1,-1,-1,-1,-1,-1,-1,-1,-1,-1,-1,-1,-1,-1,-1],"loss_changes":[2.6395462E5,3.382211E4,5.476225E4,3.8885469E3,4.5887197E3,1.78418E4,3.8159219E3,3.2801562E2,1.5652734E2,8.35416E2,2.3407002E3,5.1951895E3,5.6499766E3,1.6578203E3,4.47125E2,0E0,0E0,5.9960938E1,2.381062E1,3.657871E2,3.4945947E2,1.2012273E3,2.999469E2,1.315731E3,2.18137E3,1.0733584E3,1.0886523E3,7.164883E2,1.2517969E2,2.50125E2,2.752578E2,0E0,0E0,0E0,0E0,0E0,0E0,0E0,0E0,0E0,0E0,0E0,0E0,0E0,0E0,0E0,0E0,0E0,0E0,0E0,0E0,0E0,0E0,0E0,0E0,0E0,0E0,0E0,0E0],"parents":[2147483647,0,0,1,1,2,2,3,3,4,4,5,5,6,6,7,7,8,8,9,9,10,10,11,11,12,12,13,13,14,14,17,17,18,18,19,19,20,20,21,21,22,22,23,23,24,24,25,25,26,26,27,27,28,28,29,29,30,30],"right_children":[2,4,6,8,10,12,14,16,18,20,22,24,26,28,30,-1,-1,32,34,36,38,40,42,44,46,48,50,52,54,56,58,-1,-1,-1,-1,-1,-1,-1,-1,-1,-1,-1,-1,-1,-1,-1,-1,-1,-1,-1,-1,-1,-1,-1,-1,-1,-1,-1,-1],"split_conditions":[2.5E1,1.545E1,2.12E1,1.057E1,2.082E1,3.178E1,3.507E1,6.62E0,1.44E1,1.84E1,1.67E1,1.0598527E-1,1.294991E-1,2.48E1,1.2070328E2,-6.4165586E-1,-5.431986E-1,1.417E1,5.917216E-1,4.6E0,8.6E0,3.1E0,1.86E1,6E0,1.1390328E2,8.7E0,1.1220328E2,1.0710328E2,2.667E1,3.6363637E-1,2.03E1,-4.4302195E-1,-3.700499E-1,-1.3612805E-1,3.850248E-2,-3.2212266E-1,-1.3542096E-1,-2.3538856E-1,-1.2670317E-1,-1.926228E-1,-3.9957E-2,1.1433703E-1,3.9573509E-1,-9.499502E-2,8.779419E-2,1.4492193E-1,3.6020556E-1,2.0313254E-1,3.9940035E-1,4.8668155E-1,6.853944E-1,3.912337E-1,7.2002894E-1,4.110574E-1,9.902836E-1,2.505724E-1,1.0275239E0,4.8064786E-1,1.3634006E0],"split_indices":[4,4,11,4,4,4,4,4,23,4,12,51,51,12,49,0,0,4,48,19,11,20,11,24,49,24,49,49,4,45,12,0,0,0,0,0,0,0,0,0,0,0,0,0,0,0,0,0,0,0,0,0,0,0,0,0,0,0,0],"split_type":[0,0,0,0,0,0,0,0,0,0,0,0,0,0,0,0,0,0,0,0,0,0,0,0,0,0,0,0,0,0,0,0,0,0,0,0,0,0,0,0,0,0,0,0,0,0,0,0,0,0,0,0,0,0,0,0,0,0,0],"sum_hessian":[8.194948E3,4.5096377E3,3.6853103E3,2.1446543E3,2.3649834E3,2.9743687E3,7.1094165E2,1.3014292E3,8.432251E2,1.280444E3,1.0845393E3,1.7338356E3,1.2405331E3,3.901995E2,3.2074216E2,8.4797955E2,4.534496E2,8.358835E2,7.3415627E0,6.718911E2,6.0855286E2,1.0078739E3,7.666543E1,8.6025104E2,8.7358453E2,5.611008E2,6.794322E2,2.3054964E2,1.5964987E2,2.1966835E2,1.0107381E2,5.7592755E2,2.5995596E2,3.9858098E0,3.3557532E0,6.118397E2,6.0051373E1,3.750014E2,2.3355148E2,3.556149E2,6.5225903E2,3.4535053E1,4.2130375E1,2.4157167E2,6.186794E2,3.7997635E2,4.936082E2,2.1888138E2,3.4221948E2,2.4915092E2,4.3028128E2,5.5175716E1,1.7537392E2,9.279611E0,1.5037025E2,4.8417253E0,2.1482661E2,7.062266E0,9.401154E1],"tree_param":{"num_deleted":"0","num_feature":"54","num_nodes":"59","size_leaf_vector":"1"}},{"base_weights":[-5.846105E-2,-4.7021275E0,6.0125E0,-7.6138597E0,-2.328784E0,4.0034733E0,1.2892409E1,-8.51533E0,-5.997489E0,-3.6311407E0,-8.076352E-1,1.2974615E0,5.7978053E0,1.06297865E1,1.5621329E1,-6.1517376E-1,-7.8891015E0,-6.0312777E0,-1.4261564E0,-4.280777E0,-2.8696227E0,-1.4378482E0,2.107539E0,5.921516E-1,3.951057E0,3.8607123E0,7.5466537E0,8.766031E0,1.3068842E1,6.054054E0,1.5922897E1,-5.28381E-1,-1.3929297E-1,-4.045739E-1,-2.96878E-2,3.6756862E-2,-1.7578559E-1,-2.9899374E-1,-1.4926508E-1,-2.119181E-1,-5.6337137E-2,-1.8155074E-1,-5.6036826E-2,7.399904E-2,3.135497E-1,-7.577672E-2,8.345973E-2,2.0395222E-1,3.737632E-1,1.3797453E-1,3.503692E-1,4.025232E-1,6.077807E-1,3.5979325E-1,6.4201236E-1,5.4118983E-2,8.856204E-1,5.196498E-1,5.0022863E-2,9.1662973E-1,1.2076526E0],"categories":[],"categories_nodes":[],"categories_segments":[],"categories_sizes":[],"default_left":[0,0,1,0,0,0,1,0,0,0,1,0,0,0,0,0,1,1,1,1,1,0,0,0,0,0,0,0,0,0,0,0,0,0,0,0,0,0,0,0,0,0,0,0,0,0,0,0,0,0,0,0,0,0,0,0,0,0,0,0,0],"id":1,"left_children":[1,3,5,7,9,11,13,15,17,19,21,23,25,27,29,-1,31,33,35,37,39,41,43,45,47,49,51,53,55,57,59,-1,-1,-1,-1,-1,-1,-1,-1,-1,-1,-1,-1,-1,-1,-1,-1,-1,-1,-1,-1,-1,-1,-1,-1,-1,-1,-1,-1,-1,-1],"loss_changes":[2.3305217E5,3.2295594E4,4.9316664E4,2.8633438E3,5.1081777E3,1.3456004E4,4.3622344E3,2.9903906E2,7.9791016E1,6.37125E2,2.2109263E3,2.0695217E3,5.538551E3,1.6244258E3,6.635E2,0E0,2.3867188E0,7.838086E1,3.2401917E1,2.5093066E2,3.8477002E2,7.449905E2,5.2900885E2,1.00660925E3,2.7334595E2,1.9386191E3,1.8460391E3,5.603633E2,3.698379E2,1.2492145E2,7.0721094E2,0E0,0E0,0E0,0E0,0E0,0E0,0E0,0E0,0E0,0E0,0E0,0E0,0E0,0E0,0E0,0E0,0E0,0E0,0E0,0E0,0E0,0E0,0E0,0E0,0E0,0E0,0E0,0E0,0E0,0E0],"parents":[2147483647,0,0,1,1,2,2,3,3,4,4,5,5,6,6,7,7,8,8,9,9,10,10,11,11,12,12,13,13,14,14,16,16,17,17,18,18,19,19,20,20,21,21,22,22,23,23,24,24,25,25,26,26,27,27,28,28,29,29,30,30],"right_children":[2,4,6,8,10,12,14,16,18,20,22,24,26,28,30,-1,32,34,36,38,40,42,44,46,48,50,52,54,56,58,60,-1,-1,-1,-1,-1,-1,-1,-1,-1,-1,-1,-1,-1,-1,-1,-1,-1,-1,-1,-1,-1,-1,-1,-1,-1,-1,-1,-1,-1,-1],"split_conditions":[2.547E1,1.515E1,2.02E1,1.057E1,2.095E1,9.333333E0,2.45E1,4.68E0,1.4195328E2,1.84E1,1.4E1,3.303E1,3.178E1,3.468E1,2.817E1,-6.1517376E-1,1.32E1,4E0,1.5135E1,4.6E0,9.7E0,6.1E0,1.96E1,6E0,1.1985328E2,1.1390328E2,1.3333333E1,1.0710328E2,2.3E0,1.0666667E1,1.17303276E2,-5.28381E-1,-1.3929297E-1,-4.045739E-1,-2.96878E-2,3.6756862E-2,-1.7578559E-1,-2.9899374E-1,-1.4926508E-1,-2.119181E-1,-5.6337137E-2,-1.8155074E-1,-5.6036826E-2,7.399904E-2,3.135497E-1,-7.577672E-2,8.345973E-2,2.0395222E-1,3.737632E-1,1.3797453E-1,3.503692E-1,4.025232E-1,6.077807E-1,3.5979325E-1,6.4201236E-1,5.4118983E-2,8.856204E-1,5.196498E-1,5.0022863E-2,9.1662973E-1,1.2076526E0],"split_indices":[4,4,11,4,4,22,12,4,49,4,11,4,4,4,4,0,24,27,8,19,24,24,11,24,49,49,22,49,32,18,49,0,0,0,0,0,0,0,0,0,0,0,0,0,0,0,0,0,0,0,0,0,0,0,0,0,0,0,0,0,0],"split_type":[0,0,0,0,0,0,0,0,0,0,0,0,0,0,0,0,0,0,0,0,0,0,0,0,0,0,0,0,0,0,0,0,0,0,0,0,0,0,0,0,0,0,0,0,0,0,0,0,0,0,0,0,0,0,0,0,0,0,0,0,0],"sum_hessian":[8.259539E3,4.680449E3,3.5790903E3,2.0980525E3,2.5823967E3,2.7747078E3,8.043826E2,1.3365721E3,7.614803E2,1.3882029E3,1.1941938E3,1.1090073E3,1.6657004E3,4.4964896E2,3.5473367E2,6.118437E2,7.247284E2,7.5453436E2,6.9459553E0,7.394136E2,6.4878937E2,9.8370166E2,2.1049214E2,8.799239E2,2.290834E2,7.960904E2,8.696101E2,2.6454022E2,1.8510873E2,1.3270324E1,3.4146335E2,7.21142E2,3.586367E0,7.5106165E2,3.4727046E0,3.0695157E0,3.8764393E0,6.713554E2,6.805819E1,5.6262885E2,8.616053E1,3.0935E2,6.743517E2,1.5574915E2,5.4742992E1,2.4137065E2,6.385532E2,1.5506836E2,7.401503E1,3.5037158E2,4.457188E2,4.4740176E2,4.2220834E2,5.8207695E1,2.0633252E2,3.082749E0,1.8202599E2,8.608573E0,4.6617503E0,1.8177292E2,1.5969043E2],"tree_param":{"num_deleted":"0","num_feature":"54","num_nodes":"61","size_leaf_vector":"1"}},{"base_weights":[4.416454E-3,-4.102779E0,6.127921E0,-6.631469E0,-1.492872E0,4.335064E0,1.2838077E1,-7.96216E0,-5.097388E0,-2.5607424E0,6.0424414E-2,1.9395751E0,6.072305E0,1.1176888E1,1.639579E1,-5.669856E-1,-4.787825E-1,-5.741603E0,-4.4813724E0,-2.777658E0,9.7983617E-1,-1.5065986E0,1.4297446E0,1.1184808E0,4.0947666E0,4.76484E0,8.669733E0,9.257203E0,1.3579266E1,6.1442623E0,1.1190459E0,-3.8666844E-1,-5.798002E-2,-3.294138E-1,-2.510303E-1,-2.2986679E-1,-1.4282094E-1,-6.593313E-2,1.4988136E-1,-1.5322918E-1,-4.649024E-2,6.547174E-2,3.4762493E-1,4.15969E-2,2.2724286E-1,2.1433505E-1,3.761532E-1,1.6573271E-1,3.739168E-1,4.0238503E-1,6.664195E-1,3.9675605E-1,6.765856E-1,6.2636954E-1,9.719029E-1,4.7509006E-1,9.996214E-2],"categories":[],"categories_nodes":[],"categories_segments":[],"categories_sizes":[],"default_left":[0,0,1,0,0,0,0,0,0,1,0,0,0,1,0,0,0,0,0,0,0,0,1,1,0,0,0,0,0,0,0,0,0,0,0,0,0,0,0,0,0,0,0,0,0,0,0,0,0,0,0,0,0,0,0,0,0],"id":2,"left_children":[1,3,5,7,9,11,13,15,17,19,21,23,25,27,29,-1,-1,31,33,35,37,39,41,43,45,47,49,51,53,55,-1,-1,-1,-1,-1,-1,-1,-1,-1,-1,-1,-1,-1,-1,-1,-1,-1,-1,-1,-1,-1,-1,-1,-1,-1,-1,-1],"loss_changes":[2.0631228E5,3.2359086E4,3.9401055E4,4.9283984E3,4.018667E3,1.0788191E4,3.4018672E3,3.1754688E2,3.6047852E2,1.1137686E3,2.1308877E3,1.9255962E3,4.9576406E3,1.7528281E3,3.6383594E2,0E0,0E0,9.50332E1,1.2397363E2,5.418154E2,2.2095999E2,2.8641467E2,8.757024E2,8.963428E2,3.3702637E2,1.8597109E3,1.4917695E3,5.735039E2,3.2120703E2,1.0499542E1,0E0,0E0,0E0,0E0,0E0,0E0,0E0,0E0,0E0,0E0,0E0,0E0,0E0,0E0,0E0,0E0,0E0,0E0,0E0,0E0,0E0,0E0,0E0,0E0,0E0,0E0,0E0],"parents":[2147483647,0,0,1,1,2,2,3,3,4,4,5,5,6,6,7,7,8,8,9,9,10,10,11,11,12,12,13,13,14,14,17,17,18,18,19,19,20,20,21,21,22,22,23,23,24,24,25,25,26,26,27,27,28,28,29,29],"right_children":[2,4,6,8,10,12,14,16,18,20,22,24,26,28,30,-1,-1,32,34,36,38,40,42,44,46,48,50,52,54,56,-1,-1,-1,-1,-1,-1,-1,-1,-1,-1,-1,-1,-1,-1,-1,-1,-1,-1,-1,-1,-1,-1,-1,-1,-1,-1,-1],"split_conditions":[2.632E1,1.69E1,2.12E1,1.057E1,2.265E1,1E1,3.678E1,5.8E0,1.395E1,1.22E1,8E0,3.303E1,3.442E1,2.1352027E-1,1.48E1,-5.669856E-1,-4.787825E-1,1.4195328E2,1.17303276E2,6.858151E-2,1.13053276E2,6.1E0,1.6443008E-1,1.0598527E-1,1.1985328E2,1.13E1,2.3E0,1.0795328E2,1.0965328E2,7.882883E-1,1.1190459E0,-3.8666844E-1,-5.798002E-2,-3.294138E-1,-2.510303E-1,-2.2986679E-1,-1.4282094E-1,-6.593313E-2,1.4988136E-1,-1.5322918E-1,-4.649024E-2,6.547174E-2,3.4762493E-1,4.15969E-2,2.2724286E-1,2.1433505E-1,3.761532E-1,1.6573271E-1,3.739168E-1,4.0238503E-1,6.664195E-1,3.9675605E-1,6.765856E-1,6.2636954E-1,9.719029E-1,4.7509006E-1,9.996214E-2],"split_indices":[4,4,11,4,4,22,4,4,4,23,23,4,4,52,23,0,0,49,49,51,49,24,51,51,49,24,28,49,49,45,0,0,0,0,0,0,0,0,0,0,0,0,0,0,0,0,0,0,0,0,0,0,0,0,0,0,0],"split_type":[0,0,0,0,0,0,0,0,0,0,0,0,0,0,0,0,0,0,0,0,0,0,0,0,0,0,0,0,0,0,0,0,0,0,0,0,0,0,0,0,0,0,0,0,0,0,0,0,0,0,0,0,0,0,0,0,0],"sum_hessian":[8.1958125E3,4.906159E3,3.2896533E3,2.4888281E3,2.417331E3,2.600849E3,6.88804E2,1.3242991E3,1.1645292E3,1.4314823E3,9.858488E2,1.0967539E3,1.5040953E3,4.799662E2,2.0883784E2,7.7913715E2,5.4516187E2,5.5373694E2,6.1079224E2,1.3498381E3,8.164417E1,4.5923618E2,5.266126E2,7.9849194E2,2.98262E2,1.007559E3,4.9653625E2,2.7677835E2,2.0318785E2,9.171857E0,1.9966599E2,5.479087E2,5.828245E0,3.6388916E2,2.4690308E2,6.5543445E2,6.944037E2,3.1937134E1,4.970704E1,2.2922047E2,2.300157E2,4.74774E2,5.183865E1,6.60028E2,1.3846393E2,1.9640092E2,1.0186106E2,2.7262823E2,7.349308E2,1.7057042E2,3.2596585E2,6.3389763E1,2.1338858E2,4.5278847E1,1.5790901E2,5.8358245E0,3.3360322E0],"tree_param":{"num_deleted":"0","num_feature":"54","num_nodes":"57","size_leaf_vector":"1"}},{"base_weights":[3.3835247E-2,-4.0784683E0,5.3579373E0,-6.620173E0,-1.9780601E0,3.610303E0,1.1375311E1,-7.646421E0,-5.419537E0,-3.6274915E0,-1.0560848E0,1.2491803E0,5.0829177E0,9.79074E0,1.4920657E1,-5.4398024E-1,-4.7623605E-1,-5.8577714E0,-4.702277E0,-3.8897145E0,-2.2858562E0,-1.4469463E0,2.5624738E0,6.5252894E-1,3.565419E0,4.036604E0,7.474707E0,6.3804307E0,1.1128286E1,8.421478E0,1.5325368E1,-3.9563644E-1,-1.1555168E-1,-3.2330763E-1,-1.4294638E-1,-2.650216E-1,-4.288481E-2,-2.1022052E-1,-2.032608E-2,-1.5129057E-1,-4.9610812E-2,5.794583E-2,2.9593334E-1,-7.397301E-2,8.910918E-2,1.8502392E-1,3.724575E-1,1.6101697E-1,3.5125765E-1,3.6275986E-1,5.9843796E-1,2.0081192E-1,4.965618E-1,5.8735114E-1,8.4345925E-1,6.258841E-1,1.16736785E-1,1.0334408E0,2.8590533E-1],"categories":[],"categories_nodes":[],"categories_segments":[],"categories_sizes":[],"default_left":[0,0,1,0,0,0,1,0,0,0,1,0,0,0,0,0,0,1,0,1,1,0,0,0,0,0,0,0,0,0,0,0,0,0,0,0,0,0,0,0,0,0,0,0,0,0,0,0,0,0,0,0,0,0,0,0,0,0,0],"id":3,"left_children":[1,3,5,7,9,11,13,15,17,19,21,23,25,27,29,-1,-1,31,33,35,37,39,41,43,45,47,49,51,53,55,57,-1,-1,-1,-1,-1,-1,-1,-1,-1,-1,-1,-1,-1,-1,-1,-1,-1,-1,-1,-1,-1,-1,-1,-1,-1,-1,-1,-1],"loss_changes":[1.7924916E5,2.4603648E4,3.735736E4,2.4102734E3,3.8358232E3,9.603324E3,3.948039E3,6.1765625E1,1.9654102E2,2.808496E2,2.3194658E3,1.4650858E3,4.1458086E3,2.3005586E3,1.4184766E2,0E0,0E0,1.0665234E2,9.071582E1,1.715586E2,2.6176312E2,8.3976514E2,4.8729004E2,1.0296035E3,2.845913E2,2.3158652E3,1.3674844E3,5.0319434E2,9.7547266E2,7.0233154E1,7.891016E1,0E0,0E0,0E0,0E0,0E0,0E0,0E0,0E0,0E0,0E0,0E0,0E0,0E0,0E0,0E0,0E0,0E0,0E0,0E0,0E0,0E0,0E0,0E0,0E0,0E0,0E0,0E0,0E0],"parents":[2147483647,0,0,1,1,2,2,3,3,4,4,5,5,6,6,7,7,8,8,9,9,10,10,11,11,12,12,13,13,14,14,17,17,18,18,19,19,20,20,21,21,22,22,23,23,24,24,25,25,26,26,27,27,28,28,29,29,30,30],"right_children":[2,4,6,8,10,12,14,16,18,20,22,24,26,28,30,-1,-1,32,34,36,38,40,42,44,46,48,50,52,54,56,58,-1,-1,-1,-1,-1,-1,-1,-1,-1,-1,-1,-1,-1,-1,-1,-1,-1,-1,-1,-1,-1,-1,-1,-1,-1,-1,-1,-1],"split_conditions":[2.547E1,1.515E1,1.7610224E-1,8.95E0,1.918E1,9.333333E0,2.2739998E-1,4.27E0,1.298E1,1.25803276E2,1.22E1,3.303E1,3.442E1,3.155E1,1.0285328E2,-5.4398024E-1,-4.7623605E-1,3.3333333E0,1.3260327E2,1.7E1,6E0,8.130889E-2,1.17303276E2,6E0,1.2325328E2,1.1390328E2,2.4E0,1.0795328E2,1.1390328E2,1.02E1,1.3E1,-3.9563644E-1,-1.1555168E-1,-3.2330763E-1,-1.4294638E-1,-2.650216E-1,-4.288481E-2,-2.1022052E-1,-2.032608E-2,-1.5129057E-1,-4.9610812E-2,5.794583E-2,2.9593334E-1,-7.397301E-2,8.910918E-2,1.8502392E-1,3.724575E-1,1.6101697E-1,3.5125765E-1,3.6275986E-1,5.9843796E-1,2.0081192E-1,4.965618E-1,5.8735114E-1,8.4345925E-1,6.258841E-1,1.16736785E-1,1.0334408E0,2.8590533E-1],"split_indices":[4,4,51,4,4,22,52,4,4,49,23,4,4,4,49,0,0,26,49,10,24,52,49,24,49,49,27,49,49,40,19,0,0,0,0,0,0,0,0,0,0,0,0,0,0,0,0,0,0,0,0,0,0,0,0,0,0,0,0],"split_type":[0,0,0,0,0,0,0,0,0,0,0,0,0,0,0,0,0,0,0,0,0,0,0,0,0,0,0,0,0,0,0,0,0,0,0,0,0,0,0,0,0,0,0,0,0,0,0,0,0,0,0,0,0,0,0,0,0,0,0],"sum_hessian":[8.1797227E3,4.615446E3,3.5642769E3,2.0846074E3,2.5308384E3,2.7666965E3,7.9758026E2,1.113009E3,9.715984E2,9.0324207E2,1.6275962E3,1.0655674E3,1.7011293E3,5.608205E2,2.3675981E2,5.434377E2,5.695713E2,5.8615826E2,3.854401E2,7.49208E2,1.5403406E2,1.4711322E3,1.5646405E2,8.5132965E2,2.1423769E2,1.1904799E3,5.1064944E2,1.6408319E2,3.9673727E2,1.864922E1,2.181106E2,5.756978E2,1.0460468E1,3.62702E2,2.27381E1,7.3105804E2,1.8149998E1,1.0560709E2,4.8426956E1,6.7699054E2,7.941416E2,8.5020096E1,7.1443954E1,2.3648703E2,6.1484265E2,1.598729E2,5.4364784E1,5.1485254E2,6.7562726E2,2.2162772E2,2.8902173E2,4.2452644E1,1.21630554E2,1.6446088E2,2.322764E2,1.4933349E1,3.7158709E0,2.1390656E2,4.2040377E0],"tree_param":{"num_deleted":"0","num_feature":"54","num_nodes":"59","size_leaf_vector":"1"}},{"base_weights":[-6.260508E-2,-3.9640682E0,4.756841E0,-6.449991E0,-2.2301044E0,3.0668845E0,1.022584E1,-7.0163116E0,-5.161385E0,-3.1969087E0,-8.347171E-1,1.5049025E0,5.0833597E0,8.500853E0,1.3157873E1,-5.0928426E-1,-4.3729424E-1,-5.221753E0,-1.8272173E0,-3.8212574E0,-2.4983633E0,-1.37336E0,1.5829475E0,-2.2237833E-1,2.3372574E0,3.158941E0,6.5617433E0,7.368305E0,1.1772084E1,1.0863458E1,1.4352386E1,-3.501412E-1,-5.7120714E-2,1.3797732E-2,-1.6267954E-1,-2.665881E-1,-1.347746E-1,-1.7060809E-1,2.082388E-1,-1.4790304E-1,-4.9993467E-2,5.7957113E-2,2.3614125E-1,4.1652653E-2,-8.677898E-2,1.0575854E-1,2.6828462E-1,1.7350627E-1,3.8670275E-1,5.374293E-1,3.5219955E-1,3.4941515E-1,5.54499E-1,3.2733786E-1,8.364131E-1,7.4787515E-1,2.1241981E-1,9.673358E-1,2.7657E-1],"categories":[],"categories_nodes":[],"categories_segments":[],"categories_sizes":[],"default_left":[0,0,1,0,0,0,1,0,1,0,1,0,0,0,0,0,0,1,0,1,1,0,1,0,0,1,1,0,0,0,0,0,0,0,0,0,0,0,0,0,0,0,0,0,0,0,0,0,0,0,0,0,0,0,0,0,0,0,0],"id":4,"left_children":[1,3,5,7,9,11,13,15,17,19,21,23,25,27,29,-1,-1,31,33,35,37,39,41,43,45,47,49,51,53,55,57,-1,-1,-1,-1,-1,-1,-1,-1,-1,-1,-1,-1,-1,-1,-1,-1,-1,-1,-1,-1,-1,-1,-1,-1,-1,-1,-1,-1],"loss_changes":[1.5436897E5,1.9496758E4,3.381854E4,1.2159922E3,3.5999932E3,8.819924E3,3.9504375E3,1.72375E2,7.5899414E1,6.486455E2,1.4422424E3,2.289125E3,3.4013066E3,1.7243555E3,2.7065234E2,0E0,0E0,2.1070312E1,2.4002228E1,2.1526855E2,2.5957275E2,4.6535303E2,2.667165E2,4.7657816E2,1.3301836E3,7.352876E2,1.1511934E3,6.6906836E2,4.5838867E2,1.6516895E2,7.0898438E0,0E0,0E0,0E0,0E0,0E0,0E0,0E0,0E0,0E0,0E0,0E0,0E0,0E0,0E0,0E0,0E0,0E0,0E0,0E0,0E0,0E0,0E0,0E0,0E0,0E0,0E0,0E0,0E0],"parents":[2147483647,0,0,1,1,2,2,3,3,4,4,5,5,6,6,7,7,8,8,9,9,10,10,11,11,12,12,13,13,14,14,17,17,18,18,19,19,20,20,21,21,22,22,23,23,24,24,25,25,26,26,27,27,28,28,29,29,30,30],"right_children":[2,4,6,8,10,12,14,16,18,20,22,24,26,28,30,-1,-1,32,34,36,38,40,42,44,46,48,50,52,54,56,58,-1,-1,-1,-1,-1,-1,-1,-1,-1,-1,-1,-1,-1,-1,-1,-1,-1,-1,-1,-1,-1,-1,-1,-1,-1,-1,-1,-1],"split_conditions":[2.5E1,1.395E1,1.7062812E-1,1.032E1,2.082E1,1.2392491E-1,2.1634626E-1,4.27E0,1.44E1,1.783E1,1.1781952E-1,7.76123E-2,3.122E1,3.71E1,3.388E1,-5.0928426E-1,-4.3729424E-1,4E0,1.3605085E-1,4.2E0,5.7E0,6.4E0,6.6E0,2.2046E1,3.253E1,5E0,4.977778E-1,3.058E1,2.02E1,2.981153E-1,2.6333334E1,-3.501412E-1,-5.7120714E-2,1.3797732E-2,-1.6267954E-1,-2.665881E-1,-1.347746E-1,-1.7060809E-1,2.082388E-1,-1.4790304E-1,-4.9993467E-2,5.7957113E-2,2.3614125E-1,4.1652653E-2,-8.677898E-2,1.0575854E-1,2.6828462E-1,1.7350627E-1,3.8670275E-1,5.374293E-1,3.5219955E-1,3.4941515E-1,5.54499E-1,3.2733786E-1,8.364131E-1,7.4787515E-1,2.1241981E-1,9.673358E-1,2.7657E-1],"split_indices":[4,4,51,4,4,51,52,4,11,4,51,52,4,4,4,0,0,26,50,20,32,23,20,8,4,30,43,4,11,50,22,0,0,0,0,0,0,0,0,0,0,0,0,0,0,0,0,0,0,0,0,0,0,0,0,0,0,0,0],"split_type":[0,0,0,0,0,0,0,0,0,0,0,0,0,0,0,0,0,0,0,0,0,0,0,0,0,0,0,0,0,0,0,0,0,0,0,0,0,0,0,0,0,0,0,0,0,0,0,0,0,0,0,0,0,0,0,0,0,0,0],"sum_hessian":[8.202641E3,4.5335015E3,3.6691394E3,1.8585518E3,2.6749495E3,2.8074487E3,8.616906E2,1.2794196E3,5.791322E2,1.5769663E3,1.0979832E3,1.5858435E3,1.2216052E3,5.5161414E2,3.1007648E2,5.370618E2,7.4235767E2,5.665334E2,1.2598801E1,8.234247E2,7.535416E2,8.995368E2,1.9844643E2,5.161761E2,1.0696674E3,5.3595966E2,6.856456E2,4.1872162E2,1.3289255E2,1.1895535E2,1.9112112E2,5.6335E2,3.1834288E0,3.0774477E0,9.521353E0,7.489275E2,7.449721E1,7.48435E2,5.1066804E0,3.7936752E2,5.2016925E2,1.49363E2,4.9083416E1,2.893877E2,2.2678842E2,7.4291113E2,3.2675623E2,4.4763733E2,8.832234E1,3.1041464E2,3.7523096E2,1.3428688E2,2.8443472E2,1.5772174E1,1.1712038E2,1.1239676E2,6.5585914E0,1.8728444E2,3.8366828E0],"tree_param":{"num_deleted":"0","num_feature":"54","num_nodes":"59","size_leaf_vector":"1"}},{"base_weights":[3.2225203E-2,-3.1933947E0,5.1380205E0,-5.4723253E0,-1.1256723E0,3.5403235E0,1.0077308E1,-6.4433517E0,-4.283848E0,-2.0144558E0,1.2780471E-1,1.3213673E0,4.8958306E0,7.7446694E0,1.1713386E1,-6.744276E0,-5.5646777E0,-4.9385743E0,-3.899834E0,-2.1283197E0,3.420794E0,-7.3976195E-1,1.4485484E0,8.6185646E-1,3.7025738E0,3.8927577E0,6.7885094E0,4.7948756E0,8.914542E0,1.0250963E1,1.4052398E1,-4.5159918E-1,-1.3060088E-1,-3.7395057E-1,-5.19384E-2,-3.3261982E-1,-1.6591332E-3,-3.1410283E-1,-2.4287811E-1,-1.8589285E-1,-9.811303E-2,1.7451771E-3,3.431151E-1,-8.146671E-2,4.5091823E-2,6.566535E-2,3.3123118E-1,-1.0059029E-2,1.17827E-1,1.20255485E-1,3.0175337E-1,1.6097929E-1,3.3405274E-1,3.7103534E-1,5.8190304E-1,6.606961E-2,3.8672906E-1,3.94398E-1,6.6348684E-1,4.2314634E-1,7.473805E-1,5.766227E-1,9.908917E-1],"categories":[],"categories_nodes":[],"categories_segments":[],"categories_sizes":[],"default_left":[0,0,1,0,0,0,0,0,0,1,0,0,0,0,0,1,1,0,0,0,0,0,1,0,0,0,0,0,0,0,0,0,0,0,0,0,0,0,0,0,0,0,0,0,0,0,0,0,0,0,0,0,0,0,0,0,0,0,0,0,0,0,0],"id":5,"left_children":[1,3,5,7,9,11,13,15,17,19,21,23,25,27,29,31,33,35,37,39,41,43,45,47,49,51,53,55,57,59,61,-1,-1,-1,-1,-1,-1,-1,-1,-1,-1,-1,-1,-1,-1,-1,-1,-1,-1,-1,-1,-1,-1,-1,-1,-1,-1,-1,-1,-1,-1,-1,-1],"loss_changes":[1.3589077E5,2.3798156E4,2.506771E4,2.6641875E3,2.9615593E3,7.2480684E3,2.6243281E3,1.9999219E2,1.9631055E2,9.872554E2,1.2704989E3,9.936996E2,2.7424258E3,9.773828E2,9.9528516E2,3.2890625E0,3.0524414E1,6.807129E1,8.026465E1,6.388364E2,1.870903E2,4.568073E2,6.9528625E2,7.1282196E2,1.9304565E2,1.5727598E3,1.0318906E3,3.5897827E2,4.8444922E2,7.886504E2,1.994707E2,0E0,0E0,0E0,0E0,0E0,0E0,0E0,0E0,0E0,0E0,0E0,0E0,0E0,0E0,0E0,0E0,0E0,0E0,0E0,0E0,0E0,0E0,0E0,0E0,0E0,0E0,0E0,0E0,0E0,0E0,0E0,0E0],"parents":[2147483647,0,0,1,1,2,2,3,3,4,4,5,5,6,6,7,7,8,8,9,9,10,10,11,11,12,12,13,13,14,14,15,15,16,16,17,17,18,18,19,19,20,20,21,21,22,22,23,23,24,24,25,25,26,26,27,27,28,28,29,29,30,30],"right_children":[2,4,6,8,10,12,14,16,18,20,22,24,26,28,30,32,34,36,38,40,42,44,46,48,50,52,54,56,58,60,62,-1,-1,-1,-1,-1,-1,-1,-1,-1,-1,-1,-1,-1,-1,-1,-1,-1,-1,-1,-1,-1,-1,-1,-1,-1,-1,-1,-1,-1,-1,-1,-1],"split_conditions":[2.677E1,1.662E1,1.7610224E-1,1.057E1,2.277E1,1.01E1,2.41E1,7.52E0,1.298E1,1.7062812E-1,1.0740663E-1,3.478E1,3.43E1,1.1050328E2,1.1985328E2,4.3333335E0,4.6E0,1.4365327E2,1.0710328E2,1.1560328E2,4E0,1.2240328E2,5.6666665E0,1.1475328E2,1.0965328E2,1.1390328E2,4.2E0,3.058E1,1.49E1,3.2E1,2.2666666E1,-4.5159918E-1,-1.3060088E-1,-3.7395057E-1,-5.19384E-2,-3.3261982E-1,-1.6591332E-3,-3.1410283E-1,-2.4287811E-1,-1.8589285E-1,-9.811303E-2,1.7451771E-3,3.431151E-1,-8.146671E-2,4.5091823E-2,6.566535E-2,3.3123118E-1,-1.0059029E-2,1.17827E-1,1.20255485E-1,3.0175337E-1,1.6097929E-1,3.3405274E-1,3.7103534E-1,5.8190304E-1,6.606961E-2,3.8672906E-1,3.94398E-1,6.6348684E-1,4.2314634E-1,7.473805E-1,5.766227E-1,9.908917E-1],"split_indices":[4,4,51,4,4,24,12,4,4,51,51,4,4,49,49,26,31,49,49,49,26,49,30,49,49,49,31,4,24,4,10,0,0,0,0,0,0,0,0,0,0,0,0,0,0,0,0,0,0,0,0,0,0,0,0,0,0,0,0,0,0,0,0],"split_type":[0,0,0,0,0,0,0,0,0,0,0,0,0,0,0,0,0,0,0,0,0,0,0,0,0,0,0,0,0,0,0,0,0,0,0,0,0,0,0,0,0,0,0,0,0,0,0,0,0,0,0,0,0,0,0,0,0,0,0,0,0,0,0],"sum_hessian":[8.243785E3,5.052807E3,3.190978E3,2.4005833E3,2.6522239E3,2.4159207E3,7.750573E2,1.3118933E3,1.08869E3,1.5510331E3,1.1011909E3,9.1914825E2,1.4967723E3,3.2831653E2,4.4674075E2,9.583898E2,3.5350348E2,3.856669E2,7.0302295E2,1.5215399E3,2.949319E1,6.6513617E2,4.3605472E2,7.7494385E2,1.442044E2,9.858687E2,5.1090366E2,9.87117E1,2.2960483E2,2.8712704E2,1.5961372E2,9.5412573E2,4.264085E0,3.5044397E2,3.0595367E0,3.824374E2,3.2295024E0,1.592897E2,5.437333E2,7.583E2,7.6323987E2,1.1315132E1,1.8178057E1,4.9770407E2,1.6743208E2,3.8925232E2,4.6802406E1,3.658686E2,4.0907526E2,4.6984364E1,9.722005E1,4.2618933E2,5.596794E2,3.1952008E2,1.9138358E2,2.2099447E1,7.661225E1,6.423264E1,1.653722E2,6.077865E1,2.263484E2,2.5583397E1,1.3403032E2],"tree_param":{"num_deleted":"0","num_feature":"54","num_nodes":"63","size_leaf_vector":"1"}},{"base_weights":[4.711232E-2,-3.0073102E0,4.8458543E0,-4.9370713E0,-8.7940145E-1,3.4165711E0,1.0029818E1,-5.8860373E0,-3.6349466E0,-1.3759509E0,1.3520826E0,1.1658362E0,4.617816E0,8.582884E0,1.2655271E1,-4.2695847E-1,-5.187839E0,-3.8437524E0,-2.2385545E0,-2.123276E0,-5.666357E-1,6.371216E-1,3.8812559E0,5.397456E-1,2.9589605E0,3.6323926E0,6.3750935E0,7.344951E0,1.1231414E1,1.0693202E1,1.4422958E1,-3.4931263E-1,-1.1335888E-1,-2.6899534E-1,-1.9100484E-1,-1.5897256E-1,7.5597666E-2,-1.6217676E-1,-5.9326112E-2,-6.826568E-2,4.9152758E-2,8.246242E-2,-8.9051895E-2,5.1350224E-1,1.8532224E-1,-3.908076E-2,9.3768544E-2,3.2047203E-1,1.4767782E-1,1.2501442E-1,2.9447278E-1,2.9980808E-1,4.9570435E-1,4.139933E-1,6.719893E-1,1.465261E-1,7.6387346E-1,7.373522E-1,9.451028E-2,2.2180738E-1,9.772274E-1],"categories":[],"categories_nodes":[],"categories_segments":[],"categories_sizes":[],"default_left":[0,0,1,0,1,0,1,0,1,0,0,0,0,0,0,0,1,0,0,0,0,0,0,0,0,0,0,0,0,0,0,0,0,0,0,0,0,0,0,0,0,0,0,0,0,0,0,0,0,0,0,0,0,0,0,0,0,0,0,0,0],"id":6,"left_children":[1,3,5,7,9,11,13,15,17,19,21,23,25,27,29,-1,31,33,35,37,39,41,43,45,47,49,51,53,55,57,59,-1,-1,-1,-1,-1,-1,-1,-1,-1,-1,-1,-1,-1,-1,-1,-1,-1,-1,-1,-1,-1,-1,-1,-1,-1,-1,-1,-1,-1,-1],"loss_changes":[1.2050518E5,2.0607453E4,2.3555977E4,3.1673672E3,2.6591943E3,6.767256E3,2.2038047E3,4.009453E2,2.895166E2,1.178627E3,7.7720294E2,9.7804285E2,2.740336E3,1.1774883E3,2.389961E2,0E0,5.0054688E1,1.2467578E2,8.41297E1,3.7024512E2,5.6361475E2,4.11903E2,3.144558E2,6.4119336E2,2.6627783E2,1.4054033E3,1.01529297E3,7.603418E2,1.4350977E2,3.3035254E2,5.894922E1,0E0,0E0,0E0,0E0,0E0,0E0,0E0,0E0,0E0,0E0,0E0,0E0,0E0,0E0,0E0,0E0,0E0,0E0,0E0,0E0,0E0,0E0,0E0,0E0,0E0,0E0,0E0,0E0,0E0,0E0],"parents":[2147483647,0,0,1,1,2,2,3,3,4,4,5,5,6,6,7,7,8,8,9,9,10,10,11,11,12,12,13,13,14,14,16,16,17,17,18,18,19,19,20,20,21,21,22,22,23,23,24,24,25,25,26,26,27,27,28,28,29,29,30,30],"right_children":[2,4,6,8,10,12,14,16,18,20,22,24,26,28,30,-1,32,34,36,38,40,42,44,46,48,50,52,54,56,58,60,-1,-1,-1,-1,-1,-1,-1,-1,-1,-1,-1,-1,-1,-1,-1,-1,-1,-1,-1,-1,-1,-1,-1,-1,-1,-1,-1,-1,-1,-1],"split_conditions":[2.677E1,1.757E1,2.12E1,1.2E1,1.16785035E-1,9.333333E0,2.2739998E-1,6.62E0,9.5E0,2.218E1,1.96E1,3.303E1,3.43E1,3.693E1,1.17303276E2,-4.2695847E-1,5.3E0,1.25803276E2,1.52E1,1.2495328E2,1.2240328E2,3.078E1,2.7116667E1,7.859823E-2,2.3603333E1,1.1050328E2,2.3E0,1.2325328E2,9.775328E1,2.5E1,2.838E1,-3.4931263E-1,-1.1335888E-1,-2.6899534E-1,-1.9100484E-1,-1.5897256E-1,7.5597666E-2,-1.6217676E-1,-5.9326112E-2,-6.826568E-2,4.9152758E-2,8.246242E-2,-8.9051895E-2,5.1350224E-1,1.8532224E-1,-3.908076E-2,9.3768544E-2,3.2047203E-1,1.4767782E-1,1.2501442E-1,2.9447278E-1,2.9980808E-1,4.9570435E-1,4.139933E-1,6.719893E-1,1.465261E-1,7.6387346E-1,7.373522E-1,9.451028E-2,2.2180738E-1,9.772274E-1],"split_indices":[4,4,11,4,51,22,52,4,12,4,11,4,4,4,49,0,20,49,23,49,49,7,6,52,6,49,28,49,49,0,4,0,0,0,0,0,0,0,0,0,0,0,0,0,0,0,0,0,0,0,0,0,0,0,0,0,0,0,0,0,0],"split_type":[0,0,0,0,0,0,0,0,0,0,0,0,0,0,0,0,0,0,0,0,0,0,0,0,0,0,0,0,0,0,0,0,0,0,0,0,0,0,0,0,0,0,0,0,0,0,0,0,0,0,0,0,0,0,0,0,0,0,0,0,0],"sum_hessian":[8.214122E3,5.0200107E3,3.1941116E3,2.6298298E3,2.3901807E3,2.5086428E3,6.8546875E2,1.5133977E3,1.1164323E3,1.9566177E3,4.33563E2,8.757398E2,1.632903E3,4.5212448E2,2.3334424E2,8.620834E2,6.513143E2,9.6507983E2,1.5135243E2,1.01358795E3,9.430298E2,3.4184546E2,9.171753E1,6.529924E2,2.2274744E2,1.0536885E3,5.792145E2,3.1767322E2,1.3445126E2,1.2295038E2,1.1039387E2,6.420898E2,9.224488E0,8.049816E2,1.6009818E2,1.4660896E2,4.7434835E0,8.103617E2,2.0322626E2,7.0003845E2,2.429913E2,2.6377267E2,7.80728E1,1.5654299E1,7.606323E1,2.836121E2,3.693803E2,5.8510723E1,1.6423671E2,3.257015E2,7.2798694E2,2.130748E2,3.661397E2,2.3160643E2,8.6066795E1,3.9285307E0,1.3052274E2,1.1784738E2,5.1029983E0,3.157731E0,1.0723613E2],"tree_param":{"num_deleted":"0","num_feature":"54","num_nodes":"61","size_leaf_vector":"1"}},{"base_weights":[3.6626272E-2,-2.7334888E0,4.7279763E0,-4.462976E0,-6.031315E-1,3.3699863E0,9.366058E0,-5.662604E0,-3.4710622E0,-1.7233098E0,1.9061525E-1,1.4830564E0,4.7340565E0,8.284514E0,1.2345638E1,-4.2094782E-1,-5.2990375E0,-3.9337313E0,-2.86503E0,-1.9999439E0,-4.395383E-1,-6.343257E-2,3.9807053E0,-1.9590405E-1,2.011178E0,4.000859E0,6.8686805E0,4.7821207E0,9.067788E0,1.3205057E-1,1.2571268E1,-3.5503703E-1,-5.2892044E-2,-2.7985707E-1,-2.18275E-1,-2.1027857E-1,-1.3253327E-1,-1.7994201E-1,-1.01006515E-1,1.3990962E-2,-1.9267844E-1,-2.8404258E-2,1.3855328E-1,5.5412865E-1,1.492144E-1,-1.4596328E-1,4.572079E-2,1.0344929E-1,2.349182E-1,1.5380152E-1,3.3490452E-1,3.033026E-1,5.3356546E-1,1.8936427E-2,3.846181E-1,4.2176324E-1,6.628338E-1,8.5613674E-1,1.346139E-1],"categories":[],"categories_nodes":[],"categories_segments":[],"categories_sizes":[],"default_left":[0,0,1,0,0,0,0,0,0,0,1,0,0,0,0,0,1,0,1,0,0,0,0,0,0,0,0,0,0,0,0,0,0,0,0,0,0,0,0,0,0,0,0,0,0,0,0,0,0,0,0,0,0,0,0,0,0,0,0],"id":7,"left_children":[1,3,5,7,9,11,13,15,17,19,21,23,25,27,29,-1,31,33,35,37,39,41,43,45,47,49,51,53,55,-1,57,-1,-1,-1,-1,-1,-1,-1,-1,-1,-1,-1,-1,-1,-1,-1,-1,-1,-1,-1,-1,-1,-1,-1,-1,-1,-1,-1,-1],"loss_changes":[1.064382E5,1.8958035E4,1.9025586E4,3.3008984E3,2.058145E3,6.0376035E3,1.8218047E3,1.6379297E2,3.9143164E2,3.3523755E2,1.3101406E3,8.8537915E2,2.0288398E3,1.2420859E3,3.058418E2,0E0,2.9173828E1,9.180176E1,1.4408057E2,2.4775342E2,2.8285846E2,9.857461E2,5.667372E2,4.2839108E2,5.0322314E2,1.7131836E3,7.5048145E2,4.3463477E2,7.338086E2,0E0,3.2278906E2,0E0,0E0,0E0,0E0,0E0,0E0,0E0,0E0,0E0,0E0,0E0,0E0,0E0,0E0,0E0,0E0,0E0,0E0,0E0,0E0,0E0,0E0,0E0,0E0,0E0,0E0,0E0,0E0],"parents":[2147483647,0,0,1,1,2,2,3,3,4,4,5,5,6,6,7,7,8,8,9,9,10,10,11,11,12,12,13,13,14,14,16,16,17,17,18,18,19,19,20,20,21,21,22,22,23,23,24,24,25,25,26,26,27,27,28,28,30,30],"right_children":[2,4,6,8,10,12,14,16,18,20,22,24,26,28,30,-1,32,34,36,38,40,42,44,46,48,50,52,54,56,-1,58,-1,-1,-1,-1,-1,-1,-1,-1,-1,-1,-1,-1,-1,-1,-1,-1,-1,-1,-1,-1,-1,-1,-1,-1,-1,-1,-1,-1],"split_conditions":[2.725E1,1.84E1,2.12E1,1.032E1,8.8E0,1.08E1,3.748E1,3.67E0,1.545E1,1.2495328E2,1.6307034E-1,6.5E0,1.2325328E2,1.0710328E2,2.5E0,-4.2094782E-1,6.7E0,1.2070328E2,7.161636E-2,2.147E1,2.3696667E1,1.2835327E2,2.7003334E1,2.89E1,3.413E1,3.167E1,2E0,3.047E1,1.9480254E-1,1.3205057E-1,5E0,-3.5503703E-1,-5.2892044E-2,-2.7985707E-1,-2.18275E-1,-2.1027857E-1,-1.3253327E-1,-1.7994201E-1,-1.01006515E-1,1.3990962E-2,-1.9267844E-1,-2.8404258E-2,1.3855328E-1,5.5412865E-1,1.492144E-1,-1.4596328E-1,4.572079E-2,1.0344929E-1,2.349182E-1,1.5380152E-1,3.3490452E-1,3.033026E-1,5.3356546E-1,1.8936427E-2,3.846181E-1,4.2176324E-1,6.628338E-1,8.5613674E-1,1.346139E-1],"split_indices":[4,4,11,4,11,24,4,4,4,49,52,24,49,49,28,0,20,49,52,4,6,49,6,4,4,4,26,4,52,0,34,0,0,0,0,0,0,0,0,0,0,0,0,0,0,0,0,0,0,0,0,0,0,0,0,0,0,0,0],"split_type":[0,0,0,0,0,0,0,0,0,0,0,0,0,0,0,0,0,0,0,0,0,0,0,0,0,0,0,0,0,0,0,0,0,0,0,0,0,0,0,0,0,0,0,0,0,0,0,0,0,0,0,0,0,0,0,0,0,0,0],"sum_hessian":[8.182968E3,5.1458105E3,3.0371572E3,2.8376782E3,2.3081323E3,2.3543003E3,6.8285693E2,1.2762012E3,1.561477E3,9.5598145E2,1.3521509E3,9.912985E2,1.3630017E3,5.1128412E2,1.7157278E2,4.4172723E2,8.3447394E2,8.732881E2,6.881889E2,7.842178E2,1.7176369E2,1.2703075E3,8.184343E1,2.3730815E2,7.5399036E2,1.02261774E3,3.403839E2,9.837443E1,4.129097E2,4.497664E0,1.6707512E2,8.31156E2,3.3179548E0,6.1793994E2,2.5534814E2,5.138729E2,1.7431598E2,3.168391E2,4.6737866E2,1.3802423E2,3.373946E1,1.0893167E3,1.8099078E2,1.9542171E1,6.230126E1,7.150406E1,1.658041E2,5.8252893E2,1.7146143E2,3.8603107E2,6.365867E2,1.1637589E2,2.2400803E2,1.8499695E1,7.987473E1,1.0476795E2,3.0814175E2,1.625314E2,4.543705E0],"tree_param":{"num_deleted":"0","num_feature":"54","num_nodes":"59","size_leaf_vector":"1"}},{"base_weights":[1.84023E-2,-2.8837068E0,3.8225064E0,-4.444721E0,-1.1778806E0,2.3378825E0,7.5261555E0,-5.238026E0,-3.4950976E0,-1.3738817E0,3.044567E0,1.4532063E0,4.183218E0,5.27156E0,9.401915E0,-3.902414E-1,-4.8969927E0,-3.5522985E0,-1.2464669E0,-2.4611146E0,-9.621208E-1,-7.173196E-1,3.8993118E0,3.2839945E-1,2.4754963E0,2.9576573E0,5.6293945E0,2.7398999E0,6.404031E0,6.8228755E0,1.0450056E1,-3.2967117E-1,-1.6097549E-1,-2.4994071E-1,-1.872951E-1,-1.3928497E-1,5.605871E-2,-1.7630892E-1,-2.2594528E-3,-1.1540367E-1,-2.7715167E-2,8.738858E-2,-1.3960972E-1,2.9194462E-1,-5.5486813E-2,-6.926397E-2,5.6173556E-2,1.15579896E-1,2.7878004E-1,1.343662E-1,2.6240426E-1,1.950225E-1,4.1418168E-1,-1.855281E-2,2.3242502E-1,3.073808E-1,5.2458006E-1,2.1938135E-1,5.1870996E-1,6.335192E-1,9.4165146E-1],"categories":[],"categories_nodes":[],"categories_segments":[],"categories_sizes":[],"default_left":[0,0,1,0,1,0,0,0,1,0,0,0,0,0,0,0,1,0,1,0,0,0,0,0,0,0,0,0,0,0,0,0,0,0,0,0,0,0,0,0,0,0,0,0,0,0,0,0,0,0,0,0,0,0,0,0,0,0,0,0,0],"id":8,"left_children":[1,3,5,7,9,11,13,15,17,19,21,23,25,27,29,-1,31,33,35,37,39,41,43,45,47,49,51,53,55,57,59,-1,-1,-1,-1,-1,-1,-1,-1,-1,-1,-1,-1,-1,-1,-1,-1,-1,-1,-1,-1,-1,-1,-1,-1,-1,-1,-1,-1,-1,-1],"loss_changes":[9.084332E4,1.2404324E4,1.9507121E4,1.7600625E3,1.8636589E3,4.131343E3,4.107965E3,1.5645703E2,1.2336914E2,9.4572485E2,3.3499963E2,1.9811643E3,1.3904688E3,1.2762803E3,1.2128164E3,0E0,2.6958984E1,1.0894238E2,6.65493E1,2.4820459E2,6.4751794E2,7.0021645E1,1.9916492E2,5.811924E2,1.1121621E3,3.818191E2,5.0042773E2,3.4498474E2,6.971504E2,4.6099805E2,8.5122656E2,0E0,0E0,0E0,0E0,0E0,0E0,0E0,0E0,0E0,0E0,0E0,0E0,0E0,0E0,0E0,0E0,0E0,0E0,0E0,0E0,0E0,0E0,0E0,0E0,0E0,0E0,0E0,0E0,0E0,0E0],"parents":[2147483647,0,0,1,1,2,2,3,3,4,4,5,5,6,6,7,7,8,8,9,9,10,10,11,11,12,12,13,13,14,14,16,16,17,17,18,18,19,19,20,20,21,21,22,22,23,23,24,24,25,25,26,26,27,27,28,28,29,29,30,30],"right_children":[2,4,6,8,10,12,14,16,18,20,22,24,26,28,30,-1,32,34,36,38,40,42,44,46,48,50,52,54,56,58,60,-1,-1,-1,-1,-1,-1,-1,-1,-1,-1,-1,-1,-1,-1,-1,-1,-1,-1,-1,-1,-1,-1,-1,-1,-1,-1,-1,-1,-1,-1],"split_conditions":[2.547E1,1.677E1,1.4666667E1,1.057E1,1.7E1,3.303E1,2.34E1,3.67E0,5.2E0,1.918E1,1.0540328E2,1.0401416E-1,2.4E0,1.1135328E2,3.253E1,-3.902414E-1,5.5E1,1.2410328E2,3E1,1.3260327E2,7.859823E-2,5.910653E-1,9.6E0,6E0,1.21553276E2,1.1560328E2,9E0,3.005E1,3.357E1,1.0795328E2,1.25803276E2,-3.2967117E-1,-1.6097549E-1,-2.4994071E-1,-1.872951E-1,-1.3928497E-1,5.605871E-2,-1.7630892E-1,-2.2594528E-3,-1.1540367E-1,-2.7715167E-2,8.738858E-2,-1.3960972E-1,2.9194462E-1,-5.5486813E-2,-6.926397E-2,5.6173556E-2,1.15579896E-1,2.7878004E-1,1.343662E-1,2.6240426E-1,1.950225E-1,4.1418168E-1,-1.855281E-2,2.3242502E-1,3.073808E-1,5.2458006E-1,2.1938135E-1,5.1870996E-1,6.335192E-1,9.4165146E-1],"split_indices":[4,4,22,4,12,4,12,4,19,4,49,51,27,49,4,0,13,49,13,49,52,46,39,24,49,49,21,4,4,49,49,0,0,0,0,0,0,0,0,0,0,0,0,0,0,0,0,0,0,0,0,0,0,0,0,0,0,0,0,0,0],"split_type":[0,0,0,0,0,0,0,0,0,0,0,0,0,0,0,0,0,0,0,0,0,0,0,0,0,0,0,0,0,0,0,0,0,0,0,0,0,0,0,0,0,0,0,0,0,0,0,0,0,0,0,0,0,0,0,0,0,0,0,0,0],"sum_hessian":[8.221298E3,4.663889E3,3.5574087E3,2.4319817E3,2.2319077E3,2.5438604E3,1.0135484E3,1.3155826E3,1.1163989E3,2.1354553E3,9.645242E1,1.7242386E3,8.1962177E2,4.6679425E2,5.4675415E2,4.540569E2,8.615257E2,1.0862361E3,3.0162893E1,5.809931E2,1.5544622E3,1.7755228E1,7.869719E1,8.2368604E2,9.005526E2,4.4998282E2,3.6963895E2,1.4836382E2,3.1843042E2,1.661207E2,3.8063345E2,8.454085E2,1.611718E1,8.563442E2,2.2989194E2,2.1852428E1,8.310465E0,5.408478E2,4.014536E1,6.445611E2,9.099011E2,6.9527216E0,1.0802506E1,7.203558E1,6.661609E0,2.232157E2,6.0047034E2,6.308802E2,2.6967242E2,2.336534E2,2.1632942E2,6.8163704E1,3.0147525E2,2.9335379E1,1.19028435E2,1.4863326E2,1.6979718E2,3.8438683E1,1.27682014E2,3.109999E2,6.9633545E1],"tree_param":{"num_deleted":"0","num_feature":"54","num_nodes":"61","size_leaf_vector":"1"}},{"base_weights":[-1.4601845E-2,-2.4903889E0,3.9132698E0,-3.9033866E0,-6.899655E-1,2.5745857E0,7.6257052E0,-4.7992973E0,-2.8207393E0,-1.090893E0,1.0465553E0,1.3685588E0,4.090009E0,6.7255664E0,1.0852843E1,-5.204366E0,-4.1912227E0,-2.9293587E0,-1.3116736E0,-1.6347843E0,-4.9434593E-1,-8.742361E-1,1.6094682E0,1.816483E-1,2.044012E0,3.7867286E0,8.887282E0,4.2607455E0,7.700112E0,1.1323965E1,4.93028E0,-3.485149E-1,-5.5881537E-2,-2.8141716E-1,-0E0,-2.1331324E-1,-1.484259E-1,-2.5358854E-2,-1.5130241E-1,-1.436775E-1,-8.134645E-2,-5.997693E-2,5.0367936E-2,-1.0025225E-1,2.2723365E-1,7.0732355E-2,2.445885E-1,2.65868E-1,-2.5197265E-3,9.0394355E-2,2.2487986E-1,1.5507092E-1,3.0644527E-1,1.2881762E-1,6.5389186E-1,2.2376677E-1,4.924974E-1,4.638871E-1,7.0522386E-1,5.059395E-1,8.1986797E-1,4.145682E-1,-1.7531157E-2],"categories":[],"categories_nodes":[],"categories_segments":[],"categories_sizes":[],"default_left":[0,0,1,0,1,0,0,0,1,0,0,0,1,0,0,1,1,0,0,0,0,1,0,0,0,0,0,0,0,0,0,0,0,0,0,0,0,0,0,0,0,0,0,0,0,0,0,0,0,0,0,0,0,0,0,0,0,0,0,0,0,0,0],"id":9,"left_children":[1,3,5,7,9,11,13,15,17,19,21,23,25,27,29,31,33,35,37,39,41,43,45,47,49,51,53,55,57,59,61,-1,-1,-1,-1,-1,-1,-1,-1,-1,-1,-1,-1,-1,-1,-1,-1,-1,-1,-1,-1,-1,-1,-1,-1,-1,-1,-1,-1,-1,-1,-1,-1],"loss_changes":[7.9910305E4,1.2809004E4,1.5707535E4,2.681832E3,1.5505728E3,4.252213E3,2.1585E3,2.9098828E2,1.9302344E2,5.8121484E2,4.5778687E2,1.0460432E3,1.3717793E3,1.4705723E3,2.7605664E2,1.958789E1,4.9370117E1,1.9172852E2,7.7424545E1,1.900083E2,4.3907593E2,2.7528397E2,3.4855676E2,4.0351486E2,7.401394E2,1.1024121E3,2.8651074E2,4.597527E2,7.4149805E2,2.1488867E2,1.4127621E2,0E0,0E0,0E0,0E0,0E0,0E0,0E0,0E0,0E0,0E0,0E0,0E0,0E0,0E0,0E0,0E0,0E0,0E0,0E0,0E0,0E0,0E0,0E0,0E0,0E0,0E0,0E0,0E0,0E0,0E0,0E0,0E0],"parents":[2147483647,0,0,1,1,2,2,3,3,4,4,5,5,6,6,7,7,8,8,9,9,10,10,11,11,12,12,13,13,14,14,15,15,16,16,17,17,18,18,19,19,20,20,21,21,22,22,23,23,24,24,25,25,26,26,27,27,28,28,29,29,30,30],"right_children":[2,4,6,8,10,12,14,16,18,20,22,24,26,28,30,32,34,36,38,40,42,44,46,48,50,52,54,56,58,60,62,-1,-1,-1,-1,-1,-1,-1,-1,-1,-1,-1,-1,-1,-1,-1,-1,-1,-1,-1,-1,-1,-1,-1,-1,-1,-1,-1,-1,-1,-1,-1,-1],"split_conditions":[2.677E1,1.84E1,1.87E1,1.2E1,1.36E1,1.1333333E1,3.797E1,6.95E0,4.6E0,1.1560328E2,2.163E1,3.7E0,2.5333334E1,1.1050328E2,4.5E1,4.3333335E0,1.8319221E-1,1.21553276E2,1.5E1,2.207E1,2.453E1,5.7E0,1.2665328E2,1.3E1,1.1985328E2,1.1220328E2,5.2816904E-1,7.6E0,2.4175803E-1,1.0965328E2,3.5E1,-3.485149E-1,-5.5881537E-2,-2.8141716E-1,-0E0,-2.1331324E-1,-1.484259E-1,-2.5358854E-2,-1.5130241E-1,-1.436775E-1,-8.134645E-2,-5.997693E-2,5.0367936E-2,-1.0025225E-1,2.2723365E-1,7.0732355E-2,2.445885E-1,2.65868E-1,-2.5197265E-3,9.0394355E-2,2.2487986E-1,1.5507092E-1,3.0644527E-1,1.2881762E-1,6.5389186E-1,2.2376677E-1,4.924974E-1,4.638871E-1,7.0522386E-1,5.059395E-1,8.1986797E-1,4.145682E-1,-1.7531157E-2],"split_indices":[4,4,12,4,11,22,4,4,19,49,4,20,10,49,13,26,50,49,0,4,4,32,49,14,49,49,45,32,52,49,9,0,0,0,0,0,0,0,0,0,0,0,0,0,0,0,0,0,0,0,0,0,0,0,0,0,0,0,0,0,0,0,0],"split_type":[0,0,0,0,0,0,0,0,0,0,0,0,0,0,0,0,0,0,0,0,0,0,0,0,0,0,0,0,0,0,0,0,0,0,0,0,0,0,0,0,0,0,0,0,0,0,0,0,0,0,0,0,0,0,0,0,0,0,0,0,0,0,0],"sum_hessian":[8.210249E3,5.0369614E3,3.1732878E3,2.819449E3,2.2175122E3,2.3369797E3,8.363081E2,1.5354816E3,1.2839674E3,1.8031147E3,4.1439746E2,1.3055275E3,1.0314523E3,6.628812E2,1.7342693E2,9.04188E2,6.3129364E2,1.1939761E3,8.999134E1,9.390359E2,8.640789E2,9.30754E1,3.2132205E2,4.7568436E2,8.2984314E2,9.7640656E2,5.5045723E1,1.9362198E2,4.6925922E2,1.5743677E2,1.599015E1,9.0111816E2,3.0698092E0,6.28189E2,3.104575E0,8.610109E2,3.329651E2,4.8547367E1,4.1443977E1,4.1270486E2,5.26331E2,6.5448676E2,2.0959218E2,8.3436516E1,9.6388855E0,2.5794925E2,6.3372795E1,2.2834675E1,4.5284967E2,5.4998737E2,2.7985577E2,3.4966333E2,6.267432E2,7.7084856E0,4.733724E1,1.5573555E2,3.7886425E1,3.807105E2,8.854872E1,3.839594E1,1.19040825E2,1.2426325E1,3.5638258E0],"tree_param":{"num_deleted":"0","num_feature":"54","num_nodes":"63","size_leaf_vector":"1"}},{"base_weights":[1.673146E-2,-1.9974629E0,4.301726E0,-3.5626194E0,-1.694327E-1,3.0331023E0,7.5757575E0,-4.4791794E0,-2.5918167E0,-7.420472E-1,1.4634755E0,1.5126048E0,4.1155396E0,5.6785765E0,9.070692E0,-3.2417437E-1,-3.8565102E0,-2.8339858E0,-1.7450516E0,-1.977651E0,-3.5109338E-1,6.8504924E-1,3.156931E0,5.9384465E-1,2.4182231E0,3.7041254E0,7.442563E0,4.387137E0,8.635536E0,7.6540346E0,1.1062002E1,-2.5934055E-1,-5.7523098E-2,-1.6615956E-1,-2.1838543E-1,-1.6071871E-1,-4.895125E-2,-5.0992716E-2,-1.6135971E-1,-5.93361E-2,2.5039745E-2,8.369504E-2,-6.817678E-2,1.3142082E-1,3.2245985E-1,-1.5825795E-2,1.07232235E-1,9.44793E-2,2.1100086E-1,2.1958679E-1,4.218368E-1,3.264112E-1,6.9363165E-1,2.4654478E-1,4.2397308E-1,3.9268085E-3,5.95047E-1,4.2463487E-1,6.891578E-1,7.525325E-1,1.5498011E-1],"categories":[],"categories_nodes":[],"categories_segments":[],"categories_sizes":[],"default_left":[0,0,1,0,1,0,0,0,1,0,0,0,0,0,0,0,1,1,0,0,0,0,0,0,0,1,0,0,0,0,0,0,0,0,0,0,0,0,0,0,0,0,0,0,0,0,0,0,0,0,0,0,0,0,0,0,0,0,0,0,0],"id":10,"left_children":[1,3,5,7,9,11,13,15,17,19,21,23,25,27,29,-1,31,33,35,37,39,41,43,45,47,49,51,53,55,57,59,-1,-1,-1,-1,-1,-1,-1,-1,-1,-1,-1,-1,-1,-1,-1,-1,-1,-1,-1,-1,-1,-1,-1,-1,-1,-1,-1,-1,-1,-1],"loss_changes":[7.078575E4,1.5955807E4,1.0799246E4,2.6249414E3,2.4131338E3,3.093168E3,1.8688828E3,2.7997852E2,2.787627E2,9.1838477E2,8.7156433E2,6.531207E2,1.4022656E3,1.1163916E3,8.0870703E2,0E0,2.5941406E1,1.3620117E2,2.1563599E2,2.3318884E2,5.691598E2,4.536507E2,3.7520898E2,3.3835736E2,2.752185E2,9.97209E2,6.864829E2,2.3114502E2,2.1201318E2,5.9951465E2,1.6684961E2,0E0,0E0,0E0,0E0,0E0,0E0,0E0,0E0,0E0,0E0,0E0,0E0,0E0,0E0,0E0,0E0,0E0,0E0,0E0,0E0,0E0,0E0,0E0,0E0,0E0,0E0,0E0,0E0,0E0,0E0],"parents":[2147483647,0,0,1,1,2,2,3,3,4,4,5,5,6,6,7,7,8,8,9,9,10,10,11,11,12,12,13,13,14,14,16,16,17,17,18,18,19,19,20,20,21,21,22,22,23,23,24,24,25,25,26,26,27,27,28,28,29,29,30,30],"right_children":[2,4,6,8,10,12,14,16,18,20,22,24,26,28,30,-1,32,34,36,38,40,42,44,46,48,50,52,54,56,58,60,-1,-1,-1,-1,-1,-1,-1,-1,-1,-1,-1,-1,-1,-1,-1,-1,-1,-1,-1,-1,-1,-1,-1,-1,-1,-1,-1,-1,-1,-1],"split_conditions":[2.872E1,1.918E1,1.5666667E1,1.2E1,1E1,1.11E1,2.1074483E-1,7.25E0,8.8E0,7E-1,3.2E0,1.1560328E2,3.848E1,1.2240328E2,1.1900328E2,-3.2417437E-1,5.8E0,1.5526E1,1.1815328E2,1.596E1,2.453E1,3.0884E1,6.3E0,9.78946E-2,1E0,4.1E0,4.6666665E0,3.71E1,1.3333333E1,9E0,4.02E1,-2.5934055E-1,-5.7523098E-2,-1.6615956E-1,-2.1838543E-1,-1.6071871E-1,-4.895125E-2,-5.0992716E-2,-1.6135971E-1,-5.93361E-2,2.5039745E-2,8.369504E-2,-6.817678E-2,1.3142082E-1,3.2245985E-1,-1.5825795E-2,1.07232235E-1,9.44793E-2,2.1100086E-1,2.1958679E-1,4.218368E-1,3.264112E-1,6.9363165E-1,2.4654478E-1,4.2397308E-1,3.9268085E-3,5.95047E-1,4.2463487E-1,6.891578E-1,7.525325E-1,1.5498011E-1],"split_indices":[4,4,22,4,23,24,52,4,11,28,27,49,4,49,49,0,20,7,49,6,4,7,32,52,25,28,30,4,14,29,6,0,0,0,0,0,0,0,0,0,0,0,0,0,0,0,0,0,0,0,0,0,0,0,0,0,0,0,0,0,0],"split_type":[0,0,0,0,0,0,0,0,0,0,0,0,0,0,0,0,0,0,0,0,0,0,0,0,0,0,0,0,0,0,0,0,0,0,0,0,0,0,0,0,0,0,0,0,0,0,0,0,0,0,0,0,0,0,0,0,0,0,0,0,0],"sum_hessian":[8.194032E3,5.575114E3,2.6189182E3,3.0013748E3,2.5737393E3,1.8927769E3,7.261415E2,1.536571E3,1.4648037E3,1.9074283E3,6.6631085E2,7.910995E2,1.1016774E3,3.2796112E2,3.9818036E2,9.461193E2,5.904518E2,1.1315448E3,3.3325894E2,4.543337E2,1.4530946E3,4.6035843E2,2.0595244E2,3.9620874E2,3.9489075E2,9.8750854E2,1.1416885E2,2.3475517E2,9.320593E1,2.4319472E2,1.5498564E2,5.84385E2,6.0667186E0,6.4274396E2,4.8880078E2,1.9819135E2,1.3506758E2,1.23376236E2,3.3095746E2,8.356267E2,6.1746783E2,3.465883E2,1.13770134E2,1.2512103E2,8.083141E1,2.184664E2,1.7774234E2,1.7239473E2,2.22496E2,8.5832263E2,1.2918588E2,6.633792E1,4.7830933E1,1.8108908E2,5.366609E1,3.068202E0,9.013773E1,1.7178983E2,7.140489E1,1.5042532E2,4.560319E0],"tree_param":{"num_deleted":"0","num_feature":"54","num_nodes":"61","size_leaf_vector":"1"}},{"base_weights":[-1.0670312E-2,-2.1074789E0,3.4405663E0,-3.4048028E0,-4.986712E-1,2.4254813E0,7.1908197E0,-4.28404E0,-2.6303961E0,-8.5214084E-1,1.0262359E0,1.1354538E0,3.5097203E0,4.3755803E0,7.9114966E0,-3.1376508E-1,-3.9059246E0,-3.1377633E0,-2.2689886E0,-1.6278627E0,-4.023369E-1,4.8588404E-1,3.5694861E0,-2.8693512E-1,1.5668092E0,2.5385022E0,4.798807E0,5.0845876E0,8.686789E-1,6.839395E0,9.914706E0,-2.0864546E-1,-2.7244228E-1,-2.8817776E-1,-1.9934174E-1,-1.8119207E-1,-1.07967444E-1,-1.5514204E-1,-8.316229E-2,-1.0817987E-1,-2.8741124E-4,6.6829477E-3,1.8073374E-1,4.5527348E-1,1.550115E-1,-6.6845804E-2,5.3082913E-2,8.15045E-2,2.339099E-1,9.10169E-2,2.2661191E-1,3.5643092E-1,1.1880243E-1,3.873904E-1,7.32714E-2,-2.2149388E-1,1.5476072E-1,3.9222643E-1,5.729803E-1,5.449915E-1,8.5989785E-1],"categories":[],"categories_nodes":[],"categories_segments":[],"categories_sizes":[],"default_left":[0,0,1,0,1,0,0,0,0,0,0,0,0,0,0,0,0,0,0,0,0,0,0,0,0,0,1,0,0,0,1,0,0,0,0,0,0,0,0,0,0,0,0,0,0,0,0,0,0,0,0,0,0,0,0,0,0,0,0,0,0],"id":11,"left_children":[1,3,5,7,9,11,13,15,17,19,21,23,25,27,29,-1,31,33,35,37,39,41,43,45,47,49,51,53,55,57,59,-1,-1,-1,-1,-1,-1,-1,-1,-1,-1,-1,-1,-1,-1,-1,-1,-1,-1,-1,-1,-1,-1,-1,-1,-1,-1,-1,-1,-1,-1],"loss_changes":[5.944688E4,1.065617E4,1.174602E4,1.8781055E3,1.235117E3,3.4063477E3,1.200293E3,1.2996875E2,2.4652441E2,6.440394E2,5.8247375E2,6.9256055E2,1.6119551E3,3.3315527E2,8.5525977E2,0E0,4.1757812E1,5.9056152E1,2.3946533E2,1.6695178E2,5.7057104E2,3.0466248E2,2.3668463E2,2.0675221E2,5.597224E2,7.465498E2,8.731094E2,3.046411E2,1.999483E2,3.9417383E2,4.9825E2,0E0,0E0,0E0,0E0,0E0,0E0,0E0,0E0,0E0,0E0,0E0,0E0,0E0,0E0,0E0,0E0,0E0,0E0,0E0,0E0,0E0,0E0,0E0,0E0,0E0,0E0,0E0,0E0,0E0,0E0],"parents":[2147483647,0,0,1,1,2,2,3,3,4,4,5,5,6,6,7,7,8,8,9,9,10,10,11,11,12,12,13,13,14,14,16,16,17,17,18,18,19,19,20,20,21,21,22,22,23,23,24,24,25,25,26,26,27,27,28,28,29,29,30,30],"right_children":[2,4,6,8,10,12,14,16,18,20,22,24,26,28,30,-1,32,34,36,38,40,42,44,46,48,50,52,54,56,58,60,-1,-1,-1,-1,-1,-1,-1,-1,-1,-1,-1,-1,-1,-1,-1,-1,-1,-1,-1,-1,-1,-1,-1,-1,-1,-1,-1,-1,-1,-1],"split_conditions":[2.702E1,1.84E1,2.12E1,1.057E1,1.1781952E-1,1.12E1,3.155E1,4.68E0,1.428E1,1.1135328E2,5.6666665E0,1.0710328E2,3.357E1,2.3E1,1.1985328E2,-3.1376508E-1,8.034E0,2.3E0,1.17303276E2,2.133E1,6.6E0,1.2835327E2,2.7116667E1,1.17E1,3.533E1,1.1390328E2,3.5418E1,3.6896667E1,1.5666667E1,6.4E0,1.9E1,-2.0864546E-1,-2.7244228E-1,-2.8817776E-1,-1.9934174E-1,-1.8119207E-1,-1.07967444E-1,-1.5514204E-1,-8.316229E-2,-1.0817987E-1,-2.8741124E-4,6.6829477E-3,1.8073374E-1,4.5527348E-1,1.550115E-1,-6.6845804E-2,5.3082913E-2,8.15045E-2,2.339099E-1,9.10169E-2,2.2661191E-1,3.5643092E-1,1.1880243E-1,3.873904E-1,7.32714E-2,-2.2149388E-1,1.5476072E-1,3.9222643E-1,5.729803E-1,5.449915E-1,8.5989785E-1],"split_indices":[4,4,11,4,51,24,4,4,4,49,30,49,4,0,49,0,7,24,49,4,12,49,6,12,4,49,7,6,14,28,24,0,0,0,0,0,0,0,0,0,0,0,0,0,0,0,0,0,0,0,0,0,0,0,0,0,0,0,0,0,0],"split_type":[0,0,0,0,0,0,0,0,0,0,0,0,0,0,0,0,0,0,0,0,0,0,0,0,0,0,0,0,0,0,0,0,0,0,0,0,0,0,0,0,0,0,0,0,0,0,0,0,0,0,0,0,0,0,0,0,0,0,0,0,0],"sum_hessian":[8.207701E3,5.1067637E3,3.1009373E3,2.8244854E3,2.282278E3,2.4452903E3,6.556471E2,1.3144427E3,1.5100426E3,1.8546167E3,4.276614E2,1.1204672E3,1.324823E3,1.3912529E2,5.165218E2,6.0896875E2,7.05474E2,6.1548315E2,8.945594E2,6.764259E2,1.1781909E3,3.5659268E2,7.106873E1,2.6048468E2,8.5998254E2,7.621288E2,5.626942E2,1.1414261E2,2.4982672E1,3.4718237E2,1.6933945E2,1.3957425E2,5.658997E2,5.9737125E1,5.5574603E2,5.2586633E2,3.6869305E2,2.334538E2,4.4297208E2,2.871524E2,8.9103845E2,3.0735138E2,4.9241318E1,1.5075044E1,5.5993687E1,1.5765154E2,1.0283316E2,7.3445276E2,1.2552974E2,3.2456985E2,4.3755893E2,4.7549338E2,8.720084E1,9.525514E1,1.8887466E1,5.047608E0,1.9935064E1,2.3312985E2,1.1405251E2,1.1482566E2,5.4513786E1],"tree_param":{"num_deleted":"0","num_feature":"54","num_nodes":"61","size_leaf_vector":"1"}},{"base_weights":[8.969751E-3,-1.7894207E0,3.72458E0,-3.194231E0,-3.1946927E-1,1.9454887E0,5.599588E0,-3.8987648E0,-2.3371427E0,-9.2594844E-1,7.5072885E-1,6.538231E-1,2.642669E0,4.6745696E0,8.023687E0,-2.998711E-1,-3.6333292E0,-2.6761851E0,-1.823444E0,-1.1868114E0,1.4534703E-1,-3.693812E-1,1.4155499E0,1.5698586E0,-4.3434975E-1,3.6293528E0,1.8440435E0,2.9289088E0,5.644594E0,6.779252E0,9.6566515E0,-2.4360685E-1,-0E0,-2.1853426E-1,-1.6120858E-1,-1.3859889E-1,-2.1103967E-2,-6.072409E-2,-1.4987208E-1,-1.8987099E-2,1.6638418E-1,-4.9792167E-2,1.1272531E-1,7.746339E-2,3.0578673E-1,2.1317612E-2,1.7635395E-1,-9.754398E-2,4.6274636E-2,1.8227616E-1,3.714548E-1,8.261709E-2,2.731633E-1,9.573356E-2,2.4080762E-1,3.3222482E-1,5.5289084E-1,4.737218E-1,1.8491577E-1,6.6420656E-1,1.9163373E-1],"categories":[],"categories_nodes":[],"categories_segments":[],"categories_sizes":[],"default_left":[0,0,0,0,0,0,1,0,0,1,0,0,0,0,0,0,1,0,1,0,0,1,1,0,0,1,1,1,0,0,0,0,0,0,0,0,0,0,0,0,0,0,0,0,0,0,0,0,0,0,0,0,0,0,0,0,0,0,0,0,0],"id":12,"left_children":[1,3,5,7,9,11,13,15,17,19,21,23,25,27,29,-1,31,33,35,37,39,41,43,45,47,49,51,53,55,57,59,-1,-1,-1,-1,-1,-1,-1,-1,-1,-1,-1,-1,-1,-1,-1,-1,-1,-1,-1,-1,-1,-1,-1,-1,-1,-1,-1,-1,-1,-1],"loss_changes":[5.4919152E4,1.142868E4,8.895367E3,1.670418E3,1.7619897E3,1.234457E3,2.773496E3,1.7470508E2,2.0208838E2,4.8575098E2,7.340838E2,4.915227E2,6.760405E2,1.5439395E3,4.6742188E2,0E0,4.2745117E1,8.605859E1,1.931759E2,3.990492E2,3.4871915E2,2.8789758E2,4.7564197E2,3.5114313E2,2.6556436E2,6.264243E2,6.621162E2,3.2750024E2,9.1405664E2,1.8432324E2,1.6071191E2,0E0,0E0,0E0,0E0,0E0,0E0,0E0,0E0,0E0,0E0,0E0,0E0,0E0,0E0,0E0,0E0,0E0,0E0,0E0,0E0,0E0,0E0,0E0,0E0,0E0,0E0,0E0,0E0,0E0,0E0],"parents":[2147483647,0,0,1,1,2,2,3,3,4,4,5,5,6,6,7,7,8,8,9,9,10,10,11,11,12,12,13,13,14,14,16,16,17,17,18,18,19,19,20,20,21,21,22,22,23,23,24,24,25,25,26,26,27,27,28,28,29,29,30,30],"right_children":[2,4,6,8,10,12,14,16,18,20,22,24,26,28,30,-1,32,34,36,38,40,42,44,46,48,50,52,54,56,58,60,-1,-1,-1,-1,-1,-1,-1,-1,-1,-1,-1,-1,-1,-1,-1,-1,-1,-1,-1,-1,-1,-1,-1,-1,-1,-1,-1,-1,-1,-1],"split_conditions":[2.862E1,1.84E1,1.3333333E1,1.2E1,1.04887225E-1,9.846089E-2,2.45E1,3.67E0,1.17303276E2,1.05E1,2.355E1,2.4948E1,2.9226667E1,1.1220328E2,1.1900328E2,-2.998711E-1,1.67E1,6E-1,8.3117716E-2,2.4756666E1,1.2665328E2,1.4522858E-1,2.0908265E-1,1.1560328E2,3.228E1,1.12E1,1.71E1,1.7E1,3.772E1,6E0,5E1,-2.4360685E-1,-0E0,-2.1853426E-1,-1.6120858E-1,-1.3859889E-1,-2.1103967E-2,-6.072409E-2,-1.4987208E-1,-1.8987099E-2,1.6638418E-1,-4.9792167E-2,1.1272531E-1,7.746339E-2,3.0578673E-1,2.1317612E-2,1.7635395E-1,-9.754398E-2,4.6274636E-2,1.8227616E-1,3.714548E-1,8.261709E-2,2.731633E-1,9.573356E-2,2.4080762E-1,3.3222482E-1,5.5289084E-1,4.737218E-1,1.8491577E-1,6.6420656E-1,1.9163373E-1],"split_indices":[4,4,22,4,50,52,12,4,49,12,4,8,6,49,49,0,24,28,52,6,49,52,50,49,4,23,12,9,4,33,13,0,0,0,0,0,0,0,0,0,0,0,0,0,0,0,0,0,0,0,0,0,0,0,0,0,0,0,0,0,0],"split_type":[0,0,0,0,0,0,0,0,0,0,0,0,0,0,0,0,0,0,0,0,0,0,0,0,0,0,0,0,0,0,0,0,0,0,0,0,0,0,0,0,0,0,0,0,0,0,0,0,0,0,0,0,0,0,0,0,0,0,0,0,0],"sum_hessian":[8.211309E3,5.534281E3,2.677028E3,2.8273333E3,2.7069475E3,1.3777006E3,1.2993275E3,1.5440925E3,1.2832407E3,1.7286947E3,9.782529E2,4.8589413E2,8.9180646E2,9.4842175E2,3.509058E2,4.611107E2,1.0829818E3,7.6271387E2,5.205268E2,1.3905964E3,3.380982E2,3.644188E2,6.138341E2,2.634272E2,2.2246695E2,3.926479E2,4.9915857E2,3.4432645E2,6.0409534E2,2.1006828E2,1.408375E2,1.079224E3,3.7578695E0,2.2097011E2,5.417438E2,4.4467365E2,7.585316E1,1.1066256E3,2.8397083E2,2.8809036E2,5.0007828E1,3.1047516E2,5.3943638E1,5.726135E2,4.122059E1,1.23965294E2,1.394619E2,1.1637436E2,1.0609259E2,2.7383E2,1.188179E2,3.9749747E2,1.01661125E2,1.10914E2,2.3341245E2,4.8948712E2,1.146082E2,1.922468E2,1.7821487E1,1.3347556E2,7.361935E0],"tree_param":{"num_deleted":"0","num_feature":"54","num_nodes":"61","size_leaf_vector":"1"}},{"base_weights":[-1.4913791E-2,-2.2309716E0,2.5490973E0,-3.463457E0,-1.2635813E0,1.6730877E0,5.988309E0,-3.912921E0,-2.8546093E0,-1.7154953E0,-4.5416453E-1,6.3054127E-1,2.762784E0,5.1504045E0,9.147929E0,-2.838001E-1,-3.658294E0,-1.3094277E0,-2.8993435E0,-1.3670031E0,-2.5477405E0,-6.844437E-1,2.1501882E0,2.3532185E-1,2.345087E0,1.7866919E0,3.9555137E0,3.8318064E0,6.310874E0,7.955219E-1,9.467273E0,-1.2418149E-1,-2.4838059E-1,7.760136E-2,-1.767287E-1,-1.9473788E-1,-0E0,-1.12928785E-1,-2.6983364E-2,-1.8207686E-1,-1.28675895E-2,-8.199057E-3,-9.935914E-2,2.4859457E-1,-0E0,-3.397434E-2,5.9246093E-2,6.5011755E-2,2.2861543E-1,4.6681613E-2,1.5065163E-1,2.4798997E-1,5.951525E-1,1.447205E-1,3.231406E-1,4.4965357E-1,2.1428491E-1,1.7002665E-1,-8.502082E-2,6.6727227E-1,2.1299443E-1],"categories":[],"categories_nodes":[],"categories_segments":[],"categories_sizes":[],"default_left":[0,0,1,0,1,0,0,0,0,1,0,0,0,0,0,0,0,0,1,0,0,0,0,1,1,0,1,0,0,0,0,0,0,0,0,0,0,0,0,0,0,0,0,0,0,0,0,0,0,0,0,0,0,0,0,0,0,0,0,0,0],"id":13,"left_children":[1,3,5,7,9,11,13,15,17,19,21,23,25,27,29,-1,31,33,35,37,39,41,43,45,47,49,51,53,55,57,59,-1,-1,-1,-1,-1,-1,-1,-1,-1,-1,-1,-1,-1,-1,-1,-1,-1,-1,-1,-1,-1,-1,-1,-1,-1,-1,-1,-1,-1,-1],"loss_changes":[4.6777824E4,5.244949E3,1.1454609E4,4.8373047E2,9.0233936E2,3.4519639E3,1.8623652E3,2.9923828E1,4.009131E1,4.4461768E2,5.402744E2,1.0541685E3,1.7015137E3,8.507168E2,3.8192188E2,0E0,3.8129883E1,1.1411301E2,3.177295E1,3.4649072E2,1.883706E2,3.6948682E2,2.4423853E2,6.190133E2,4.144319E2,4.1138965E2,6.7580176E2,4.562754E2,3.3136133E2,4.85757E1,3.62E2,0E0,0E0,0E0,0E0,0E0,0E0,0E0,0E0,0E0,0E0,0E0,0E0,0E0,0E0,0E0,0E0,0E0,0E0,0E0,0E0,0E0,0E0,0E0,0E0,0E0,0E0,0E0,0E0,0E0,0E0],"parents":[2147483647,0,0,1,1,2,2,3,3,4,4,5,5,6,6,7,7,8,8,9,9,10,10,11,11,12,12,13,13,14,14,16,16,17,17,18,18,19,19,20,20,21,21,22,22,23,23,24,24,25,25,26,26,27,27,28,28,29,29,30,30],"right_children":[2,4,6,8,10,12,14,16,18,20,22,24,26,28,30,-1,32,34,36,38,40,42,44,46,48,50,52,54,56,58,60,-1,-1,-1,-1,-1,-1,-1,-1,-1,-1,-1,-1,-1,-1,-1,-1,-1,-1,-1,-1,-1,-1,-1,-1,-1,-1,-1,-1,-1,-1],"split_conditions":[2.453E1,1.428E1,1.49E1,8.65E0,3.1E0,3.047E1,3.797E1,3.67E0,1.52E1,1.7763E1,1.5174063E-1,4.3333335E0,3.5E0,4.4E0,2.8E0,-2.838001E-1,3.722E0,1.232E1,1.4E1,2.133E1,2.8E1,2.4756666E1,3.1851E1,7.8E0,1.1E1,3.9E0,2.8333334E1,3.215E1,3.797E1,1.97E1,4.5E1,-1.2418149E-1,-2.4838059E-1,7.760136E-2,-1.767287E-1,-1.9473788E-1,-0E0,-1.12928785E-1,-2.6983364E-2,-1.8207686E-1,-1.28675895E-2,-8.199057E-3,-9.935914E-2,2.4859457E-1,-0E0,-3.397434E-2,5.9246093E-2,6.5011755E-2,2.2861543E-1,4.6681613E-2,1.5065163E-1,2.4798997E-1,5.951525E-1,1.447205E-1,3.231406E-1,4.4965357E-1,2.1428491E-1,1.7002665E-1,-8.502082E-2,6.6727227E-1,2.1299443E-1],"split_indices":[4,4,24,4,20,4,4,4,15,8,52,30,32,28,32,0,7,5,24,4,1,6,8,23,21,20,10,4,6,12,13,0,0,0,0,0,0,0,0,0,0,0,0,0,0,0,0,0,0,0,0,0,0,0,0,0,0,0,0,0,0],"split_type":[0,0,0,0,0,0,0,0,0,0,0,0,0,0,0,0,0,0,0,0,0,0,0,0,0,0,0,0,0,0,0,0,0,0,0,0,0,0,0,0,0,0,0,0,0,0,0,0,0,0,0,0,0,0,0,0,0,0,0,0,0],"sum_hessian":[8.225447E3,4.4125547E3,3.8128928E3,1.9358607E3,2.476694E3,3.0433733E3,7.6951953E2,1.1014796E3,8.343811E2,1.5859645E3,8.9072955E2,1.5587122E3,1.4846611E3,6.159945E2,1.5352505E2,4.5062793E2,6.508517E2,2.7171068E1,8.0721E2,1.1254373E3,4.6052713E2,8.2116376E2,6.956578E1,1.2705276E3,2.8818454E2,8.2190216E2,6.62759E2,2.9603552E2,3.1995898E2,6.231154E0,1.472939E2,2.4633255E1,6.2621844E2,9.441717E0,1.7729351E1,8.029103E2,4.299757E0,8.4019745E2,2.8523987E2,4.2748532E2,3.3041794E1,4.8613815E2,3.3502563E2,3.8486595E1,3.1079185E1,5.928077E2,6.7772E2,1.3005573E2,1.581288E2,2.5031909E2,5.7158307E2,6.377392E2,2.5019775E1,1.1591512E2,1.8012039E2,2.780529E2,4.190608E1,3.1783438E0,3.0528102E0,1.3397447E2,1.3319428E1],"tree_param":{"num_deleted":"0","num_feature":"54","num_nodes":"61","size_leaf_vector":"1"}},{"base_weights":[2.6556814E-2,-1.1794024E0,3.4945898E0,-2.2893631E0,-1.8788458E-1,1.7536191E0,4.9591184E0,-2.9287252E0,-1.7577356E0,-8.004274E-1,7.0349395E-1,2.208811E-1,2.5145528E0,4.2903333E0,7.2461033E0,-3.0317972E0,-1.6384208E0,-1.9953761E0,-5.227899E-1,-1.3024597E0,2.534903E-1,1.5311141E-1,2.500659E0,-2.7320427E-1,1.530208E0,1.8121742E0,3.7367313E0,3.5754395E0,6.174965E0,5.7910995E0,8.827064E0,-2.0776255E-1,-1.1885189E-1,-1.245953E-1,5.44333E-2,-1.3901779E-1,-2.2945977E-3,-1.1557685E-1,3.949738E-3,-1.504576E-1,-6.382339E-2,-4.2106897E-2,6.5379135E-2,-1.0818883E-1,2.8098382E-2,1.4186758E-1,6.042911E-1,-5.7414774E-2,6.7318015E-2,1.5083635E-1,-5.0046686E-2,1.430949E-1,-2.4984928E-3,1.7779014E-1,3.386456E-1,1.5933013E-1,2.9318982E-1,1.8160637E-1,4.654066E-1,4.1430208E-1,6.729965E-2,6.1111623E-1,1.9806433E-1],"categories":[],"categories_nodes":[],"categories_segments":[],"categories_sizes":[],"default_left":[1,0,0,1,1,0,1,1,1,1,0,0,0,0,0,0,0,0,0,0,0,0,0,0,0,1,0,0,0,0,0,0,0,0,0,0,0,0,0,0,0,0,0,0,0,0,0,0,0,0,0,0,0,0,0,0,0,0,0,0,0,0,0],"id":14,"left_children":[1,3,5,7,9,11,13,15,17,19,21,23,25,27,29,31,33,35,37,39,41,43,45,47,49,51,53,55,57,59,61,-1,-1,-1,-1,-1,-1,-1,-1,-1,-1,-1,-1,-1,-1,-1,-1,-1,-1,-1,-1,-1,-1,-1,-1,-1,-1,-1,-1,-1,-1,-1,-1],"loss_changes":[3.442184E4,6.716246E3,5.3765723E3,9.558164E2,1.7655249E3,1.1338203E3,1.6368223E3,1.5055371E2,4.582036E2,1.01625574E3,1.2984165E3,2.1507329E2,5.293882E2,1.122959E3,3.8696777E2,9.094531E1,6.460559E1,2.178628E2,1.8519809E2,4.1749976E2,4.0009082E2,4.807813E2,6.811747E2,1.8366953E2,1.5832492E2,2.5863184E2,2.7861108E2,5.9498145E2,5.824375E2,2.5065576E2,1.0369141E2,0E0,0E0,0E0,0E0,0E0,0E0,0E0,0E0,0E0,0E0,0E0,0E0,0E0,0E0,0E0,0E0,0E0,0E0,0E0,0E0,0E0,0E0,0E0,0E0,0E0,0E0,0E0,0E0,0E0,0E0,0E0,0E0],"parents":[2147483647,0,0,1,1,2,2,3,3,4,4,5,5,6,6,7,7,8,8,9,9,10,10,11,11,12,12,13,13,14,14,15,15,16,16,17,17,18,18,19,19,20,20,21,21,22,22,23,23,24,24,25,25,26,26,27,27,28,28,29,29,30,30],"right_children":[2,4,6,8,10,12,14,16,18,20,22,24,26,28,30,32,34,36,38,40,42,44,46,48,50,52,54,56,58,60,62,-1,-1,-1,-1,-1,-1,-1,-1,-1,-1,-1,-1,-1,-1,-1,-1,-1,-1,-1,-1,-1,-1,-1,-1,-1,-1,-1,-1,-1,-1,-1,-1],"split_conditions":[1.1333333E1,6E0,1.93E1,3.2E0,9E0,1.1050328E2,2.2739998E-1,1.9E0,8E0,9.6E0,3.6666667E0,3.7E0,1.33E1,1.2325328E2,1.17303276E2,5.10189E-2,1.3345328E2,4.74E1,1.645E1,4E0,1.1390328E2,7.7E0,2E1,2.4E1,7E0,6.072222E-1,1.21553276E2,3.6666667E0,1.42E1,6E0,1.6E1,-2.0776255E-1,-1.1885189E-1,-1.245953E-1,5.44333E-2,-1.3901779E-1,-2.2945977E-3,-1.1557685E-1,3.949738E-3,-1.504576E-1,-6.382339E-2,-4.2106897E-2,6.5379135E-2,-1.0818883E-1,2.8098382E-2,1.4186758E-1,6.042911E-1,-5.7414774E-2,6.7318015E-2,1.5083635E-1,-5.0046686E-2,1.430949E-1,-2.4984928E-3,1.7779014E-1,3.386456E-1,1.5933013E-1,2.9318982E-1,1.8160637E-1,4.654066E-1,4.1430208E-1,6.729965E-2,6.1111623E-1,1.9806433E-1],"split_indices":[22,22,12,23,21,49,52,20,12,12,30,32,24,49,49,50,49,53,5,9,49,12,21,53,29,44,49,26,23,33,17,0,0,0,0,0,0,0,0,0,0,0,0,0,0,0,0,0,0,0,0,0,0,0,0,0,0,0,0,0,0,0,0],"split_type":[0,0,0,0,0,0,0,0,0,0,0,0,0,0,0,0,0,0,0,0,0,0,0,0,0,0,0,0,0,0,0,0,0,0,0,0,0,0,0,0,0,0,0,0,0,0,0,0,0,0,0,0,0,0,0,0,0,0,0,0,0,0,0],"sum_hessian":[8.222621E3,6.1026284E3,2.1199924E3,2.8766387E3,3.2259897E3,9.725206E2,1.1474719E3,1.2977477E3,1.578891E3,1.9129178E3,1.313072E3,3.246104E2,6.479102E2,8.962267E2,2.5124521E2,1.1965271E3,1.0122053E2,1.3215665E3,2.5732455E2,1.2957539E3,6.171639E2,1.00864417E3,3.044278E2,2.372185E2,8.7391914E1,4.176653E2,2.3024489E2,6.577355E2,2.3849118E2,1.3994756E2,1.11297646E2,1.1215669E3,7.49603E1,9.38435E1,7.377029E0,1.2661501E3,5.5416344E1,8.194195E1,1.7538261E2,3.4126984E2,9.5448413E2,2.777303E2,3.3943362E2,1.2934506E2,8.792991E2,2.9247498E2,1.1952828E1,1.640889E2,7.312961E1,6.6612015E1,2.0779898E1,3.545629E2,6.310242E1,1.3367305E2,9.657183E1,2.7275238E2,3.8498312E2,4.7521404E1,1.9096979E2,1.2777575E2,1.2171809E1,1.0351051E2,7.7871284E0],"tree_param":{"num_deleted":"0","num_feature":"54","num_nodes":"63","size_leaf_vector":"1"}},{"base_weights":[-1.8544344E-2,-1.9153241E0,2.311971E0,-3.0721183E0,-1.065497E0,1.4642324E0,4.8087397E0,-3.4750068E0,-2.5358143E0,-1.5529376E0,-3.86206E-1,8.667224E-1,3.4503024E0,4.0398555E0,7.0674133E0,-2.6725733E-1,-3.3244417E0,-2.2233622E0,-2.9811823E0,-1.1123453E0,-1.8587127E0,-7.509836E-1,8.194384E-1,-5.189161E-1,1.2727963E0,2.8040593E0,6.5605154E0,3.0875475E0,6.144453E0,6.286509E-1,7.377077E0,-2.2880433E-1,-1.6933642E-1,-1.6749799E-1,-9.879145E-2,-2.0566948E-1,-6.3123606E-2,-9.777976E-2,-1.5864978E-2,-2.0371547E-1,-1.1236858E-1,-5.5961475E-2,2.8957394E-1,3.1105027E-2,2.3944943E-1,-8.106041E-2,2.2747463E-2,3.303167E-2,1.3630489E-1,9.103707E-2,2.258917E-1,2.3686263E-1,5.9600383E-1,1.4568314E-1,3.3054924E-1,4.2183012E-1,4.3242995E-4,-3.0794144E-2,1.2692453E-1,4.3537408E-1,6.554013E-1],"categories":[],"categories_nodes":[],"categories_segments":[],"categories_sizes":[],"default_left":[0,0,1,0,0,0,0,0,1,0,0,0,0,0,0,0,0,1,1,0,0,1,1,0,0,0,0,0,0,0,0,0,0,0,0,0,0,0,0,0,0,0,0,0,0,0,0,0,0,0,0,0,0,0,0,0,0,0,0,0,0],"id":15,"left_children":[1,3,5,7,9,11,13,15,17,19,21,23,25,27,29,-1,31,33,35,37,39,41,43,45,47,49,51,53,55,57,59,-1,-1,-1,-1,-1,-1,-1,-1,-1,-1,-1,-1,-1,-1,-1,-1,-1,-1,-1,-1,-1,-1,-1,-1,-1,-1,-1,-1,-1,-1],"loss_changes":[3.62953E4,4.4343594E3,7.76591E3,3.7597656E2,8.6204175E2,3.2551333E3,1.5042285E3,3.0148438E1,8.725488E1,1.9452466E2,4.852506E2,1.1979999E3,1.202063E3,1.333335E3,4.37042E2,0E0,3.0503906E1,8.953247E1,5.076709E1,1.9145831E2,1.6483838E2,3.810818E2,2.4073213E2,2.905554E2,9.751582E2,4.2128125E2,6.300708E2,7.844844E2,2.1487695E2,2.4947145E1,2.1476758E2,0E0,0E0,0E0,0E0,0E0,0E0,0E0,0E0,0E0,0E0,0E0,0E0,0E0,0E0,0E0,0E0,0E0,0E0,0E0,0E0,0E0,0E0,0E0,0E0,0E0,0E0,0E0,0E0,0E0,0E0],"parents":[2147483647,0,0,1,1,2,2,3,3,4,4,5,5,6,6,7,7,8,8,9,9,10,10,11,11,12,12,13,13,14,14,16,16,17,17,18,18,19,19,20,20,21,21,22,22,23,23,24,24,25,25,26,26,27,27,28,28,29,29,30,30],"right_children":[2,4,6,8,10,12,14,16,18,20,22,24,26,28,30,-1,32,34,36,38,40,42,44,46,48,50,52,54,56,58,60,-1,-1,-1,-1,-1,-1,-1,-1,-1,-1,-1,-1,-1,-1,-1,-1,-1,-1,-1,-1,-1,-1,-1,-1,-1,-1,-1,-1,-1,-1],"split_conditions":[2.5E1,1.428E1,4.4E0,8.65E0,2.082E1,3.442E1,3.693E1,2.18E0,1.5002E1,1.2E1,1.2410328E2,1.0710328E2,1.8E1,1.21553276E2,2.1E0,-2.6725733E-1,1.3005328E2,3.2830756E-2,5.3E0,1.21553276E2,1.4E1,6.3E0,1.76E1,1.11645006E-1,1.061663E-1,1.0965328E2,3.4E0,7.5E0,4.6E0,5E0,1.2410328E2,-2.2880433E-1,-1.6933642E-1,-1.6749799E-1,-9.879145E-2,-2.0566948E-1,-6.3123606E-2,-9.777976E-2,-1.5864978E-2,-2.0371547E-1,-1.1236858E-1,-5.5961475E-2,2.8957394E-1,3.1105027E-2,2.3944943E-1,-8.106041E-2,2.2747463E-2,3.303167E-2,1.3630489E-1,9.103707E-2,2.258917E-1,2.3686263E-1,5.9600383E-1,1.4568314E-1,3.3054924E-1,4.2183012E-1,4.3242995E-4,-3.0794144E-2,1.2692453E-1,4.3537408E-1,6.554013E-1],"split_indices":[4,4,31,4,4,4,4,4,7,0,49,49,21,49,40,0,49,51,20,49,0,32,11,51,50,49,35,32,35,29,49,0,0,0,0,0,0,0,0,0,0,0,0,0,0,0,0,0,0,0,0,0,0,0,0,0,0,0,0,0,0],"split_type":[0,0,0,0,0,0,0,0,0,0,0,0,0,0,0,0,0,0,0,0,0,0,0,0,0,0,0,0,0,0,0,0,0,0,0,0,0,0,0,0,0,0,0,0,0,0,0,0,0,0,0,0,0,0,0,0,0,0,0,0,0],"sum_hessian":[8.203563E3,4.5232246E3,3.680339E3,1.9111433E3,2.612081E3,2.7520557E3,9.2828345E2,1.0789493E3,8.3219403E2,1.5172548E3,1.0948264E3,2.119956E3,6.320995E2,7.003892E2,2.2789427E2,2.1875325E2,8.601961E2,5.0311072E2,3.290833E2,6.297766E2,8.874781E2,8.421866E2,2.5263983E2,4.7969733E2,1.6402588E3,5.293159E2,1.02783554E2,4.8866748E2,2.1172173E2,1.1104657E1,2.1678961E2,7.525707E2,1.07625404E2,3.575251E2,1.4558565E2,3.1201636E2,1.706694E1,4.4704236E2,1.8273427E2,1.0684569E2,7.806324E2,8.3128143E2,1.0905111E1,2.2801169E2,2.4628136E1,2.6517496E2,2.1452235E2,8.174292E2,8.228296E2,1.5503574E2,3.7428018E2,4.9247078E1,5.3536476E1,3.3394638E2,1.5472108E2,2.058497E2,5.8720155E0,6.809658E0,4.2949986E0,1.701179E2,4.667171E1],"tree_param":{"num_deleted":"0","num_feature":"54","num_nodes":"61","size_leaf_vector":"1"}},{"base_weights":[5.7678435E-2,-1.0104655E0,3.077904E0,-1.9858046E0,-1.3537398E-1,1.839252E0,4.9009924E0,-2.5126948E0,-1.5518872E0,-8.2703E-1,5.119388E-1,5.1178646E-1,2.4689488E0,3.8986866E0,6.6096087E0,-2.5989392E0,-1.3842686E0,-1.7268943E0,-5.355817E-1,-1.3358353E0,1.7455569E-1,5.711806E-2,1.919316E0,2.389128E-1,2.8616931E0,1.9049859E0,4.3566732E0,3.235074E0,6.541191E0,6.8387003E0,7.924767E-1,-1.6664198E-1,-2.2632298E-1,-1.4814746E-1,-3.8771898E-2,-1.2047485E-1,-7.0835976E-3,-6.713839E-2,1.0344975E-1,-1.2807691E-1,-5.2752636E-2,1.2477489E-1,-1.4706982E-2,-2.9463949E-2,4.701076E-2,7.830386E-2,3.2349196E-1,4.2790715E-2,-1.0523191E-1,-1.5620807E-1,2.6102513E-1,-8.0936905E-3,1.4655742E-1,2.3471645E-1,4.296894E-1,1.8099467E-1,3.9311734E-1,4.7865114E-1,1.8268885E-2,3.9789367E-1,5.8125395E-1,2.6886392E-1,-8.111703E-2],"categories":[],"categories_nodes":[],"categories_segments":[],"categories_sizes":[],"default_left":[1,0,0,1,1,0,0,1,1,1,0,0,1,1,0,1,0,0,0,0,0,0,0,0,0,0,0,0,0,1,0,0,0,0,0,0,0,0,0,0,0,0,0,0,0,0,0,0,0,0,0,0,0,0,0,0,0,0,0,0,0,0,0],"id":16,"left_children":[1,3,5,7,9,11,13,15,17,19,21,23,25,27,29,31,33,35,37,39,41,43,45,47,49,51,53,55,57,59,61,-1,-1,-1,-1,-1,-1,-1,-1,-1,-1,-1,-1,-1,-1,-1,-1,-1,-1,-1,-1,-1,-1,-1,-1,-1,-1,-1,-1,-1,-1,-1,-1],"loss_changes":[2.6432865E4,5.1627246E3,4.795002E3,6.361377E2,1.4320892E3,1.0631587E3,1.3753906E3,1.082041E2,2.7541235E2,7.900763E2,1.0549305E3,2.6200354E2,8.871782E2,8.8444336E2,3.910498E2,6.2520996E1,5.9443604E1,1.6261792E2,2.377815E2,3.1760754E2,3.5272394E2,4.0449576E2,8.5326807E2,2.7792474E2,2.663436E2,3.965166E2,2.5222949E2,5.6135547E2,4.0302686E2,2.9371875E2,1.2503453E2,0E0,0E0,0E0,0E0,0E0,0E0,0E0,0E0,0E0,0E0,0E0,0E0,0E0,0E0,0E0,0E0,0E0,0E0,0E0,0E0,0E0,0E0,0E0,0E0,0E0,0E0,0E0,0E0,0E0,0E0,0E0,0E0],"parents":[2147483647,0,0,1,1,2,2,3,3,4,4,5,5,6,6,7,7,8,8,9,9,10,10,11,11,12,12,13,13,14,14,15,15,16,16,17,17,18,18,19,19,20,20,21,21,22,22,23,23,24,24,25,25,26,26,27,27,28,28,29,29,30,30],"right_children":[2,4,6,8,10,12,14,16,18,20,22,24,26,28,30,32,34,36,38,40,42,44,46,48,50,52,54,56,58,60,62,-1,-1,-1,-1,-1,-1,-1,-1,-1,-1,-1,-1,-1,-1,-1,-1,-1,-1,-1,-1,-1,-1,-1,-1,-1,-1,-1,-1,-1,-1,-1,-1],"split_conditions":[1.1333333E1,6E0,1.58E1,3.2E0,8E0,1.1050328E2,1.1985328E2,1.9E0,8.2E0,7.859823E-2,1.2578236E-1,2.06E1,1.596008E-1,2.4175803E-1,3.26E1,1.3772E1,7E-1,4.74E1,3E0,1E0,1.7E1,1.1645328E2,1.4E1,3.458E1,9.945328E1,1.24E1,1.76E1,1E1,6E0,1.9E1,1.2325328E2,-1.6664198E-1,-2.2632298E-1,-1.4814746E-1,-3.8771898E-2,-1.2047485E-1,-7.0835976E-3,-6.713839E-2,1.0344975E-1,-1.2807691E-1,-5.2752636E-2,1.2477489E-1,-1.4706982E-2,-2.9463949E-2,4.701076E-2,7.830386E-2,3.2349196E-1,4.2790715E-2,-1.0523191E-1,-1.5620807E-1,2.6102513E-1,-8.0936905E-3,1.4655742E-1,2.3471645E-1,4.296894E-1,1.8099467E-1,3.9311734E-1,4.7865114E-1,1.8268885E-2,3.9789367E-1,5.8125395E-1,2.6886392E-1,-8.111703E-2],"split_indices":[22,22,23,23,21,49,49,20,12,52,51,11,52,52,15,7,28,53,25,29,5,49,21,6,49,12,53,29,33,24,49,0,0,0,0,0,0,0,0,0,0,0,0,0,0,0,0,0,0,0,0,0,0,0,0,0,0,0,0,0,0,0,0],"split_type":[0,0,0,0,0,0,0,0,0,0,0,0,0,0,0,0,0,0,0,0,0,0,0,0,0,0,0,0,0,0,0,0,0,0,0,0,0,0,0,0,0,0,0,0,0,0,0,0,0,0,0,0,0,0,0,0,0,0,0,0,0,0,0],"sum_hessian":[8.185871E3,6.04874E3,2.137131E3,2.857826E3,3.190914E3,1.2771858E3,8.599452E2,1.2817988E3,1.5760271E3,1.5428584E3,1.6480557E3,4.135294E2,8.6365643E2,5.4984717E2,3.1009802E2,1.1856052E3,9.6193665E1,1.3415297E3,2.3449742E2,1.0229569E3,5.199015E2,1.2489059E3,3.9914984E2,3.7445032E2,3.9079082E1,6.70987E2,1.9266943E2,4.4621188E2,1.0363529E2,2.9757602E2,1.2522016E1,1.0599224E3,1.25682755E2,4.35463E1,5.2647366E1,1.2806748E3,6.0854877E1,1.9332126E2,4.117616E1,4.9076318E2,5.321937E2,9.621213E1,4.2368933E2,7.051924E2,5.4371344E2,3.2210895E2,7.704091E1,3.0895145E2,6.549885E1,5.62931E0,3.344977E1,8.3330894E1,5.876561E2,1.4415138E2,4.851805E1,3.7855576E2,6.765611E1,9.3685036E1,9.950255E0,2.1224257E2,8.533343E1,3.5879662E0,8.93405E0],"tree_param":{"num_deleted":"0","num_feature":"54","num_nodes":"63","size_leaf_vector":"1"}},{"base_weights":[3.3920955E-2,-1.6366993E0,2.18239E0,-2.7359154E0,-8.122861E-1,1.3792101E0,4.239321E0,-3.080718E0,-2.2792094E0,-1.2837367E0,-2.512132E-1,5.322045E-1,2.1112394E0,3.3718722E0,5.792082E0,-2.4195024E-1,-2.9558513E0,-1.9489863E0,-2.7052143E0,-1.6014103E0,-7.0713246E-1,-3.930054E-1,2.8747518E0,-3.1763992E-1,1.142435E0,1.1805435E0,2.8666787E0,2.1022778E0,4.4569225E0,4.0964985E0,6.928177E0,-2.0492202E-1,-1.5695712E-1,-1.4022417E-1,-0E0,-2.2031035E-1,-1.5141557E-1,-9.466575E-2,-1.5122889E-1,-6.5803595E-2,2.6631132E-2,-4.5723293E-2,4.0577203E-2,-1.1139992E-1,2.438062E-1,2.0177014E-2,-8.8198796E-2,6.0311843E-2,2.5091782E-1,1.1155164E-1,-1.4374123E-2,1.0831898E-1,2.2261946E-1,3.0807534E-1,9.259896E-2,5.115508E-2,3.187963E-1,2.909183E-1,-3.2170363E-2,2.3162122E-1,4.9790788E-1],"categories":[],"categories_nodes":[],"categories_segments":[],"categories_sizes":[],"default_left":[0,0,1,0,0,0,0,0,1,0,1,0,0,0,0,0,0,1,0,1,1,0,0,1,1,0,0,0,0,1,0,0,0,0,0,0,0,0,0,0,0,0,0,0,0,0,0,0,0,0,0,0,0,0,0,0,0,0,0,0,0],"id":17,"left_children":[1,3,5,7,9,11,13,15,17,19,21,23,25,27,29,-1,31,33,35,37,39,41,43,45,47,49,51,53,55,57,59,-1,-1,-1,-1,-1,-1,-1,-1,-1,-1,-1,-1,-1,-1,-1,-1,-1,-1,-1,-1,-1,-1,-1,-1,-1,-1,-1,-1,-1,-1],"loss_changes":[2.9512188E4,4.179956E3,5.9158184E3,2.8120312E2,6.979607E2,1.6008291E3,1.2781074E3,3.0108398E1,9.835693E1,2.5696094E2,5.40137E2,6.282431E2,9.6027734E2,8.630996E2,5.72001E2,0E0,3.0876465E1,1.4427063E2,6.320166E1,9.771045E1,1.6096194E2,3.4098682E2,2.0955261E2,3.170458E2,4.2465466E2,4.3159082E2,4.173374E2,5.2719995E2,3.8596924E2,1.8976538E2,2.708828E2,0E0,0E0,0E0,0E0,0E0,0E0,0E0,0E0,0E0,0E0,0E0,0E0,0E0,0E0,0E0,0E0,0E0,0E0,0E0,0E0,0E0,0E0,0E0,0E0,0E0,0E0,0E0,0E0,0E0,0E0],"parents":[2147483647,0,0,1,1,2,2,3,3,4,4,5,5,6,6,7,7,8,8,9,9,10,10,11,11,12,12,13,13,14,14,16,16,17,17,18,18,19,19,20,20,21,21,22,22,23,23,24,24,25,25,26,26,27,27,28,28,29,29,30,30],"right_children":[2,4,6,8,10,12,14,16,18,20,22,24,26,28,30,-1,32,34,36,38,40,42,44,46,48,50,52,54,56,58,60,-1,-1,-1,-1,-1,-1,-1,-1,-1,-1,-1,-1,-1,-1,-1,-1,-1,-1,-1,-1,-1,-1,-1,-1,-1,-1,-1,-1,-1,-1],"split_conditions":[2.547E1,1.46E1,1.4666667E1,8.95E0,2.082E1,3.028E1,1.1985328E2,1.95E0,1.3866E1,1.1900328E2,1.6495477E-1,1.13053276E2,1.13E1,2.34E1,3.313E1,-2.4195024E-1,1.2750328E2,4.2E0,1.19E1,2.3119E1,1.6E0,1.2410328E2,1.0200328E2,2.7003334E1,4.4E0,3.0884E1,1.0965328E2,3.022E1,3.6E0,4.6E0,3E0,-2.0492202E-1,-1.5695712E-1,-1.4022417E-1,-0E0,-2.2031035E-1,-1.5141557E-1,-9.466575E-2,-1.5122889E-1,-6.5803595E-2,2.6631132E-2,-4.5723293E-2,4.0577203E-2,-1.1139992E-1,2.438062E-1,2.0177014E-2,-8.8198796E-2,6.0311843E-2,2.5091782E-1,1.1155164E-1,-1.4374123E-2,1.0831898E-1,2.2261946E-1,3.0807534E-1,9.259896E-2,5.115508E-2,3.187963E-1,2.909183E-1,-3.2170363E-2,2.3162122E-1,4.9790788E-1],"split_indices":[4,4,22,4,4,4,49,4,8,49,52,49,24,12,4,0,49,24,4,8,35,49,49,6,31,7,49,5,31,35,28,0,0,0,0,0,0,0,0,0,0,0,0,0,0,0,0,0,0,0,0,0,0,0,0,0,0,0,0,0,0],"split_type":[0,0,0,0,0,0,0,0,0,0,0,0,0,0,0,0,0,0,0,0,0,0,0,0,0,0,0,0,0,0,0,0,0,0,0,0,0,0,0,0,0,0,0,0,0,0,0,0,0,0,0,0,0,0,0,0,0,0,0,0,0],"sum_hessian":[8.21495E3,4.621638E3,3.593312E3,1.9766007E3,2.6450374E3,2.5889238E3,1.0043883E3,1.1132161E3,8.6338464E2,1.4338378E3,1.2111997E3,1.2037205E3,1.3852032E3,6.521662E2,3.522221E2,1.8870206E2,9.24514E2,4.990257E2,3.6435898E2,9.192617E2,5.1457605E2,1.1619698E3,4.922987E1,5.0314944E2,7.0057104E2,6.2534625E2,7.59857E2,3.058406E2,3.4632556E2,1.4834918E2,2.0387294E2,7.685893E2,1.559247E2,4.6286902E2,3.6156673E1,1.4440317E2,2.1995581E2,7.2842236E2,1.9083937E2,4.1236E2,1.0221607E2,9.016227E2,2.603471E2,6.37115E0,4.2858723E1,3.118833E2,1.9126614E2,6.464199E2,5.4151085E1,4.6318005E2,1.6216617E2,2.1128479E2,5.485722E2,6.3315792E1,2.4252483E2,2.8300863E1,3.180247E2,1.4084845E2,7.500735E0,3.0573977E1,1.7329897E2],"tree_param":{"num_deleted":"0","num_feature":"54","num_nodes":"61","size_leaf_vector":"1"}},{"base_weights":[1.5746623E-2,-1.3550489E0,2.3344088E0,-2.2905037E0,-3.9980525E-1,1.5765848E0,4.300879E0,-2.9075036E0,-1.8380471E0,-9.263559E-1,1.3230743E-1,7.594487E-1,2.412069E0,3.566242E0,6.112859E0,-2.2600955E-1,-2.7665465E0,-2.093704E0,-1.5361283E0,-1.3676989E0,-4.6637708E-1,-8.4579337E-1,5.9815645E-1,-1.15074344E-1,1.4320366E0,1.723362E0,3.5977216E0,1.7737138E0,4.218652E0,6.540704E0,2.4424953E0,-1.8543349E-1,-2.7563095E-2,-1.223389E-1,-1.6963421E-1,-1.2734313E-1,-7.2461985E-2,-8.238956E-2,-1.8914826E-1,-4.3886032E-2,6.446852E-2,1.7434435E-2,-1.08855955E-1,8.678344E-3,1.1462836E-1,-3.0214995E-2,1.0217995E-1,6.716405E-2,2.003525E-1,1.401609E-1,-2.018502E-3,1.772259E-1,3.7041888E-1,1.9685736E-1,4.206992E-2,4.6038523E-1,2.510885E-1,-4.460018E-2,4.55008E-1,3.7563775E-2,3.1789726E-1],"categories":[],"categories_nodes":[],"categories_segments":[],"categories_sizes":[],"default_left":[0,0,1,0,0,0,0,0,0,0,0,0,0,0,0,0,1,1,0,1,1,0,0,0,1,1,0,0,0,0,0,0,0,0,0,0,0,0,0,0,0,0,0,0,0,0,0,0,0,0,0,0,0,0,0,0,0,0,0,0,0],"id":18,"left_children":[1,3,5,7,9,11,13,15,17,19,21,23,25,27,29,-1,31,33,35,37,39,41,43,45,47,49,51,53,55,57,59,-1,-1,-1,-1,-1,-1,-1,-1,-1,-1,-1,-1,-1,-1,-1,-1,-1,-1,-1,-1,-1,-1,-1,-1,-1,-1,-1,-1,-1,-1],"loss_changes":[2.603277E4,4.5933154E3,4.5049414E3,7.016279E2,7.1608704E2,1.4941421E3,1.0352861E3,3.3183594E1,1.014043E2,2.565304E2,5.808416E2,6.603555E2,8.5992334E2,6.8007715E2,3.0725098E2,0E0,9.155762E0,7.3227295E1,1.0773572E2,1.12115234E2,1.7495555E2,3.5897495E2,4.4932028E2,2.7262415E2,4.089713E2,4.5785474E2,6.66437E2,2.1686194E2,4.4318896E2,4.288789E2,1.1948369E2,0E0,0E0,0E0,0E0,0E0,0E0,0E0,0E0,0E0,0E0,0E0,0E0,0E0,0E0,0E0,0E0,0E0,0E0,0E0,0E0,0E0,0E0,0E0,0E0,0E0,0E0,0E0,0E0,0E0,0E0],"parents":[2147483647,0,0,1,1,2,2,3,3,4,4,5,5,6,6,7,7,8,8,9,9,10,10,11,11,12,12,13,13,14,14,16,16,17,17,18,18,19,19,20,20,21,21,22,22,23,23,24,24,25,25,26,26,27,27,28,28,29,29,30,30],"right_children":[2,4,6,8,10,12,14,16,18,20,22,24,26,28,30,-1,32,34,36,38,40,42,44,46,48,50,52,54,56,58,60,-1,-1,-1,-1,-1,-1,-1,-1,-1,-1,-1,-1,-1,-1,-1,-1,-1,-1,-1,-1,-1,-1,-1,-1,-1,-1,-1,-1,-1,-1],"split_conditions":[2.725E1,1.747E1,1.596008E-1,8.65E0,2.252E1,1.1E1,2.2739998E-1,2.18E0,1.417E1,1.1560328E2,7.3E0,1.1390328E2,3.413E1,1.1050328E2,1.2333333E1,-2.2600955E-1,8E0,1.4822E1,7.458002E-2,2.8896667E1,1.1E1,1.9596E1,1.21553276E2,2.5E1,1.1883194E-1,3.1462E1,1.5666667E1,1.4E1,2.887E1,1.67E1,6.830601E-1,-1.8543349E-1,-2.7563095E-2,-1.223389E-1,-1.6963421E-1,-1.2734313E-1,-7.2461985E-2,-8.238956E-2,-1.8914826E-1,-4.3886032E-2,6.446852E-2,1.7434435E-2,-1.08855955E-1,8.678344E-3,1.1462836E-1,-3.0214995E-2,1.0217995E-1,6.716405E-2,2.003525E-1,1.401609E-1,-2.018502E-3,1.772259E-1,3.7041888E-1,1.9685736E-1,4.206992E-2,4.6038523E-1,2.510885E-1,-4.460018E-2,4.55008E-1,3.7563775E-2,3.1789726E-1],"split_indices":[4,4,52,4,4,21,52,4,4,49,24,49,4,49,18,0,29,8,52,6,22,7,49,0,50,8,22,1,5,24,45,0,0,0,0,0,0,0,0,0,0,0,0,0,0,0,0,0,0,0,0,0,0,0,0,0,0,0,0,0,0],"split_type":[0,0,0,0,0,0,0,0,0,0,0,0,0,0,0,0,0,0,0,0,0,0,0,0,0,0,0,0,0,0,0,0,0,0,0,0,0,0,0,0,0,0,0,0,0,0,0,0,0,0,0,0,0,0,0,0,0,0,0,0,0],"sum_hessian":[8.182972E3,5.1433213E3,3.0396506E3,2.5955059E3,2.5478157E3,2.1991692E3,8.4048157E2,1.0888641E3,1.5066417E3,1.2801688E3,1.2676469E3,1.1158749E3,1.0832943E3,6.0605206E2,2.3442949E2,2.288327E2,8.6003143E2,8.024462E2,7.0419543E2,6.485951E2,6.315738E2,4.073449E2,8.603019E2,4.8579086E2,6.3008405E2,6.913911E2,3.9190317E2,1.6570995E2,4.403421E2,2.0718234E2,2.7247143E1,8.5604034E2,3.9910476E0,5.170467E2,2.8539957E2,3.799255E2,3.2426996E2,6.005322E2,4.8062885E1,5.597776E2,7.179618E1,1.6927434E2,2.3807059E2,6.0962756E2,2.5067432E2,4.058121E2,7.997878E1,5.0021564E2,1.2986838E2,5.6976666E2,1.216245E2,2.6975574E2,1.2214743E2,7.863209E1,8.707786E1,5.717158E1,3.8317053E2,7.090214E0,2.0009213E2,1.7746714E1,9.500429E0],"tree_param":{"num_deleted":"0","num_feature":"54","num_nodes":"61","size_leaf_vector":"1"}},{"base_weights":[3.7758064E-2,-1.133882E0,2.4203618E0,-2.0851183E0,-1.1691973E-1,1.6853437E0,4.365902E0,-2.6323848E0,-1.6023976E0,-2.6953813E-1,1.6310337E0,1.3038647E0,3.1033607E0,3.2300658E0,5.5366783E0,-1.9908997E-1,-2.4394507E0,-1.1646565E0,-1.8200083E0,-9.9868566E-1,4.336314E-2,3.281512E0,4.1302308E-1,6.584483E-1,2.0394275E0,1.3751129E0,3.6872404E0,2.7192625E-1,3.7779806E0,4.8720884E0,7.809281E0,-1.6815375E-1,-1.03746116E-1,-1.0907869E-1,-8.773744E-3,-1.320843E-1,-5.9850764E-2,-5.4082856E-2,-1.4780863E-1,-2.7080445E-2,3.970671E-2,1.8335624E-2,3.1727472E-1,-2.5333444E-2,1.360621E-1,1.445587E-1,2.1004088E-2,1.7669223E-1,4.8535712E-2,-1.8872073E-2,1.4882836E-1,2.704949E-1,3.9496E-2,8.340115E-2,-1.196223E-1,1.9688062E-1,3.4305078E-1,3.4498134E-1,1.3156442E-1,5.570359E-1,-0E0],"categories":[],"categories_nodes":[],"categories_segments":[],"categories_sizes":[],"default_left":[0,0,1,0,1,0,0,0,0,0,0,0,0,0,1,0,0,1,1,1,1,0,0,0,1,0,1,0,0,1,0,0,0,0,0,0,0,0,0,0,0,0,0,0,0,0,0,0,0,0,0,0,0,0,0,0,0,0,0,0,0],"id":19,"left_children":[1,3,5,7,9,11,13,15,17,19,21,23,25,27,29,-1,31,33,35,37,39,41,43,45,47,49,51,53,55,57,59,-1,-1,-1,-1,-1,-1,-1,-1,-1,-1,-1,-1,-1,-1,-1,-1,-1,-1,-1,-1,-1,-1,-1,-1,-1,-1,-1,-1,-1,-1],"loss_changes":[2.2891172E4,5.314155E3,3.8331475E3,7.306992E2,7.100952E2,1.045793E3,9.0892773E2,5.6960938E1,1.3410645E2,5.6022864E2,4.2104645E2,7.32074E2,3.9458398E2,6.147529E2,3.9093945E2,0E0,4.119287E1,2.4671313E2,1.3629248E2,1.5994427E2,4.253411E2,3.8654297E2,1.6819604E2,4.2792496E2,5.6568994E2,1.6054561E2,3.2910254E2,1.3673401E2,3.020791E2,1.978833E2,3.1448535E2,0E0,0E0,0E0,0E0,0E0,0E0,0E0,0E0,0E0,0E0,0E0,0E0,0E0,0E0,0E0,0E0,0E0,0E0,0E0,0E0,0E0,0E0,0E0,0E0,0E0,0E0,0E0,0E0,0E0,0E0],"parents":[2147483647,0,0,1,1,2,2,3,3,4,4,5,5,6,6,7,7,8,8,9,9,10,10,11,11,12,12,13,13,14,14,16,16,17,17,18,18,19,19,20,20,21,21,22,22,23,23,24,24,25,25,26,26,27,27,28,28,29,29,30,30],"right_children":[2,4,6,8,10,12,14,16,18,20,22,24,26,28,30,-1,32,34,36,38,40,42,44,46,48,50,52,54,56,58,60,-1,-1,-1,-1,-1,-1,-1,-1,-1,-1,-1,-1,-1,-1,-1,-1,-1,-1,-1,-1,-1,-1,-1,-1,-1,-1,-1,-1,-1,-1],"split_conditions":[2.838E1,1.84E1,1.54E1,1.057E1,3.4E0,3.6E1,1.1645328E2,3.67E0,1.485E1,1.0965328E2,2.8063334E1,1.2416197E-1,1.0965328E2,3.143E1,2.01E1,-1.9908997E-1,1.3175328E2,3.6E0,1.1E1,2.9333334E1,6.9E0,1.04E1,1.7333334E1,2.1683332E1,2.2E0,1.7E0,6.154794E-1,2.8E1,3.693E1,8.9E0,6.4E-1,-1.6815375E-1,-1.03746116E-1,-1.0907869E-1,-8.773744E-3,-1.320843E-1,-5.9850764E-2,-5.4082856E-2,-1.4780863E-1,-2.7080445E-2,3.970671E-2,1.8335624E-2,3.1727472E-1,-2.5333444E-2,1.360621E-1,1.445587E-1,2.1004088E-2,1.7669223E-1,4.8535712E-2,-1.8872073E-2,1.4882836E-1,2.704949E-1,3.9496E-2,8.340115E-2,-1.196223E-1,1.9688062E-1,3.4305078E-1,3.4498134E-1,1.3156442E-1,5.570359E-1,-0E0],"split_indices":[4,4,23,4,27,4,49,4,6,49,6,50,49,4,24,0,49,23,11,6,24,23,22,6,35,28,44,14,4,40,43,0,0,0,0,0,0,0,0,0,0,0,0,0,0,0,0,0,0,0,0,0,0,0,0,0,0,0,0,0,0],"split_type":[0,0,0,0,0,0,0,0,0,0,0,0,0,0,0,0,0,0,0,0,0,0,0,0,0,0,0,0,0,0,0,0,0,0,0,0,0,0,0,0,0,0,0,0,0,0,0,0,0,0,0,0,0,0,0,0,0,0,0,0,0],"sum_hessian":[8.192524E3,5.4928955E3,2.699629E3,2.8357043E3,2.6571912E3,1.964649E3,7.3498E2,1.3205002E3,1.5152042E3,2.4471428E3,2.1004834E2,1.5541757E3,4.1047333E2,3.803866E2,3.5459338E2,4.5173462E2,8.687656E2,5.122451E2,1.0029591E3,7.3336414E2,1.7137788E3,8.624681E1,1.2380154E2,8.321721E2,7.220036E2,1.0714446E2,3.0332886E2,6.05692E1,3.1981738E2,2.8349982E2,7.1093575E1,7.925805E2,7.6185074E1,3.5060458E2,1.6164055E2,8.534532E2,1.4950597E2,6.402063E2,9.315782E1,9.440776E2,7.697012E2,2.9889297E1,5.635751E1,8.465865E1,3.914288E1,1.508334E2,6.8133875E2,4.9142215E2,2.3058144E2,3.6805485E1,7.033898E1,2.704472E2,3.2881645E1,4.239914E1,1.8170057E1,2.0570773E2,1.1410966E2,2.5490594E2,2.859386E1,6.649533E1,4.5982466E0],"tree_param":{"num_deleted":"0","num_feature":"54","num_nodes":"61","size_leaf_vector":"1"}},{"base_weights":[-7.315893E-3,-8.286975E-1,2.3097785E0,-1.6155297E0,-1.2395962E-1,1.5906851E0,4.1923914E0,-2.0429926E0,-1.258395E0,-1.7575137E-1,6.8496943E0,3.8533926E-1,2.1357226E0,3.5944493E0,6.3455644E0,-2.5130594E0,-1.89741E0,-1.3637028E0,1.51928235E-2,-3.6689276E-1,1.3492761E0,1.7839609E0,8.922695E0,7.3409814E-1,-9.461074E-1,1.7523364E0,3.6611257E0,1.0634485E0,3.9642606E0,6.699679E0,8.466873E-1,-1.7182656E-1,-0E0,-1.28791E-1,4.602975E-2,-1.2470702E-1,-7.6207474E-2,-1.2563214E-1,4.272003E-2,-6.671679E-2,-2.3101354E-3,1.5325195E-1,4.5381445E-2,2.400118E-1,-7.1081296E-2,1.1098985E-1,6.768619E-1,-1.0849735E-1,6.270369E-2,-8.699679E-2,2.7259654E-1,2.2974837E-1,9.945783E-2,3.7108958E-1,1.945216E-1,1.9509664E-3,2.6953518E-1,2.1368128E-1,3.8284165E-1,6.0579095E-2,4.6025458E-1,-3.9661918E-2,1.4292891E-1],"categories":[],"categories_nodes":[],"categories_segments":[],"categories_sizes":[],"default_left":[1,0,0,1,1,0,0,0,1,1,0,0,1,0,0,1,0,0,0,0,1,0,0,0,0,0,1,1,0,0,0,0,0,0,0,0,0,0,0,0,0,0,0,0,0,0,0,0,0,0,0,0,0,0,0,0,0,0,0,0,0,0,0],"id":20,"left_children":[1,3,5,7,9,11,13,15,17,19,21,23,25,27,29,31,33,35,37,39,41,43,45,47,49,51,53,55,57,59,61,-1,-1,-1,-1,-1,-1,-1,-1,-1,-1,-1,-1,-1,-1,-1,-1,-1,-1,-1,-1,-1,-1,-1,-1,-1,-1,-1,-1,-1,-1,-1,-1],"loss_changes":[1.5748292E4,3.3855552E3,2.9017764E3,4.280415E2,1.1636309E3,1.028065E3,6.7499805E2,6.7862305E1,2.1368237E2,9.358137E2,1.8133557E2,2.32082E2,6.0425586E2,4.2455518E2,2.1444482E2,4.2439453E1,8.3802246E1,1.5352686E2,1.49504E2,5.976425E2,2.175921E2,7.5766174E1,6.600708E1,1.9480751E2,2.0186084E2,3.649568E2,2.3631128E2,1.9788579E2,4.8366553E2,9.5756836E1,2.8124199E1,0E0,0E0,0E0,0E0,0E0,0E0,0E0,0E0,0E0,0E0,0E0,0E0,0E0,0E0,0E0,0E0,0E0,0E0,0E0,0E0,0E0,0E0,0E0,0E0,0E0,0E0,0E0,0E0,0E0,0E0,0E0,0E0],"parents":[2147483647,0,0,1,1,2,2,3,3,4,4,5,5,6,6,7,7,8,8,9,9,10,10,11,11,12,12,13,13,14,14,15,15,16,16,17,17,18,18,19,19,20,20,21,21,22,22,23,23,24,24,25,25,26,26,27,27,28,28,29,29,30,30],"right_children":[2,4,6,8,10,12,14,16,18,20,22,24,26,28,30,32,34,36,38,40,42,44,46,48,50,52,54,56,58,60,62,-1,-1,-1,-1,-1,-1,-1,-1,-1,-1,-1,-1,-1,-1,-1,-1,-1,-1,-1,-1,-1,-1,-1,-1,-1,-1,-1,-1,-1,-1,-1,-1],"split_conditions":[1.1333333E1,6E0,2.0331335E-1,3.2E0,2E1,1.1050328E2,1.2495328E2,1.6E0,7.972975E-2,1.2017354E-1,4E0,3.4923332E1,2.01E1,1.5333333E1,3.1E1,5.2E1,6.8E1,3.3333334E-1,1.2E0,1.1135328E2,5.536111E-1,3E0,1.24E2,1.18E1,9.4E0,4.032258E-1,5.0679916E-1,6.295033E-1,8.7E0,2.1E1,7E0,-1.7182656E-1,-0E0,-1.28791E-1,4.602975E-2,-1.2470702E-1,-7.6207474E-2,-1.2563214E-1,4.272003E-2,-6.671679E-2,-2.3101354E-3,1.5325195E-1,4.5381445E-2,2.400118E-1,-7.1081296E-2,1.1098985E-1,6.768619E-1,-1.0849735E-1,6.270369E-2,-8.699679E-2,2.7259654E-1,2.2974837E-1,9.945783E-2,3.7108958E-1,1.945216E-1,1.9509664E-3,2.6953518E-1,2.1368128E-1,3.8284165E-1,6.0579095E-2,4.6025458E-1,-3.9661918E-2,1.4292891E-1],"split_indices":[22,22,51,23,21,49,49,23,52,52,25,6,12,22,14,13,53,26,31,49,44,33,2,11,39,45,44,48,32,12,29,0,0,0,0,0,0,0,0,0,0,0,0,0,0,0,0,0,0,0,0,0,0,0,0,0,0,0,0,0,0,0,0],"split_type":[0,0,0,0,0,0,0,0,0,0,0,0,0,0,0,0,0,0,0,0,0,0,0,0,0,0,0,0,0,0,0,0,0,0,0,0,0,0,0,0,0,0,0,0,0,0,0,0,0,0,0,0,0,0,0,0,0,0,0,0,0,0,0],"sum_hessian":[8.26805E3,6.106216E3,2.1618337E3,2.8822063E3,3.2240095E3,1.5695255E3,5.9230817E2,1.3029106E3,1.5792957E3,3.203884E3,2.0125309E1,4.9120093E2,1.0783246E3,4.7149118E2,1.20817E2,2.92597E2,1.01031366E3,1.4591503E3,1.2014542E2,2.8500552E3,3.53829E2,7.9366407E0,1.2188668E1,3.9110785E2,1.000931E2,8.684667E2,2.0985796E2,6.223205E1,4.0925912E2,1.1259864E2,8.218367E0,2.8581406E2,6.7829E0,1.0001385E3,1.0175182E1,4.397051E2,1.0194451E3,2.7572166E1,9.257325E1,9.793104E2,1.8707448E3,1.4268692E2,2.1114209E2,4.4850535E0,3.4515874E0,3.07506E0,9.113608E0,2.8780333E1,3.623275E2,9.616399E1,3.9291184E0,1.1128746E2,7.571792E2,5.2667446E1,1.571905E2,4.911108E1,1.31209755E1,2.927264E2,1.1653271E2,4.3459063E0,1.0825273E2,4.456861E0,3.761506E0],"tree_param":{"num_deleted":"0","num_feature":"54","num_nodes":"63","size_leaf_vector":"1"}},{"base_weights":[1.4028095E-2,-9.183485E-1,1.8524252E0,-1.261158E0,1.2183478E-1,7.79788E-1,2.9968243E0,-1.5326012E0,-2.9428536E-1,-1.345283E-1,2.5928063E0,1.7165862E-1,1.2374854E0,1.8300673E0,3.8298736E0,-1.6297127E0,-9.1096747E-1,-7.2193384E-1,5.2989715E-1,-5.394684E-1,6.212668E-1,9.602664E-1,5.8470755E0,-6.982264E-2,2.188286E0,1.0639515E0,4.7005525E0,7.839935E-1,3.2134311E0,3.1221168E0,4.9994555E0,-1.18894614E-1,-7.732788E-2,-7.247993E-2,7.338368E-2,-1.0050024E-1,-1.5432656E-2,-1.729288E-2,7.8940436E-2,-5.3787988E-2,3.0487949E-2,-5.239893E-2,6.647354E-2,-1.5262905E-2,1.4798501E-1,4.2927173E-1,7.9790887E-4,-9.7600356E-2,7.766352E-3,1.9385682E-1,-1.0580102E-1,1.16366066E-1,3.3079702E-2,4.256543E-1,1.2438037E-1,1.1990098E-2,1.130953E-1,5.641882E-2,2.7874577E-1,1.7586637E-1,3.348532E-1,1.5803774E-1,3.5649425E-1],"categories":[],"categories_nodes":[],"categories_segments":[],"categories_sizes":[],"default_left":[1,1,0,1,0,0,0,0,0,1,0,0,0,0,0,1,0,0,0,0,0,0,1,0,0,0,0,0,0,0,0,0,0,0,0,0,0,0,0,0,0,0,0,0,0,0,0,0,0,0,0,0,0,0,0,0,0,0,0,0,0,0,0],"id":21,"left_children":[1,3,5,7,9,11,13,15,17,19,21,23,25,27,29,31,33,35,37,39,41,43,45,47,49,51,53,55,57,59,61,-1,-1,-1,-1,-1,-1,-1,-1,-1,-1,-1,-1,-1,-1,-1,-1,-1,-1,-1,-1,-1,-1,-1,-1,-1,-1,-1,-1,-1,-1,-1,-1],"loss_changes":[1.4101466E4,1.9478364E3,3.3863145E3,1.0742124E3,8.6228516E2,3.9711432E2,1.2693721E3,1.8559424E2,3.2065805E2,3.7792526E2,6.5279346E2,3.0506674E2,4.6723987E2,8.041454E2,5.785205E2,1.8483252E2,1.585708E2,2.2676141E2,1.6152618E2,2.1419188E2,2.2882776E2,1.375122E2,1.340874E2,1.4620027E2,1.9780313E2,2.9637982E2,1.2748663E2,1.7649222E2,5.30343E2,4.025542E2,1.9930566E2,0E0,0E0,0E0,0E0,0E0,0E0,0E0,0E0,0E0,0E0,0E0,0E0,0E0,0E0,0E0,0E0,0E0,0E0,0E0,0E0,0E0,0E0,0E0,0E0,0E0,0E0,0E0,0E0,0E0,0E0,0E0,0E0],"parents":[2147483647,0,0,1,1,2,2,3,3,4,4,5,5,6,6,7,7,8,8,9,9,10,10,11,11,12,12,13,13,14,14,15,15,16,16,17,17,18,18,19,19,20,20,21,21,22,22,23,23,24,24,25,25,26,26,27,27,28,28,29,29,30,30],"right_children":[2,4,6,8,10,12,14,16,18,20,22,24,26,28,30,32,34,36,38,40,42,44,46,48,50,52,54,56,58,60,62,-1,-1,-1,-1,-1,-1,-1,-1,-1,-1,-1,-1,-1,-1,-1,-1,-1,-1,-1,-1,-1,-1,-1,-1,-1,-1,-1,-1,-1,-1,-1,-1],"split_conditions":[1.07198864E-1,8E0,1.43E1,6.2E0,1.4E1,1.06E1,4.3333335E0,4E0,1.1985328E2,8.5E0,1.5E1,1.2920328E2,4.41E1,6.8E0,1.1985328E2,4.3E0,1.3260327E2,1.3E0,1E0,2.85E1,1.0540328E2,3E0,2.63E1,7E-1,3.422E1,1.8E0,3.152E1,1.1900328E2,1.1050328E2,2.9666666E1,1.3666667E1,-1.18894614E-1,-7.732788E-2,-7.247993E-2,7.338368E-2,-1.0050024E-1,-1.5432656E-2,-1.729288E-2,7.8940436E-2,-5.3787988E-2,3.0487949E-2,-5.239893E-2,6.647354E-2,-1.5262905E-2,1.4798501E-1,4.2927173E-1,7.9790887E-4,-9.7600356E-2,7.766352E-3,1.9385682E-1,-1.0580102E-1,1.16366066E-1,3.3079702E-2,4.256543E-1,1.2438037E-1,1.1990098E-2,1.130953E-1,5.641882E-2,2.7874577E-1,1.7586637E-1,3.348532E-1,1.5803774E-1,3.5649425E-1],"split_indices":[50,21,24,23,22,24,30,17,49,24,21,49,53,53,49,24,49,32,27,53,49,29,16,28,5,35,5,49,49,10,22,0,0,0,0,0,0,0,0,0,0,0,0,0,0,0,0,0,0,0,0,0,0,0,0,0,0,0,0,0,0,0,0],"split_type":[0,0,0,0,0,0,0,0,0,0,0,0,0,0,0,0,0,0,0,0,0,0,0,0,0,0,0,0,0,0,0,0,0,0,0,0,0,0,0,0,0,0,0,0,0,0,0,0,0,0,0,0,0,0,0,0,0,0,0,0,0,0,0],"sum_hessian":[8.219106E3,5.454196E3,2.7649104E3,4.1023594E3,1.3518364E3,1.4307837E3,1.3341266E3,3.2006697E3,9.016898E2,1.2275134E3,1.2432302E2,6.1746954E2,8.133142E2,5.610581E2,7.730685E2,2.7617896E3,4.3887997E2,5.9472705E2,3.0696277E2,8.007878E2,4.2672568E2,8.611207E1,3.821095E1,5.541299E2,6.333966E1,7.792788E2,3.403543E1,3.2310635E2,2.3795178E2,4.9041718E2,2.826513E2,2.089716E3,6.7207355E2,4.059624E2,3.2917564E1,2.2577928E2,3.6894775E2,1.3915201E2,1.6781076E2,6.335967E2,1.671911E2,8.819344E1,3.3853223E2,4.5331425E1,4.0780643E1,3.429421E1,3.916741E0,6.3073112E1,4.9105673E2,5.419616E1,9.1435E0,3.5161554E2,4.2766324E2,1.838781E1,1.564762E1,1.9722424E2,1.258821E2,7.073448E1,1.672173E2,3.9655426E2,9.386291E1,3.547805E1,2.4717325E2],"tree_param":{"num_deleted":"0","num_feature":"54","num_nodes":"63","size_leaf_vector":"1"}},{"base_weights":[-5.2983873E-3,-1.2436161E0,1.640222E0,-1.9986644E0,-5.703785E-1,8.379346E-1,2.816258E0,-2.2802374E0,-1.5620006E0,-9.7407144E-1,-1.527116E-1,4.5077044E-1,1.9357893E0,2.0824466E0,4.2171173E0,-1.8501924E-1,-2.1868474E0,-1.2995061E0,-1.9895896E0,-4.491837E-1,-1.4019872E0,-3.3768466E-1,1.0031692E0,-3.3378482E-2,1.2794398E0,3.1712825E0,1.1757644E0,1.6392075E0,3.41754E0,3.6019924E0,6.4102483E0,-1.1949378E-1,-1.5663157E-1,-1.3795592E-1,-7.073597E-2,-1.03249155E-1,-1.6420184E-1,-4.7709055E-2,6.1992556E-2,-1.0890084E-1,-2.0636907E-2,2.2669407E-2,-4.8927896E-2,4.2876143E-2,2.5996622E-1,4.8071694E-2,-4.3616146E-2,3.079108E-2,1.2317392E-1,1.815435E-1,4.084886E-1,8.717742E-3,1.534553E-1,7.3792934E-2,1.6179138E-1,1.8201682E-1,3.9326477E-1,1.9879355E-1,3.6511022E-1,9.176402E-2,4.8294383E-1],"categories":[],"categories_nodes":[],"categories_segments":[],"categories_sizes":[],"default_left":[0,0,0,0,0,1,0,0,0,0,0,0,1,0,0,0,0,0,1,0,1,1,1,0,0,1,0,1,1,1,1,0,0,0,0,0,0,0,0,0,0,0,0,0,0,0,0,0,0,0,0,0,0,0,0,0,0,0,0,0,0],"id":22,"left_children":[1,3,5,7,9,11,13,15,17,19,21,23,25,27,29,-1,31,33,35,37,39,41,43,45,47,49,51,53,55,57,59,-1,-1,-1,-1,-1,-1,-1,-1,-1,-1,-1,-1,-1,-1,-1,-1,-1,-1,-1,-1,-1,-1,-1,-1,-1,-1,-1,-1,-1,-1],"loss_changes":[1.6740658E4,2.3765376E3,3.3161748E3,2.5481738E2,4.1721582E2,8.8823804E2,1.4305498E3,3.403955E1,8.6031006E1,2.792306E2,2.6279626E2,6.2715686E2,4.9537488E2,5.340596E2,5.6376074E2,0E0,5.1983887E1,9.158258E1,5.0095337E1,2.1093124E2,1.684154E2,2.844479E2,1.6337064E2,4.618277E2,2.604984E2,2.0620435E2,4.0007825E2,2.8677356E2,3.3024854E2,3.8723535E2,3.7372412E2,0E0,0E0,0E0,0E0,0E0,0E0,0E0,0E0,0E0,0E0,0E0,0E0,0E0,0E0,0E0,0E0,0E0,0E0,0E0,0E0,0E0,0E0,0E0,0E0,0E0,0E0,0E0,0E0,0E0,0E0],"parents":[2147483647,0,0,1,1,2,2,3,3,4,4,5,5,6,6,7,7,8,8,9,9,10,10,11,11,12,12,13,13,14,14,16,16,17,17,18,18,19,19,20,20,21,21,22,22,23,23,24,24,25,25,26,26,27,27,28,28,29,29,30,30],"right_children":[2,4,6,8,10,12,14,16,18,20,22,24,26,28,30,-1,32,34,36,38,40,42,44,46,48,50,52,54,56,58,60,-1,-1,-1,-1,-1,-1,-1,-1,-1,-1,-1,-1,-1,-1,-1,-1,-1,-1,-1,-1,-1,-1,-1,-1,-1,-1,-1,-1,-1,-1],"split_conditions":[2.547E1,1.56E1,3.303E1,1.057E1,2.082E1,2.8E0,1.68E1,1.95E0,1.808E1,1.9738E1,1.2835327E2,1.1900328E2,2.8331E1,1.2240328E2,1.2495328E2,-1.8501924E-1,7.4E0,2.3933735E-2,1.7539E1,7.617224E-2,9.7E0,2.0434E1,7E0,2.6206667E1,8.9E0,2.15E1,1.57E1,2.4E0,1.47E1,9E0,1.3E1,-1.1949378E-1,-1.5663157E-1,-1.3795592E-1,-7.073597E-2,-1.03249155E-1,-1.6420184E-1,-4.7709055E-2,6.1992556E-2,-1.0890084E-1,-2.0636907E-2,2.2669407E-2,-4.8927896E-2,4.2876143E-2,2.5996622E-1,4.8071694E-2,-4.3616146E-2,3.079108E-2,1.2317392E-1,1.815435E-1,4.084886E-1,8.717742E-3,1.534553E-1,7.3792934E-2,1.6179138E-1,1.8201682E-1,3.9326477E-1,1.9879355E-1,3.6511022E-1,9.176402E-2,4.8294383E-1],"split_indices":[4,4,4,4,4,27,23,4,5,7,49,49,8,49,49,0,6,51,8,50,24,7,18,6,24,12,24,28,24,29,21,0,0,0,0,0,0,0,0,0,0,0,0,0,0,0,0,0,0,0,0,0,0,0,0,0,0,0,0,0,0],"split_type":[0,0,0,0,0,0,0,0,0,0,0,0,0,0,0,0,0,0,0,0,0,0,0,0,0,0,0,0,0,0,0,0,0,0,0,0,0,0,0,0,0,0,0,0,0,0,0,0,0,0,0,0,0,0,0,0,0,0,0,0,0],"sum_hessian":[8.208503E3,4.684619E3,3.523883E3,2.2041047E3,2.4805146E3,2.098988E3,1.424895E3,1.3293752E3,8.7472955E2,1.2577233E3,1.2227913E3,1.556184E3,5.4280414E2,9.4143896E2,4.834561E2,1.951507E2,1.1342245E3,5.5246875E2,3.2226077E2,5.6921124E2,6.885121E2,1.0570387E3,1.657526E2,9.8373975E2,5.724443E2,2.018735E2,3.4093063E2,7.133933E2,2.2804568E2,3.8537762E2,9.807846E1,3.3447617E2,7.9974835E2,1.24900925E2,4.2756784E2,1.7418494E2,1.4807584E2,4.7948123E2,8.972998E1,5.677156E2,1.2079651E2,3.8844586E2,6.685928E2,1.5153204E2,1.4220543E1,4.430617E2,5.4067804E2,2.3678062E2,3.3566364E2,1.8115028E2,2.072322E1,1.7891138E2,1.6201924E2,4.2942227E2,2.8397104E2,1.8422548E2,4.382021E1,2.9563342E2,8.97442E1,1.519272E1,8.288574E1],"tree_param":{"num_deleted":"0","num_feature":"54","num_nodes":"61","size_leaf_vector":"1"}},{"base_weights":[1.0816411E-2,-1.214918E0,1.5053179E0,-1.8192414E0,-5.425039E-1,6.290691E-1,2.4455194E0,-2.2094507E0,-1.4828638E0,-7.2563666E-1,2.778026E-1,3.0607125E-1,1.8090876E0,1.5243857E0,3.4056163E0,-2.2668908E0,-1.5151317E0,-1.0158939E0,-1.7343181E0,-7.694421E-1,3.1796086E0,-4.1107342E-1,1.0056643E0,1.6708039E-1,2.6241202E0,2.9360116E0,9.823927E-1,1.1328459E0,2.7806027E0,2.9048102E0,5.869394E0,-1.5201198E-1,-0E0,-1.23949416E-1,-3.8117398E-2,-1.14753805E-1,-4.2129148E-2,-1.2754613E-1,-7.2773434E-2,-3.1017635E-2,-8.52033E-2,3.616534E-1,1.4030845E-2,1.9949123E-2,-9.666532E-2,-1.2580658E-1,9.029555E-2,4.989504E-2,-3.0594561E-2,9.9924795E-2,3.339529E-1,1.496403E-1,3.7997928E-1,-2.7612286E-2,1.2924224E-1,9.646892E-2,-5.2956372E-2,1.3312557E-1,3.094499E-1,1.5652825E-1,2.8021064E-1,2.0728748E-1,4.499184E-1],"categories":[],"categories_nodes":[],"categories_segments":[],"categories_sizes":[],"default_left":[0,0,0,0,0,1,0,0,0,1,0,0,1,0,0,1,0,0,0,1,0,0,0,1,1,1,0,0,0,0,0,0,0,0,0,0,0,0,0,0,0,0,0,0,0,0,0,0,0,0,0,0,0,0,0,0,0,0,0,0,0,0,0],"id":23,"left_children":[1,3,5,7,9,11,13,15,17,19,21,23,25,27,29,31,33,35,37,39,41,43,45,47,49,51,53,55,57,59,61,-1,-1,-1,-1,-1,-1,-1,-1,-1,-1,-1,-1,-1,-1,-1,-1,-1,-1,-1,-1,-1,-1,-1,-1,-1,-1,-1,-1,-1,-1,-1,-1],"loss_changes":[1.5003082E4,1.8224141E3,3.032039E3,2.9527588E2,3.2197784E2,7.2611206E2,1.5493652E3,2.7251953E1,1.4168286E2,3.0551343E2,1.9832489E2,4.8190033E2,3.6800415E2,4.3474194E2,1.00004297E3,1.6144043E1,2.4378662E1,1.1797986E2,8.2613525E1,2.633927E2,1.2196901E2,1.5178528E2,2.0028055E2,5.1857935E2,1.935971E2,2.7449658E2,3.265157E2,4.2581976E2,2.7277417E2,4.8598145E2,2.554624E2,0E0,0E0,0E0,0E0,0E0,0E0,0E0,0E0,0E0,0E0,0E0,0E0,0E0,0E0,0E0,0E0,0E0,0E0,0E0,0E0,0E0,0E0,0E0,0E0,0E0,0E0,0E0,0E0,0E0,0E0,0E0,0E0],"parents":[2147483647,0,0,1,1,2,2,3,3,4,4,5,5,6,6,7,7,8,8,9,9,10,10,11,11,12,12,13,13,14,14,15,15,16,16,17,17,18,18,19,19,20,20,21,21,22,22,23,23,24,24,25,25,26,26,27,27,28,28,29,29,30,30],"right_children":[2,4,6,8,10,12,14,16,18,20,22,24,26,28,30,32,34,36,38,40,42,44,46,48,50,52,54,56,58,60,62,-1,-1,-1,-1,-1,-1,-1,-1,-1,-1,-1,-1,-1,-1,-1,-1,-1,-1,-1,-1,-1,-1,-1,-1,-1,-1,-1,-1,-1,-1,-1,-1],"split_conditions":[2.5E1,1.65E1,3.178E1,8.65E0,1.25803276E2,3.8E0,1.6172002E-1,1.3260327E2,1.273E1,6.3E0,9.6E0,1.3345328E2,2.8522E1,1.2325328E2,3.907E1,3.16E1,5.8E0,2.3933735E-2,1.2410328E2,2.3006666E1,3.1191E1,1.9738E1,4.7032967E-1,2.5996666E1,1.3E1,5.2E0,1.1390328E2,3.5152E1,2.02E1,2.4322239E-1,2.1E1,-1.5201198E-1,-0E0,-1.23949416E-1,-3.8117398E-2,-1.14753805E-1,-4.2129148E-2,-1.2754613E-1,-7.2773434E-2,-3.1017635E-2,-8.52033E-2,3.616534E-1,1.4030845E-2,1.9949123E-2,-9.666532E-2,-1.2580658E-1,9.029555E-2,4.989504E-2,-3.0594561E-2,9.9924795E-2,3.339529E-1,1.496403E-1,3.7997928E-1,-2.7612286E-2,1.2924224E-1,9.646892E-2,-5.2956372E-2,1.3312557E-1,3.094499E-1,1.5652825E-1,2.8021064E-1,2.0728748E-1,4.499184E-1],"split_indices":[4,4,4,4,49,31,50,49,5,32,11,49,8,49,4,16,4,51,49,6,8,7,43,6,21,32,49,7,53,51,9,0,0,0,0,0,0,0,0,0,0,0,0,0,0,0,0,0,0,0,0,0,0,0,0,0,0,0,0,0,0,0,0],"split_type":[0,0,0,0,0,0,0,0,0,0,0,0,0,0,0,0,0,0,0,0,0,0,0,0,0,0,0,0,0,0,0,0,0,0,0,0,0,0,0,0,0,0,0,0,0,0,0,0,0,0,0,0,0,0,0,0,0,0,0,0,0,0,0],"sum_hessian":[8.1826816E3,4.4955923E3,3.6870894E3,2.3636624E3,2.13193E3,1.9121143E3,1.7749751E3,1.0836001E3,1.2800621E3,1.7441506E3,3.8777924E2,1.5054276E3,4.0668665E2,9.111671E2,8.63808E2,9.919385E2,9.166166E1,4.557713E2,8.242909E2,1.7279248E3,1.6225925E1,1.9934976E2,1.8842947E2,1.4243256E3,8.110196E1,1.6768715E2,2.3899948E2,7.004952E2,2.1067195E2,7.247704E2,1.3903758E2,9.883838E2,3.5546787E0,6.4109726E1,2.7551935E1,1.5636563E2,2.9940567E2,6.423869E2,1.8190398E2,1.0827279E3,6.451969E2,7.377407E0,8.848518E0,1.1925573E2,8.009403E1,1.8107122E1,1.7032234E2,7.394317E2,6.848939E2,5.923168E1,2.1870281E1,1.3929997E2,2.8387182E1,9.730416E1,1.4169533E2,6.043964E2,9.609874E1,1.5333675E2,5.7335217E1,5.1202435E2,2.12746E2,3.72594E1,1.0177818E2],"tree_param":{"num_deleted":"0","num_feature":"54","num_nodes":"63","size_leaf_vector":"1"}},{"base_weights":[5.4605524E-3,-8.209317E-1,1.9177948E0,-1.5256385E0,-2.656462E-2,1.5586543E0,3.7819743E0,-1.8847976E0,-1.0556306E0,-1.4129999E0,1.497247E-1,8.3990216E-1,2.2847E0,3.1967647E0,6.4069424E0,-2.1471837E0,-1.6622308E0,-1.1414349E0,1.7768684E-1,-8.8748646E-1,-2.4969459E0,7.830957E-2,3.6525292E0,1.1121883E0,-1.1282045E0,1.0004308E0,2.6650786E0,3.5729487E0,9.4258726E-1,3.4877565E0,7.6098495E0,-1.4575045E-1,-8.9988194E-2,-9.585499E-2,-1.4068052E-1,-5.3310495E-2,-1.0344495E-1,1.01068854E-1,-5.7667594E-2,-9.7632326E-2,2.4829293E-2,-1.9128385E-1,3.2903224E-2,-2.3843322E-2,3.3142556E-2,2.9627493E-1,-0E0,4.071723E-2,1.394211E-1,-9.671081E-2,1.8624626E-1,1.6339752E-1,1.981933E-2,2.2766826E-1,1.2794848E-1,4.9955484E-2,2.5618634E-1,-3.342748E-2,2.4563509E-1,3.488219E-1,-1.0565399E-1,2.2066934E-1,6.088188E-1],"categories":[],"categories_nodes":[],"categories_segments":[],"categories_sizes":[],"default_left":[0,0,1,0,0,0,0,0,0,1,1,0,0,0,0,1,1,1,0,1,0,0,1,0,1,0,1,0,0,0,0,0,0,0,0,0,0,0,0,0,0,0,0,0,0,0,0,0,0,0,0,0,0,0,0,0,0,0,0,0,0,0,0],"id":24,"left_children":[1,3,5,7,9,11,13,15,17,19,21,23,25,27,29,31,33,35,37,39,41,43,45,47,49,51,53,55,57,59,61,-1,-1,-1,-1,-1,-1,-1,-1,-1,-1,-1,-1,-1,-1,-1,-1,-1,-1,-1,-1,-1,-1,-1,-1,-1,-1,-1,-1,-1,-1,-1,-1],"loss_changes":[1.3010499E4,3.215914E3,1.6367275E3,5.0396924E2,6.6345416E2,1.080478E3,5.283999E2,8.383984E1,1.4224487E2,1.6314789E2,5.966309E2,5.706837E2,4.9325098E2,2.6600513E2,1.3437524E2,6.8303223E0,8.1397705E1,1.6692993E2,1.286802E2,1.5641066E2,1.1373346E2,4.2948398E2,1.3509741E2,4.4849756E2,1.7529259E2,2.4206558E2,4.1485107E2,1.940083E2,2.1849629E2,2.7012735E2,1.720857E2,0E0,0E0,0E0,0E0,0E0,0E0,0E0,0E0,0E0,0E0,0E0,0E0,0E0,0E0,0E0,0E0,0E0,0E0,0E0,0E0,0E0,0E0,0E0,0E0,0E0,0E0,0E0,0E0,0E0,0E0,0E0,0E0],"parents":[2147483647,0,0,1,1,2,2,3,3,4,4,5,5,6,6,7,7,8,8,9,9,10,10,11,11,12,12,13,13,14,14,15,15,16,16,17,17,18,18,19,19,20,20,21,21,22,22,23,23,24,24,25,25,26,26,27,27,28,28,29,29,30,30],"right_children":[2,4,6,8,10,12,14,16,18,20,22,24,26,28,30,32,34,36,38,40,42,44,46,48,50,52,54,56,58,60,62,-1,-1,-1,-1,-1,-1,-1,-1,-1,-1,-1,-1,-1,-1,-1,-1,-1,-1,-1,-1,-1,-1,-1,-1,-1,-1,-1,-1,-1,-1,-1,-1],"split_conditions":[2.915E1,1.918E1,2.34E1,1.298E1,1.0200328E2,1.1560328E2,3.907E1,5.8E0,1.3260327E2,2.7766666E1,2.1E1,7.8571427E-1,8.666667E0,3.797E1,1.86E1,3.4E1,1.4048E1,1.795E1,1.2E1,9.2E0,1.7333334E1,8.2E0,6.269841E-1,3.507E1,5.8E0,2.227E1,3.1304E1,2.18E2,1.9E1,2.2739998E-1,6.1E0,-1.4575045E-1,-8.9988194E-2,-9.585499E-2,-1.4068052E-1,-5.3310495E-2,-1.0344495E-1,1.01068854E-1,-5.7667594E-2,-9.7632326E-2,2.4829293E-2,-1.9128385E-1,3.2903224E-2,-2.3843322E-2,3.3142556E-2,2.9627493E-1,-0E0,4.071723E-2,1.394211E-1,-9.671081E-2,1.8624626E-1,1.6339752E-1,1.981933E-2,2.2766826E-1,1.2794848E-1,4.9955484E-2,2.5618634E-1,-3.342748E-2,2.4563509E-1,3.488219E-1,-1.0565399E-1,2.2066934E-1,6.088188E-1],"split_indices":[4,4,12,4,49,49,4,4,49,6,21,41,22,6,23,14,8,5,0,11,22,23,42,4,31,7,7,2,1,52,32,0,0,0,0,0,0,0,0,0,0,0,0,0,0,0,0,0,0,0,0,0,0,0,0,0,0,0,0,0,0,0,0],"split_type":[0,0,0,0,0,0,0,0,0,0,0,0,0,0,0,0,0,0,0,0,0,0,0,0,0,0,0,0,0,0,0,0,0,0,0,0,0,0,0,0,0,0,0,0,0,0,0,0,0,0,0,0,0,0,0,0,0,0,0,0,0,0,0],"sum_hessian":[8.224828E3,5.7441304E3,2.4806975E3,3.0414307E3,2.7026997E3,2.0859934E3,3.94704E2,1.7166658E3,1.3247649E3,3.0264392E2,2.4000557E3,1.0528585E3,1.0331349E3,3.296198E2,6.508418E1,7.714824E2,9.4518335E2,1.2395814E3,8.5183395E1,2.0886476E2,9.377915E1,2.356001E3,4.405477E1,9.26716E2,1.2614253E2,2.3966234E2,7.934726E2,2.802943E2,4.93255E1,2.3349087E1,4.1735096E1,7.3321014E2,3.8272263E1,6.3550726E2,3.0967612E2,6.7864716E2,5.6093427E2,3.7008446E1,4.817495E1,1.4363943E2,6.522532E1,8.399598E1,9.783178E0,1.1529763E3,1.2030247E3,3.5617653E1,8.43712E0,6.156689E2,3.1104712E2,1.1898246E2,7.160067E0,7.513617E1,1.6452617E2,3.920662E2,4.014064E2,2.5143316E1,2.55151E2,3.3986225E1,1.5339273E1,1.746596E1,5.883127E0,1.3938655E1,2.7796442E1],"tree_param":{"num_deleted":"0","num_feature":"54","num_nodes":"63","size_leaf_vector":"1"}},{"base_weights":[4.1905884E-2,-7.7825594E-1,1.723695E0,-1.4973803E0,-1.0517721E-1,8.6255455E-1,2.4558184E0,-1.7943481E0,-1.0988746E0,-8.469268E-1,1.3488331E-1,4.3816486E-1,1.7165072E0,1.9858023E0,3.9095802E0,-1.5364823E-1,-1.7144257E0,-5.786113E-1,-1.3686862E0,-5.51007E-1,-2.2869194E0,-2.1319401E-1,6.568618E-1,-3.527161E-1,9.3092585E-1,1.0239474E0,3.6311567E0,1.5164031E0,3.417737E0,2.739714E0,6.3571563E0,-1.22034706E-1,-9.013634E-2,-6.54414E-2,1.2351291E-2,-1.2551478E-1,-7.3504254E-2,-6.455595E-2,4.958843E-2,-1.7370208E-1,3.9414167E-2,-5.862541E-3,-1.3423483E-1,-1.1158277E-2,6.1687954E-2,2.2290317E-2,-9.663834E-2,1.0739139E-1,1.3547183E-2,1.1180322E-1,-4.3947056E-2,3.0562642E-1,9.8686635E-2,1.3402963E-1,2.5621224E-2,