{"learner":{"attributes":{},"feature_names":["Team","Opp","Player","Pos","role","MP","PTS_line","MP_L3_avg","MP_L10_avg","MP_trend","PTS_trend","eFG_trend","TS_trend","USG_trend","game_spread_type","pts_low","pts_mid","pts_high","PTS_pct_trend","team_PTS_available","starters_out","starters_returning"],"feature_types":["c","c","c","c","int","float","float","float","float","float","float","float","float","float","int","float","float","float","float","float","float","float"],"gradient_booster":{"model":{"cats":{"enc":[{"offsets":[0,3,6,9,12,15,18,21,24,27,30,33,36,39,42,45,48,51,54,57,60,63,66,69,72,75,78,81,84,87,90],"values":[65,84,76,66,79,83,66,82,75,67,72,73,67,72,79,67,76,69,68,65,76,68,69,78,68,69,84,71,83,87,72,79,85,73,78,68,76,65,67,76,65,76,77,69,77,77,73,65,77,73,76,77,73,78,78,79,80,78,89,75,79,75,67,79,82,76,80,72,73,80,72,79,80,79,82,83,65,67,83,65,83,84,79,82,85,84,65,87,65,83]},{"offsets":[0,3,6,9,12,15,18,21,24,27,30,33,36,39,42,45,48,51,54,57,60,63,66,69,72,75,78,81,84,87,90],"values":[65,84,76,66,79,83,66,82,75,67,72,73,67,72,79,67,76,69,68,65,76,68,69,78,68,69,84,71,83,87,72,79,85,73,78,68,76,65,67,76,65,76,77,69,77,77,73,65,77,73,76,77,73,78,78,79,80,78,89,75,79,75,67,79,82,76,80,72,73,80,72,79,80,79,82,83,65,67,83,65,83,84,79,82,85,84,65,87,65,83]},{"offsets":[0,10,22,35,48,61,71,80,93,103,114,128,141,155,170,184,199,212,225,240,250,264,277,288,299,316,328,346,361,373,390,402,420,434,448,462,478,494,505,516,527,538,553,565,577,588,600,615,627,640,653,666,679,694,706,716,729,741,757,777,790,802,815,831,847,860,874,884,898,913,927,939,954,971,984,993,1006,1017,1032,1048,1059,1076,1089,1101,1113,1126,1139,1155,1170,1186,1202,1221,1233,1247,1259,1268,1283,1293,1306,1318,1331,1342,1354,1366,1377,1391,1405,1426,1438,1449,1463,1476,1486,1501,1514,1527,1539,1556,1567,1581,1599,1613,1623,1637,1648,1657,1671,1687,1698,1708,1723,1739,1751,1763,1776,1787,1798,1811,1824,1835,1846,1860,1872,1884,1895,1907,1921,1934,1946,1963,1980,1993,2008,2021,2033,2041,2053,2065,2077,2089,2101,2115,2128,2140,2151,2163,2175,2186,2198,2211,2228,2242,2258,2273,2287,2301,2313,2325,2338,2349,2358,2369,2380,2392,2409,2425,2438,2455,2469,2481,2499,2518,2531,2544,2555,2569,2581,2596,2612,2636,2646,2658,2671,2681,2697,2711,2726,2739,2749,2761,2770,2781,2799,2814,2824,2838,2849,2862,2877,2892,2904,2914,2927,2938,2948,2960,2971,2981,2994,3006,3019,3032,3045,3057,3071,3082,3100,3113,3124,3137,3150,3167,3182,3195,3206,3220,3234,3246,3259,3267,3280,3293,3317,3330,3342,3354,3368,3382,3394,3404,3416,3429,3439,3451,3465,3477,3492,3506,3519,3535,3546,3555,3571,3584,3597,3613,3627,3639,3649,3664,3676,3689,3704,3717,3728,3741,3758,3767,3783,3795,3805,3815,3826,3847,3859,3873,3887,3910,3927,3937,3950,3964,3976,3990,4004,4014,4030,4042,4062,4075,4089,4105,4118,4132,4152,4163,4172,4180,4195,4210,4221,4232,4245,4257,4271,4281,4293,4310,4328,4338,4356,4368,4378,4389,4399,4417,4429,4438,4449,4459,4474,4489],"values":[65,74,32,74,111,104,110,115,111,110,65,97,114,111,110,32,71,111,114,100,111,110,65,97,114,111,110,32,72,111,108,105,100,97,121,65,97,114,111,110,32,78,101,115,109,105,116,104,65,97,114,111,110,32,87,105,103,103,105,110,115,65,99,101,32,66,97,105,108,101,121,65,100,101,109,32,66,111,110,97,65,106,97,121,32,77,105,116,99,104,101,108,108,65,108,32,72,111,114,102,111,114,100,65,108,101,120,32,67,97,114,117,115,111,65,108,112,101,114,101,110,32,83,101,110,103,117,110,65,109,101,110,32,84,104,111,109,112,115,111,110,65,110,100,114,101,32,68,114,117,109,109,111,110,100,65,110,100,114,101,119,32,78,101,109,98,104,97,114,100,65,110,100,114,101,119,32,87,105,103,103,105,110,115,65,110,102,101,114,110,101,101,32,83,105,109,111,110,115,65,110,116,104,111,110,121,32,66,108,97,99,107,65,110,116,104,111,110,121,32,68,97,118,105,115,65,110,116,104,111,110,121,32,69,100,119,97,114,100,115,65,115,97,32,78,101,119,101,108,108,65,117,115,97,114,32,84,104,111,109,112,115,111,110,65,117,115,116,105,110,32,82,101,97,118,101,115,65,121,111,32,68,111,115,117,110,109,117,66,97,109,32,65,100,101,98,97,121,111,66,97,121,108,111,114,32,83,99,104,101,105,101,114,109,97,110,66,101,110,32,83,104,101,112,112,97,114,100,66,101,110,110,101,100,105,99,116,32,77,97,116,104,117,114,105,110,66,105,108,97,108,32,67,111,117,108,105,98,97,108,121,66,111,98,98,121,32,80,111,114,116,105,115,66,111,103,100,97,110,32,66,111,103,100,97,110,111,118,105,99,66,111,110,101,115,32,72,121,108,97,110,100,66,114,97,110,100,105,110,32,80,111,100,122,105,101,109,115,107,105,66,114,97,110,100,111,110,32,67,108,97,114,107,101,66,114,97,110,100,111,110,32,73,110,103,114,97,109,66,114,97,110,100,111,110,32,77,105,108,108,101,114,66,114,97,110,100,111,110,32,87,105,108,108,105,97,109,115,66,114,105,99,101,32,83,101,110,115,97,98,97,117,103,104,66,114,111,111,107,32,76,111,112,101,122,66,114,117,99,101,32,66,114,111,119,110,66,117,100,100,121,32,72,105,101,108,100,67,74,32,77,99,67,111,108,108,117,109,67,97,100,101,32,67,117,110,110,105,110,103,104,97,109,67,97,108,101,98,32,77,97,114,116,105,110,67,97,109,32,67,104,114,105,115,116,105,101,67,97,109,32,83,112,101,110,99,101,114,67,97,109,32,87,104,105,116,109,111,114,101,67,97,109,101,114,111,110,32,74,111,104,110,115,111,110,67,97,114,105,115,32,76,101,86,101,114,116,67,97,114,116,101,114,32,66,114,121,97,110,116,67,97,115,111,110,32,87,97,108,108,97,99,101,67,101,100,114,105,99,32,67,111,119,97,114,100,67,104,101,116,32,72,111,108,109,103,114,101,110,67,104,114,105,115,116,105,97,110,32,66,114,97,117,110,67,108,105,110,116,32,67,97,112,101,108,97,67,111,98,121,32,87,104,105,116,101,67,111,100,121,32,87,105,108,108,105,97,109,115,67,111,108,101,32,65,110,116,104,111,110,121,67,111,108,108,105,110,32,71,105,108,108,101,115,112,105,101,67,111,108,108,105,110,32,77,117,114,114,97,121,45,66,111,121,108,101,115,67,111,108,108,105,110,32,83,101,120,116,111,110,67,111,111,112,101,114,32,70,108,97,103,103,67,111,114,101,121,32,75,105,115,112,101,114,116,67,114,97,105,103,32,80,111,114,116,101,114,32,74,114,46,68,39,65,110,103,101,108,111,32,82,117,115,115,101,108,108,68,97,108,116,111,110,32,75,110,101,99,104,116,68,97,110,105,101,108,32,71,97,102,102,111,114,100,68,97,110,110,121,32,87,111,108,102,68,97,114,105,117,115,32,71,97,114,108,97,110,100,68,97,118,105,111,110,32,77,105,116,99,104,101,108,108,68,97,121,39,82,111,110,32,83,104,97,114,112,101,68,101,39,65,97,114,111,110,32,70,111,120,68,101,39,65,110,100,114,101,32,72,117,110,116,101,114,68,101,39,65,110,116,104,111,110,121,32,77,101,108,116,111,110,68,101,77,97,114,32,68,101,82,111,122,97,110,68,101,97,110,32,87,97,100,101,68,101,97,110,100,114,101,32,65,121,116,111,110,68,101,110,105,32,65,118,100,105,106,97,68,101,110,110,105,115,32,83,99,104,114,111,100,101,114,68,101,114,101,99,107,32,76,105,118,101,108,121,32,73,73,68,101,114,105,107,32,81,117,101,101,110,68,101,114,114,105,99,107,32,74,111,110,101,115,32,74,114,46,68,101,114,114,105,99,107,32,87,104,105,116,101,68,101,115,109,111,110,100,32,66,97,110,101,68,101,118,105,110,32,66,111,111,107,101,114,68,101,118,105,110,32,86,97,115,115,101,108,108,68,105,108,108,111,110,32,66,114,111,111,107,115,68,111,109,97,110,116,97,115,32,83,97,98,111,110,105,115,68,111,110,111,118,97,110,32,67,108,105,110,103,97,110,68,111,110,111,118,97,110,32,77,105,116,99,104,101,108,108,68,111,110,116,101,32,68,105,86,105,110,99,101,110,122,111,68,111,114,105,97,110,32,70,105,110,110,101,121,45,83,109,105,116,104,68,114,97,107,101,32,80,111,119,101,108,108,68,114,97,121,109,111,110,100,32,71,114,101,101,110,68,114,101,119,32,69,117,98,97,110,107,115,68,114,117,32,83,109,105,116,104,68,117,110,99,97,110,32,82,111,98,105,110,115,111,110,68,117,111,112,32,82,101,97,116,104,68,119,105,103,104,116,32,80,111,119,101,108,108,68,121,108,97,110,32,72,97,114,112,101,114,68,121,115,111,110,32,68,97,110,105,101,108,115,69,118,97,110,32,77,111,98,108,101,121,70,114,97,110,122,32,87,97,103,110,101,114,71,97,98,101,32,86,105,110,99,101,110,116,71,97,114,121,32,72,97,114,114,105,115,71,97,114,121,32,80,97,121,116,111,110,32,73,73,71,97,114,121,32,84,114,101,110,116,32,74,114,46,71,105,97,110,110,105,115,32,65,110,116,101,116,111,107,111,117,110,109,112,111,71,111,103,97,32,66,105,116,97,100,122,101,71,114,97,100,101,121,32,68,105,99,107,71,114,97,110,116,32,87,105,108,108,105,97,109,115,71,114,97,121,115,111,110,32,65,108,108,101,110,71,117,105,32,83,97,110,116,111,115,72,97,114,114,105,115,111,110,32,66,97,114,110,101,115,72,101,114,98,101,114,116,32,74,111,110,101,115,72,117,103,111,32,71,111,110,122,97,108,101,122,72,117,110,116,101,114,32,84,121,115,111,110,73,109,109,97,110,117,101,108,32,81,117,105,99,107,108,101,121,73,115,97,97,99,32,79,107,111,114,111,73,115,97,105,97,104,32,67,111,108,108,105,101,114,73,115,97,105,97,104,32,72,97,114,116,101,110,115,116,101,105,110,73,115,97,105,97,104,32,74,97,99,107,115,111,110,73,115,97,105,97,104,32,74,111,101,73,115,97,105,97,104,32,83,116,101,119,97,114,116,73,118,105,99,97,32,90,117,98,97,99,74,97,32,77,111,114,97,110,116,74,97,39,75,111,98,101,32,87,97,108,116,101,114,74,97,98,97,114,105,32,83,109,105,116,104,32,74,114,46,74,97,100,101,110,32,72,97,114,100,121,74,97,100,101,110,32,73,118,101,121,74,97,100,101,110,32,77,99,68,97,110,105,101,108,115,74,97,105,109,101,32,74,97,113,117,101,122,32,74,114,46,74,97,107,101,32,76,97,82,97,118,105,97,74,97,107,111,98,32,80,111,101,108,116,108,74,97,108,101,110,32,66,114,117,110,115,111,110,74,97,108,101,110,32,68,117,114,101,110,74,97,108,101,110,32,71,114,101,101,110,74,97,108,101,110,32,74,111,104,110,115,111,110,74,97,108,101,110,32,80,105,99,107,101,116,116,74,97,108,101,110,32,83,109,105,116,104,74,97,108,101,110,32,83,117,103,103,115,74,97,108,101,110,32,87,105,108,108,105,97,109,115,74,97,108,101,110,32,87,105,108,115,111,110,74,97,109,97,108,32,77,117,114,114,97,121,74,97,109,97,108,32,83,104,101,97,100,74,97,109,101,115,32,72,97,114,100,101,110,74,97,109,105,115,111,110,32,66,97,116,116,108,101,74,97,114,97,99,101,32,87,97,108,107,101,114,74,97,114,101,100,32,77,99,67,97,105,110,74,97,114,101,110,32,74,97,99,107,115,111,110,32,74,114,46,74,97,114,114,101,100,32,86,97,110,100,101,114,98,105,108,116,74,97,114,114,101,116,116,32,65,108,108,101,110,74,97,115,101,32,82,105,99,104,97,114,100,115,111,110,74,97,118,111,110,116,101,32,71,114,101,101,110,74,97,120,115,111,110,32,72,97,121,101,115,74,97,121,32,72,117,102,102,74,97,121,108,101,110,32,66,114,111,119,110,74,97,121,108,101,110,32,67,108,97,114,107,74,97,121,108,101,110,32,87,101,108,108,115,74,97,121,108,111,110,32,84,121,115,111,110,74,101,114,97,109,105,32,71,114,97,110,116,74,101,114,101,109,105,97,104,32,70,101,97,114,115,74,101,114,101,109,121,32,83,111,99,104,97,110,74,101,114,105,99,104,111,32,83,105,109,115,74,101,116,116,32,72,111,119,97,114,100,74,105,109,109,121,32,66,117,116,108,101,114,74,111,99,107,32,76,97,110,100,97,108,101,74,111,101,108,32,69,109,98,105,105,100,74,111,104,110,32,67,111,108,108,105,110,115,74,111,104,110,110,121,32,70,117,114,112,104,121,74,111,110,97,115,32,86,97,108,97,110,99,105,117,110,97,115,74,111,110,97,116,104,97,110,32,73,115,97,97,99,74,111,110,97,116,104,97,110,32,75,117,109,105,110,103,97,74,111,114,100,97,110,32,67,108,97,114,107,115,111,110,74,111,114,100,97,110,32,71,111,111,100,119,105,110,74,111,114,100,97,110,32,72,97,119,107,105,110,115,74,111,114,100,97,110,32,80,111,111,108,101,74,111,114,100,97,110,32,87,97,108,115,104,74,111,115,101,32,65,108,118,97,114,97,100,111,74,111,115,104,32,71,105,100,100,101,121,74,111,115,104,32,72,97,114,116,74,111,115,104,32,77,105,110,111,116,116,74,111,115,104,32,79,107,111,103,105,101,74,114,117,101,32,72,111,108,105,100,97,121,74,117,108,105,97,110,32,67,104,97,109,112,97,103,110,105,101,74,117,108,105,97,110,32,83,116,114,97,119,116,104,101,114,74,117,108,105,117,115,32,82,97,110,100,108,101,74,117,115,116,105,110,32,67,104,97,109,112,97,103,110,105,101,74,117,115,116,105,110,32,69,100,119,97,114,100,115,74,117,115,117,102,32,78,117,114,107,105,99,75,97,114,108,45,65,110,116,104,111,110,121,32,84,111,119,110,115,75,97,115,112,97,114,97,115,32,74,97,107,117,99,105,111,110,105,115,75,97,119,104,105,32,76,101,111,110,97,114,100,75,101,101,103,97,110,32,77,117,114,114,97,121,75,101,108,39,101,108,32,87,97,114,101,75,101,108,100,111,110,32,74,111,104,110,115,111,110,75,101,108,108,121,32,79,108,121,110,121,107,75,101,108,108,121,32,79,117,98,114,101,32,74,114,46,75,101,110,114,105,99,104,32,87,105,108,108,105,97,109,115,75,101,110,116,97,118,105,111,117,115,32,67,97,108,100,119,101,108,108,45,80,111,112,101,75,101,111,110,32,69,108,108,105,115,75,101,118,105,110,32,68,117,114,97,110,116,75,101,118,105,110,32,72,117,101,114,116,101,114,75,101,118,105,110,32,76,111,118,101,75,101,118,105,110,32,80,111,114,116,101,114,32,74,114,46,75,101,121,111,110,116,101,32,71,101,111,114,103,101,75,104,114,105,115,32,77,105,100,100,108,101,116,111,110,75,108,97,121,32,84,104,111,109,112,115,111,110,75,111,98,101,32,66,114,111,119,110,75,111,110,32,75,110,117,101,112,112,101,108,75,114,105,115,32,68,117,110,110,75,114,105,115,32,77,117,114,114,97,121,75,114,105,115,116,97,112,115,32,80,111,114,122,105,110,103,105,115,75,121,108,101,32,70,105,108,105,112,111,119,115,107,105,75,121,108,101,32,75,117,122,109,97,75,121,115,104,97,119,110,32,71,101,111,114,103,101,76,97,77,101,108,111,32,66,97,108,108,76,97,110,100,114,121,32,83,104,97,109,101,116,76,97,114,114,121,32,78,97,110,99,101,32,74,114,46,76,97,117,114,105,32,77,97,114,107,107,97,110,101,110,76,101,66,114,111,110,32,74,97,109,101,115,76,111,110,122,111,32,66,97,108,108,76,117,103,117,101,110,116,122,32,68,111,114,116,76,117,107,97,32,68,111,110,99,105,99,76,117,107,97,32,71,97,114,122,97,76,117,107,101,32,75,101,110,110,97,114,100,76,117,107,101,32,75,111,114,110,101,116,77,97,108,105,107,32,77,111,110,107,77,97,114,99,117,115,32,83,97,115,115,101,114,77,97,114,99,117,115,32,83,109,97,114,116,77,97,114,107,32,87,105,108,108,105,97,109,115,77,97,115,111,110,32,80,108,117,109,108,101,101,77,97,116,97,115,32,66,117,122,101,108,105,115,77,97,120,32,67,104,114,105,115,116,105,101,77,97,120,105,109,101,32,82,97,121,110,97,117,100,77,105,99,97,104,32,80,101,97,118,121,77,105,99,104,97,101,108,32,80,111,114,116,101,114,32,74,114,46,77,105,107,97,108,32,66,114,105,100,103,101,115,77,105,107,101,32,67,111,110,108,101,121,77,105,108,101,115,32,66,114,105,100,103,101,115,77,105,108,101,115,32,77,99,66,114,105,100,101,77,105,116,99,104,101,108,108,32,82,111,98,105,110,115,111,110,77,111,104,97,109,101,100,32,68,105,97,119,97,114,97,77,111,114,105,116,122,32,87,97,103,110,101,114,77,111,115,101,115,32,77,111,111,100,121,77,111,117,104,97,109,101,100,32,71,117,101,121,101,77,111,117,115,115,97,32,68,105,97,98,97,116,101,77,121,108,101,115,32,84,117,114,110,101,114,78,97,106,105,32,77,97,114,115,104,97,108,108,78,97,122,32,82,101,105,100,78,101,101,109,105,97,115,32,81,117,101,116,97,78,105,99,107,32,82,105,99,104,97,114,100,115,78,105,99,107,101,105,108,32,65,108,101,120,97,110,100,101,114,45,87,97,108,107,101,114,78,105,99,111,108,97,115,32,66,97,116,117,109,78,105,107,111,108,97,32,74,111,107,105,99,78,105,107,111,108,97,32,74,111,118,105,99,78,105,107,111,108,97,32,86,117,99,101,118,105,99,78,105,113,117,101,32,67,108,105,102,102,111,114,100,78,111,97,104,32,67,108,111,119,110,101,121,78,111,97,104,32,80,101,110,100,97,78,111,108,97,110,32,84,114,97,111,114,101,78,111,114,109,97,110,32,80,111,119,101,108,108,79,71,32,65,110,117,110,111,98,121,79,99,104,97,105,32,65,103,98,97,106,105,79,110,121,101,107,97,32,79,107,111,110,103,119,117,79,115,111,32,73,103,104,111,100,97,114,111,80,46,74,46,32,87,97,115,104,105,110,103,116,111,110,80,97,111,108,111,32,66,97,110,99,104,101,114,111,80,97,115,99,97,108,32,83,105,97,107,97,109,80,97,116,114,105,99,107,32,87,105,108,108,105,97,109,115,80,97,117,108,32,71,101,111,114,103,101,80,97,117,108,32,82,101,101,100,80,97,121,116,111,110,32,80,114,105,116,99,104,97,114,100,80,101,108,108,101,32,76,97,114,115,115,111,110,80,101,121,116,111,110,32,87,97,116,115,111,110,80,114,101,99,105,111,117,115,32,65,99,104,105,117,119,97,81,117,101,110,116,105,110,32,71,114,105,109,101,115,81,117,105,110,116,101,110,32,80,111,115,116,82,74,32,66,97,114,114,101,116,116,82,97,115,104,101,101,114,32,70,108,101,109,105,110,103,82,97,121,97,110,32,82,117,112,101,114,116,82,101,101,100,32,83,104,101,112,112,97,114,100,82,111,98,101,114,116,32,87,105,108,108,105,97,109,115,82,111,121,99,101,32,79,39,78,101,97,108,101,82,117,100,121,32,71,111,98,101,114,116,82,117,105,32,72,97,99,104,105,109,117,114,97,82,117,115,115,101,108,108,32,87,101,115,116,98,114,111,111,107,82,121,97,110,32,68,117,110,110,82,121,97,110,32,75,97,108,107,98,114,101,110,110,101,114,82,121,97,110,32,82,111,108,108,105,110,115,83,97,100,100,105,113,32,66,101,121,83,97,109,32,72,97,117,115,101,114,83,97,109,32,77,101,114,114,105,108,108,83,97,110,100,114,111,32,77,97,109,117,107,101,108,97,115,104,118,105,108,105,83,97,110,116,105,32,65,108,100,97,109,97,83,99,111,116,116,105,101,32,66,97,114,110,101,115,83,104,97,101,100,111,110,32,83,104,97,114,112,101,83,104,97,105,32,71,105,108,103,101,111,117,115,45,65,108,101,120,97,110,100,101,114,83,105,109,111,110,101,32,70,111,110,116,101,99,99,104,105,111,83,105,111,110,32,74,97,109,101,115,83,116,101,112,104,101,110,32,67,117,114,114,121,83,116,101,112,104,111,110,32,67,97,115,116,108,101,83,116,101,118,101,110,32,65,100,97,109,115,83,118,105,32,77,121,107,104,97,105,108,105,117,107,84,46,74,46,32,77,99,67,111,110,110,101,108,108,84,97,114,105,32,69,97,115,111,110,84,97,121,108,111,114,32,72,101,110,100,114,105,99,107,115,84,101,114,97,110,99,101,32,77,97,110,110,84,101,114,114,101,110,99,101,32,83,104,97,110,110,111,110,32,74,114,46,84,104,111,109,97,115,32,66,114,121,97,110,116,84,105,100,106,97,110,101,32,83,97,108,97,117,110,84,105,109,32,72,97,114,100,97,119,97,121,32,74,114,46,84,111,98,105,97,115,32,72,97,114,114,105,115,84,111,117,109,97,110,105,32,67,97,109,97,114,97,84,114,97,121,99,101,32,74,97,99,107,115,111,110,45,68,97,118,105,115,84,114,101,32,74,111,104,110,115,111,110,84,114,101,32,74,111,110,101,115,84,114,101,32,77,97,110,110,84,114,101,110,100,111,110,32,87,97,116,102,111,114,100,84,114,101,121,32,77,117,114,112,104,121,32,73,73,73,84,121,108,101,114,32,72,101,114,114,111,84,121,108,101,114,32,75,111,108,101,107,84,121,114,101,115,101,32,77,97,114,116,105,110,84,121,114,101,115,101,32,77,97,120,101,121,84,121,114,101,115,101,32,80,114,111,99,116,111,114,84,121,117,115,32,74,111,110,101,115,86,74,32,69,100,103,101,99,111,109,98,101,86,105,99,116,111,114,32,87,101,109,98,97,110,121,97,109,97,86,105,110,99,101,32,87,105,108,108,105,97,109,115,32,74,114,46,86,105,116,32,75,114,101,106,99,105,87,101,110,100,101,108,108,32,67,97,114,116,101,114,32,74,114,46,87,105,108,108,32,82,105,99,104,97,114,100,87,105,108,108,32,82,105,108,101,121,89,97,110,103,32,72,97,110,115,101,110,89,118,101,115,32,77,105,115,115,105,90,97,99,99,104,97,114,105,101,32,82,105,115,97,99,104,101,114,90,97,99,104,32,67,111,108,108,105,110,115,90,97,99,104,32,69,100,101,121,90,97,99,104,32,76,97,86,105,110,101,90,101,107,101,32,78,110,97,106,105,90,105,97,105,114,101,32,87,105,108,108,105,97,109,115,90,105,111,110,32,87,105,108,108,105,97,109,115,111,110]},{"offsets":[0,1,3,5,7,9],"values":[67,80,70,80,71,83,70,83,71]},{"offsets":[],"values":[]},{"offsets":[],"values":[]},{"offsets":[],"values":[]},{"offsets":[],"values":[]},{"offsets":[],"values":[]},{"offsets":[],"values":[]},{"offsets":[],"values":[]},{"offsets":[],"values":[]},{"offsets":[],"values":[]},{"offsets":[],"values":[]},{"offsets":[],"values":[]},{"offsets":[],"values":[]},{"offsets":[],"values":[]},{"offsets":[],"values":[]},{"offsets":[],"values":[]},{"offsets":[],"values":[]},{"offsets":[],"values":[]},{"offsets":[],"values":[]}],"feature_segments":[0,30,60,401,406,406,406,406,406,406,406,406,406,406,406,406,406,406,406,406,406,406,406],"sorted_idx":[0,1,2,3,4,5,6,7,8,9,10,11,12,13,14,15,16,17,18,19,20,21,22,23,24,25,26,27,28,29,0,1,2,3,4,5,6,7,8,9,10,11,12,13,14,15,16,17,18,19,20,21,22,23,24,25,26,27,28,29,0,1,2,3,4,5,6,7,8,9,10,11,12,13,14,15,16,17,18,19,20,21,22,23,24,25,26,27,28,29,30,31,32,33,34,35,36,37,38,39,40,41,42,43,44,45,46,47,48,49,50,51,52,53,54,55,56,57,58,59,60,61,62,63,64,65,66,67,68,69,70,71,72,73,74,75,76,77,78,79,80,81,82,83,84,85,86,87,88,89,90,91,92,93,94,95,96,97,98,99,100,101,102,103,104,105,106,107,108,109,110,111,112,113,114,115,116,117,118,119,120,121,122,123,124,125,126,127,128,129,130,131,132,133,134,135,136,137,138,139,140,141,142,143,144,145,146,147,148,149,150,151,152,153,154,155,156,157,158,159,160,161,162,163,164,165,166,167,168,169,170,171,172,173,174,175,176,177,178,179,180,181,182,183,184,185,186,187,188,189,190,191,192,193,194,195,196,197,198,199,200,201,202,203,204,205,206,207,208,209,210,211,212,213,214,215,216,217,218,219,220,221,222,223,224,225,226,227,228,229,230,231,232,233,234,235,236,237,238,239,240,241,242,243,244,245,246,247,248,249,250,251,252,253,254,255,256,257,258,259,260,261,262,263,264,265,266,267,268,269,270,271,272,273,274,275,276,277,278,279,280,281,282,283,284,285,286,287,288,289,290,291,292,293,294,295,296,297,298,299,300,301,302,303,304,305,306,307,308,309,310,311,312,313,314,315,316,317,318,319,320,321,322,323,324,325,326,327,328,329,330,331,332,333,334,335,336,337,338,339,340,0,1,2,3,4]},"gbtree_model_param":{"num_parallel_tree":"1","num_trees":"100"},"iteration_indptr":[0,1,2,3,4,5,6,7,8,9,10,11,12,13,14,15,16,17,18,19,20,21,22,23,24,25,26,27,28,29,30,31,32,33,34,35,36,37,38,39,40,41,42,43,44,45,46,47,48,49,50,51,52,53,54,55,56,57,58,59,60,61,62,63,64,65,66,67,68,69,70,71,72,73,74,75,76,77,78,79,80,81,82,83,84,85,86,87,88,89,90,91,92,93,94,95,96,97,98,99,100],"tree_info":[0,0,0,0,0,0,0,0,0,0,0,0,0,0,0,0,0,0,0,0,0,0,0,0,0,0,0,0,0,0,0,0,0,0,0,0,0,0,0,0,0,0,0,0,0,0,0,0,0,0,0,0,0,0,0,0,0,0,0,0,0,0,0,0,0,0,0,0,0,0,0,0,0,0,0,0,0,0,0,0,0,0,0,0,0,0,0,0,0,0,0,0,0,0,0,0,0,0,0,0],"trees":[{"base_weights":[2.8266136E-2,-2.1030686E0,1.105048E0,-1.516008E0,-6.589799E0,1.8710877E0,-1.2827445E0,-2.9380035E0,-5.945468E-1,-7.22425E-1,-7.9372334E0,1.0891001E0,3.4546912E0,-1.5602804E0,3.0509388E0,-1.9651979E0,-5.2345767E0,2.9270235E-1,-1.7163146E0,1.2830796E0,-2.41506E-1,-6.500456E-1,-6.1260552E0,2.1321805E0,-4.1879165E-1,2.9242816E0,5.616904E0,2.812841E-1,-1.9994292E0,5.6170917E0,-1.4087841E-1,-2.0032786E-1,-5.9602086E-2,-2.2777712E-1,-4.0833002E-1,-9.724799E-2,3.375275E-2,-1.8127012E-1,-7.575381E-2,-1.5533666E-2,1.7472903E-1,-1.7555384E-1,-4.3595466E-1,2.6721004E-1,1.1390058E-1,-1.1433478E-1,3.6844324E-2,2.12595E-1,4.678035E-3,2.1379407E-1,4.1179737E-1,1.22324996E-1,-2.825226E-2,-2.3272982E-1,-7.803463E-2,3.9768353E-1,1.2540445E-1],"categories":[0,1,3,7,17,20,26,27,33,41,49,54,68,70,71,81,82,83,88,89,101,106,123,134,140,148,150,178,179,189,201,203,222,236,238,260,261,266,267,269,275,284,294,300,306,322,337,340,0,1,2,3,4,5,6,7,8,9,10,11,12,13,14,15,16,17,18,19,20,21,22,23,24,25,26,27,28,29,30,31,32,33,34,35,36,37,38,39,40,41,42,43,44,45,46,47,48,49,50,51,52,53,54,55,56,57,58,59,60,61,62,63,64,65,66,67,68,69,70,71,72,73,74,75,76,77,78,79,80,81,82,83,84,85,86,87,88,89,90,91,92,93,94,95,96,97,98,99,100,101,102,103,104,105,106,107,108,109,110,111,112,113,114,115,116,117,118,119,120,121,122,123,124,125,126,127,128,129,130,131,132,133,134,135,136,137,138,139,140,141,142,144,145,146,147,148,149,150,151,152,153,154,155,156,157,158,159,160,161,162,163,164,165,166,167,168,169,170,171,172,173,174,175,176,177,178,179,180,181,182,183,184,185,186,187,188,189,190,191,192,193,194,195,196,197,198,199,200,201,202,203,204,205,206,207,208,209,210,211,212,213,214,215,216,217,218,219,220,221,222,223,224,225,226,227,228,229,230,231,232,233,234,235,236,237,238,239,240,241,242,243,244,245,246,247,248,249,250,251,252,253,254,255,256,257,258,259,260,261,262,263,264,265,266,267,268,269,270,271,272,273,274,275,276,277,278,279,280,281,282,283,284,285,286,287,288,289,290,291,292,293,294,295,296,297,298,299,300,301,302,303,304,305,306,307,308,309,310,311,312,313,314,315,316,317,318,319,320,0,1,2,3,4,5,6,7,8,9,10,11,12,13,14,15,16,17,18,19,20,21,22,23,24,25,26,27,28,29,30,32,33,34,35,36,37,38,39,40,41,42,43,44,45,46,47,48,49,50,51,52,53,54,55,56,57,58,59,60,61,62,63,64,65,66,67,68,69,70,71,72,73,74,75,76,77,78,79,80,81,82,83,84,85,86,87,88,89,90,91,92,93,94,95,96,97,98,99,100,101,102,103,104,105,106,107,108,109,110,111,112,113,114,115,116,117,118,119,120,121,122,123,124,125,126,127,128,129,130,131,132,133,134,135,136,137,138,139,140,141,142,143,144,145,146,147,148,149,150,151,152,153,154,155,156,157,158,159,160,161,162,163,164,165,166,167,168,169,170,171,172,173,174,175,176,177,178,179,180,181,182,183,184,185,186,187,189,190,191,192,193,195,196,197,198,199,200,201,202,203,204,205,206,207,208,209,210,211,212,213,214,215,216,217,218,219,220,221,222,223,224,225,227,228,230,231,233,234,235,236,237,238,240,241,242,243,244,245,246,248,249,250,251,252,253,254,255,256,257,258,259,260,261,262,263,264,265,266,267,268,269,270,271,272,273,274,275,276,277,278,279,280,281,282,283,284,285,286,287,288,289,291,292,293,294,295,296,297,298,299,300,301,302,303,304,305,306,307,308,309,310,312,313,314,315,316,317,318,319,320,321,322,323,324,325,326,327,328,329,330,331,332,333,334,335,336,337,338,339,340],"categories_nodes":[2,17,23],"categories_segments":[0,48,368],"categories_sizes":[48,320,331],"default_left":[0,0,1,0,0,0,0,0,1,1,0,0,0,0,1,0,1,0,0,0,0,0,1,0,0,1,0,0,0,1,0,0,0,0,0,0,0,0,0,0,0,0,0,0,0,0,0,0,0,0,0,0,0,0,0,0,0],"id":0,"left_children":[1,3,5,7,9,11,13,15,17,19,21,23,25,27,29,31,33,35,37,39,-1,-1,41,43,45,47,49,51,53,55,-1,-1,-1,-1,-1,-1,-1,-1,-1,-1,-1,-1,-1,-1,-1,-1,-1,-1,-1,-1,-1,-1,-1,-1,-1,-1,-1],"loss_changes":[1.0050473E4,3.8278516E3,5.3319365E3,1.7005872E3,1.3066362E3,2.7128726E3,8.6949963E2,1.0993599E3,7.959379E2,2.524499E2,4.0663477E2,2.3352236E3,7.6527637E2,5.442013E2,6.528535E2,4.5926953E2,2.242959E2,2.206633E2,1.9343555E2,6.446135E1,0E0,0E0,2.1048755E2,4.958181E2,9.058901E2,9.224746E2,2.3138916E2,1.7272952E2,6.844695E2,4.031299E1,0E0,0E0,0E0,0E0,0E0,0E0,0E0,0E0,0E0,0E0,0E0,0E0,0E0,0E0,0E0,0E0,0E0,0E0,0E0,0E0,0E0,0E0,0E0,0E0,0E0,0E0,0E0],"parents":[2147483647,0,0,1,1,2,2,3,3,4,4,5,5,6,6,7,7,8,8,9,9,10,10,11,11,12,12,13,13,14,14,15,15,16,16,17,17,18,18,19,19,22,22,23,23,24,24,25,25,26,26,27,27,28,28,29,29],"right_children":[2,4,6,8,10,12,14,16,18,20,22,24,26,28,30,32,34,36,38,40,-1,-1,42,44,46,48,50,52,54,56,-1,-1,-1,-1,-1,-1,-1,-1,-1,-1,-1,-1,-1,-1,-1,-1,-1,-1,-1,-1,-1,-1,-1,-1,-1,-1,-1],"split_conditions":[2.475E1,1.45E1,1E-45,1.835E1,2.6316668E1,3.38E1,3.927E1,9.5E0,2.2903334E1,5.77064E-3,2.003E1,1.45E1,3.893E1,2.8616667E1,-1.1698796E-2,1.435E1,2.319E1,1E-45,2.052E1,1.75E1,-2.41506E-1,-6.500456E-1,2.7716667E1,1E-45,2.967E1,3.4944E1,1.85E1,-3.8230624E-2,3.052E1,-4.4333334E0,-1.4087841E-1,-2.0032786E-1,-5.9602086E-2,-2.2777712E-1,-4.0833002E-1,-9.724799E-2,3.375275E-2,-1.8127012E-1,-7.575381E-2,-1.5533666E-2,1.7472903E-1,-1.7555384E-1,-4.3595466E-1,2.6721004E-1,1.1390058E-1,-1.1433478E-1,3.6844324E-2,2.12595E-1,4.678035E-3,2.1379407E-1,4.1179737E-1,1.22324996E-1,-2.825226E-2,-2.3272982E-1,-7.803463E-2,3.9768353E-1,1.2540445E-1],"split_indices":[5,6,2,5,7,5,5,6,7,13,5,6,5,7,13,5,7,2,5,6,0,0,7,2,5,8,6,11,5,10,0,0,0,0,0,0,0,0,0,0,0,0,0,0,0,0,0,0,0,0,0,0,0,0,0,0,0],"split_type":[0,0,1,0,0,0,0,0,0,0,0,0,0,0,0,0,0,1,0,0,0,0,0,1,0,0,0,0,0,0,0,0,0,0,0,0,0,0,0,0,0,0,0,0,0,0,0,0,0,0,0,0,0,0,0,0,0],"sum_hessian":[4.372E3,1.466E3,2.906E3,1.301E3,1.65E2,2.201E3,7.05E2,5.08E2,7.93E2,3.2E1,1.33E2,1.478E3,7.23E2,6.65E2,4E1,3.62E2,1.46E2,4.44E2,3.49E2,2.1E1,1.1E1,4.6E1,8.7E1,8.73E2,6.05E2,5.88E2,1.35E2,1.28E2,5.37E2,2.7E1,1.3E1,1.52E2,2.1E2,7.8E1,6.8E1,5.1E1,3.93E2,9.1E1,2.58E2,1.2E1,9E0,2.4E1,6.3E1,8.8E1,7.85E2,2.49E2,3.56E2,4.92E2,9.6E1,5.2E1,8.3E1,3.7E1,9.1E1,1.49E2,3.88E2,1.9E1,8E0],"tree_param":{"num_deleted":"0","num_feature":"22","num_nodes":"57","size_leaf_vector":"1"}},{"base_weights":[-3.3693727E-2,-2.0229547E0,1.170235E0,-1.3181969E0,-5.195208E0,2.055749E0,-7.6621187E-1,-3.7716215E0,-8.198126E-1,-8.790685E0,-3.7017689E0,1.7351841E0,4.7201977E0,4.2285135E-1,-2.1564944E0,-3.1502066E0,-3.512484E-1,-5.2973777E-2,-1.8103299E0,-3.6960882E-1,-1.0520961E1,2.3668677E-1,-4.7656636E0,2.6696892E0,7.682965E-1,3.5481758E0,5.985357E0,1.6512167E0,-6.802646E-1,-2.717866E0,3.2719395E0,-2.8929228E-1,-1.4310312E-1,4.7195118E-2,-2.4265073E-2,-2.0157579E-1,-3.6109313E-2,-7.062255E-1,-2.6555455E-1,1.1275961E-1,-1.09078005E-1,-2.1278368E-1,-4.0584135E-1,1.1485223E-1,2.2595888E-1,-2.5039226E-1,6.451358E-2,3.5273236E-1,1.6496313E-1,4.05396E-1,1.3456272E-1,5.445455E-2,2.3854636E-1,-1.01020396E-1,5.6152396E-2,-2.96365E-1,-1.2344154E-1,2.872979E-1,-8.782389E-2],"categories":[2,4],"categories_nodes":[21],"categories_segments":[0],"categories_sizes":[2],"default_left":[0,0,0,0,0,0,0,0,0,0,0,0,0,1,0,0,0,0,0,0,0,1,1,0,0,0,1,0,0,0,1,0,0,0,0,0,0,0,0,0,0,0,0,0,0,0,0,0,0,0,0,0,0,0,0,0,0,0,0],"id":1,"left_children":[1,3,5,7,9,11,13,15,17,19,21,23,25,27,29,31,-1,33,35,-1,37,39,41,43,45,47,49,51,53,55,57,-1,-1,-1,-1,-1,-1,-1,-1,-1,-1,-1,-1,-1,-1,-1,-1,-1,-1,-1,-1,-1,-1,-1,-1,-1,-1,-1,-1],"loss_changes":[1.0491673E4,3.662334E3,4.6860703E3,1.644074E3,1.4722837E3,1.5648857E3,1.4243678E3,2.0375659E2,8.587607E2,1.512041E2,9.200156E2,1.5067046E3,2.075791E2,6.3609863E2,1.2424883E3,1.858833E2,0E0,1.8286504E2,8.837411E2,0E0,9.3666016E1,1.7391026E2,3.1859375E2,6.604668E2,1.1681943E3,1.4825623E2,1.5574951E2,3.6289832E2,3.9043478E2,4.9691187E2,2.8752716E2,0E0,0E0,0E0,0E0,0E0,0E0,0E0,0E0,0E0,0E0,0E0,0E0,0E0,0E0,0E0,0E0,0E0,0E0,0E0,0E0,0E0,0E0,0E0,0E0,0E0,0E0,0E0,0E0],"parents":[2147483647,0,0,1,1,2,2,3,3,4,4,5,5,6,6,7,7,8,8,9,9,10,10,11,11,12,12,13,13,14,14,15,15,17,17,18,18,20,20,21,21,22,22,23,23,24,24,25,25,26,26,27,27,28,28,29,29,30,30],"right_children":[2,4,6,8,10,12,14,16,18,20,22,24,26,28,30,32,-1,34,36,-1,38,40,42,44,46,48,50,52,54,56,58,-1,-1,-1,-1,-1,-1,-1,-1,-1,-1,-1,-1,-1,-1,-1,-1,-1,-1,-1,-1,-1,-1,-1,-1,-1,-1,-1,-1],"split_conditions":[2.548E1,1.35E1,5E-2,1.46E1,2.003E1,3.8E1,1.65E1,9.5E0,9.5E0,1.55E1,2.675E1,1.55E1,3.998E1,2.675E1,3.853E1,1.072E1,-3.512484E-1,2.0546667E1,2.112E1,-3.6960882E-1,8E-1,1E-45,3.1353333E1,3.08E1,2.678E1,5.5E-1,2.3759412E-2,3.225E1,3.29E1,3.052E1,3.674E1,-2.8929228E-1,-1.4310312E-1,4.7195118E-2,-2.4265073E-2,-2.0157579E-1,-3.6109313E-2,-7.062255E-1,-2.6555455E-1,1.1275961E-1,-1.09078005E-1,-2.1278368E-1,-4.0584135E-1,1.1485223E-1,2.2595888E-1,-2.5039226E-1,6.451358E-2,3.5273236E-1,1.6496313E-1,4.05396E-1,1.3456272E-1,5.445455E-2,2.3854636E-1,-1.01020396E-1,5.6152396E-2,-2.96365E-1,-1.2344154E-1,2.872979E-1,-8.782389E-2],"split_indices":[5,6,15,5,5,5,6,6,6,6,7,6,5,7,5,5,0,7,5,0,16,3,7,5,5,16,11,5,5,5,7,0,0,0,0,0,0,0,0,0,0,0,0,0,0,0,0,0,0,0,0,0,0,0,0,0,0,0,0],"split_type":[0,0,0,0,0,0,0,0,0,0,0,0,0,0,0,0,0,0,0,0,0,1,0,0,0,0,0,0,0,0,0,0,0,0,0,0,0,0,0,0,0,0,0,0,0,0,0,0,0,0,0,0,0,0,0,0,0,0,0],"sum_hessian":[4.373E3,1.648E3,2.725E3,1.353E3,2.95E2,1.87E3,8.55E2,2.24E2,1.129E3,8.1E1,2.14E2,1.675E3,1.95E2,4.62E2,3.93E2,1.78E2,4.6E1,6.39E2,4.9E2,3.8E1,4.3E1,4.6E1,1.68E2,8.48E2,8.27E2,1.09E2,8.6E1,2.18E2,2.44E2,3.58E2,3.5E1,5.4E1,1.24E2,1.86E2,4.53E2,2.18E2,2.72E2,3.4E1,9E0,2.6E1,2E1,1.06E2,6.2E1,4.84E2,3.64E2,4.3E1,7.84E2,2.4E1,8.5E1,7.1E1,1.5E1,1.67E2,5.1E1,1.52E2,9.2E1,8.3E1,2.75E2,2.7E1,8E0],"tree_param":{"num_deleted":"0","num_feature":"22","num_nodes":"59","size_leaf_vector":"1"}},{"base_weights":[-4.8606467E-2,1.9231367E0,-7.168956E-1,1.5878309E0,4.399549E0,-1.9316427E-1,-2.1099162E0,2.2510598E0,4.9827358E-1,6.980689E0,3.325523E0,-4.9059382E-1,1.7950476E0,-1.7756935E0,-3.5885205E0,3.837921E0,1.5468806E0,2.2317271E0,4.882785E-2,1.5261011E-1,5.1293415E-1,1.6066462E0,3.8092818E0,4.6419132E-1,-7.8908694E-1,4.286321E0,1.0731407E0,-1.0326592E0,-2.7051685E0,-3.9762986E-1,-4.101395E0,1.2536228E-1,2.6824072E-1,8.626862E-2,3.409913E-1,1.6539012E-1,-7.419497E-2,2.0775435E-2,-1.6938984E-1,2.8289023E-3,1.9831418E-1,2.6211333E-1,1.1507799E-1,7.4711226E-2,-1.5638672E-2,-3.291011E-2,-9.50985E-2,3.1768557E-1,-0E0,8.811305E-2,-5.1881056E-2,5.74292E-2,-9.56159E-2,-1.070129E-1,-2.3786089E-1,-1.6132903E-1,9.112023E-2,-4.5495562E-2,-2.899722E-1],"categories":[0,1,2,3,4,5,6,7,8,9,10,12,14,17,18,19,20,21,22,23,24,25,26,27,29,30,31,32,33,34,35,37,38,39,40,41,42,43,45,46,47,48,49,50,51,52,53,54,55,56,58,60,61,62,63,64,65,66,67,68,69,70,71,74,75,76,78,79,80,81,82,83,84,85,86,88,89,90,91,92,93,94,96,97,98,100,101,102,103,104,105,106,107,108,109,111,112,113,114,115,116,117,118,119,120,121,122,123,124,125,126,127,128,129,130,131,132,133,134,135,136,138,139,140,141,144,145,147,148,149,150,151,152,154,156,157,160,161,162,163,164,167,168,169,170,171,172,173,174,175,176,177,178,179,180,181,182,184,185,187,189,190,192,193,195,197,198,199,200,201,202,203,204,205,206,207,208,209,210,211,212,213,214,215,216,217,219,220,221,222,223,224,226,227,230,231,233,234,237,238,240,241,242,243,244,245,246,248,250,252,253,254,256,257,258,259,260,261,262,263,264,265,266,267,268,270,271,272,274,275,278,279,280,281,282,283,284,286,287,288,292,293,294,295,297,298,299,300,301,302,304,305,306,307,308,309,310,311,312,313,316,317,320,321,322,323,324,327,330,331,332,333,334,335,337,338,339,340,1,3,10,12,17,26,27,33,37,39,41,47,49,54,65,66,67,68,70,71,75,82,83,88,98,105,106,108,112,123,134,147,150,160,178,181,189,192,203,212,214,222,237,238,244,260,265,266,275,286,299,300,301,322,327,334,337,0,2,3,4,5,6,8,9,10,11,12,13,14,15,16,17,19,20,21,22,23,24,25,26,27,28,29,1,26,41,47,82,83,88,106,123,147,266,0,1,2,3,4,5,6,7,8,9,10,11,12,13,14,15,17,18,19,20,21,22,23,24,25,26,27,28,29,30,31,32,33,34,35,36,37,38,39,40,41,42,43,45,46,47,48,49,50,51,52,53,54,55,56,58,59,60,61,62,63,64,65,66,67,68,69,70,71,72,74,75,76,77,78,79,80,81,82,83,84,85,86,88,89,90,91,92,93,94,95,96,97,98,99,100,101,102,103,104,105,106,107,108,109,110,111,112,113,114,115,116,117,118,119,120,121,122,123,124,125,126,127,128,129,130,131,132,133,134,135,136,137,138,139,140,141,143,144,145,146,147,148,149,150,151,152,153,154,155,156,157,158,159,160,161,162,163,164,165,167,168,169,170,171,172,173,174,175,176,177,178,179,180,181,182,183,184,185,186,187,188,189,190,191,192,193,194,195,196,197,198,199,200,201,202,203,204,205,206,207,208,209,210,211,212,213,214,215,216,217,218,219,220,221,222,223,224,225,226,227,228,229,230,231,233,234,236,237,238,239,240,241,242,243,244,245,246,248,249,250,252,253,254,255,256,257,258,259,260,261,262,263,264,265,266,267,268,269,270,271,272,274,275,276,277,278,279,280,281,282,283,284,286,287,288,290,291,292,293,294,295,296,297,298,299,300,301,302,303,304,305,306,307,308,309,310,311,312,313,314,315,316,317,319,320,321,322,323,324,325,327,328,329,330,331,332,333,334,335,336,337,338,339,340,0,1,2,3,4,5,6,7,8,9,10,12,13,14,15,16,17,18,19,20,21,22,23,24,25,26,27,29,30,31,32,33,34,35,36,37,38,39,40,41,42,43,44,45,46,47,48,49,50,51,52,53,54,55,56,57,58,59,60,61,62,63,64,65,66,67,68,69,70,71,72,73,74,75,76,78,79,80,81,82,83,84,85,86,87,88,89,90,91,92,93,94,95,96,97,98,99,100,101,102,103,104,105,106,107,108,109,110,111,112,113,114,115,116,117,118,119,120,121,122,123,124,125,126,127,128,129,130,131,132,133,134,135,136,137,138,139,140,141,142,143,144,145,146,147,148,149,150,151,152,153,154,155,156,157,158,159,160,161,162,163,164,165,166,167,168,169,170,171,172,173,174,175,176,177,178,179,180,181,182,183,184,185,187,188,189,190,192,193,195,196,197,198,199,200,201,202,203,204,205,206,207,208,209,210,211,212,213,214,215,216,217,218,219,220,221,222,223,224,225,226,227,229,230,231,232,233,234,235,236,237,238,239,240,241,242,243,244,245,246,247,248,249,250,251,252,253,254,255,256,257,258,259,260,261,262,263,264,265,266,267,268,269,270,271,272,273,274,275,276,277,278,279,280,281,282,283,284,285,286,287,288,289,290,291,292,293,294,295,296,297,298,299,300,301,302,303,304,305,306,307,308,309,310,311,312,313,315,316,317,318,319,320,321,322,323,324,325,326,327,328,329,330,331,332,333,334,335,336,337,338,339,340,0,1,2,3,4,5,6,8,10,11,12,13,14,15,16,17,19,20,21,24,25,26,27,28,29,30,31,32,33,34,36,37,38,39,40,41,42,43,44,45,46,47,48,49,50,51,52,53,54,55,56,57,59,60,61,62,63,64,65,66,67,68,69,70,71,72,73,74,75,76,77,78,79,80,82,83,84,86,87,88,90,91,92,93,94,95,96,97,98,99,100,101,102,103,104,105,106,107,108,109,110,111,112,113,114,115,116,118,119,120,121,122,123,124,125,127,128,129,130,131,132,133,134,135,136,137,139,140,141,142,143,144,145,146,147,148,149,150,151,152,153,154,155,156,157,158,159,160,161,162,163,165,166,168,170,171,172,173,174,175,178,180,181,182,183,184,185,186,187,188,189,190,191,192,193,194,195,196,197,198,199,201,202,203,204,206,207,210,211,212,213,214,215,216,217,218,219,220,221,222,224,225,227,228,229,230,231,232,233,234,235,236,237,238,239,240,241,242,243,244,245,246,247,248,249,250,251,252,253,254,255,256,257,258,259,260,261,262,263,265,266,267,268,269,270,271,272,273,275,276,277,278,279,281,283,284,285,286,287,288,289,290,291,292,293,294,295,296,297,298,299,300,301,302,303,305,306,307,308,309,310,311,312,313,314,315,316,317,318,319,321,333,339,340,14,20,38,50,51,60,74,79,92,133,157,172,175,201,215,219,233,243,253,254,283,287,293,295,306,0,1,2,3,4,5,6,7,8,9,10,11,12,13,14,15,16,17,18,19,20,21,22,23,24,25,26,27,28,29,30,31,32,33,34,35,36,37,38,39,40,41,42,43,44,45,46,47,48,50,51,52,53,54,55,56,57,58,59,60,61,62,63,64,65,66,67,69,71,72,73,74,75,76,77,78,79,80,81,82,83,84,85,86,87,88,89,90,91,92,93,94,95,96,97,99,100,101,102,103,104,105,106,107,108,109,110,111,113,114,115,116,117,118,119,120,121,122,123,124,125,126,127,128,129,130,131,132,133,134,135,136,137,138,139,140,141,142,143,144,145,146,147,148,149,150,151,152,153,154,155,156,157,158,159,160,161,162,163,164,165,166,167,168,169,170,171,172,173,174,175,176,177,179,180,181,182,183,184,185,186,187,188,189,190,191,192,193,194,195,196,197,198,199,200,201,202,204,205,206,207,208,209,210,211,212,213,214,215,216,217,218,219,220,221,222,223,224,225,226,227,228,229,230,231,232,233,234,235,236,237,239,240,241,242,243,244,245,246,247,248,249,250,251,252,253,254,255,256,257,258,259,260,261,262,263,264,265,266,267,268,269,270,271,272,273,274,275,276,277,278,279,280,281,282,283,284,285,286,287,288,289,290,291,292,293,294,295,296,297,298,300,301,302,303,304,305,306,307,308,309,310,311,312,313,314,315,316,317,318,319,320,321,322,323,324,325,326,327,328,329,330,331,332,333,334,335,336,337,338,339,340,3,4,9,15,16,19,20,26],"categories_nodes":[0,2,4,6,7,8,11,24,27,28],"categories_segments":[0,278,335,362,373,698,1031,1325,1350,1682],"categories_sizes":[278,57,27,11,325,333,294,25,332,8],"default_left":[0,0,1,0,1,0,1,0,0,1,1,0,0,1,0,0,0,1,1,0,0,0,0,1,1,0,1,0,1,0,0,0,0,0,0,0,0,0,0,0,0,0,0,0,0,0,0,0,0,0,0,0,0,0,0,0,0,0,0],"id":2,"left_children":[1,3,5,7,9,11,13,15,17,19,21,23,25,27,29,31,33,35,37,-1,-1,39,41,43,45,47,49,51,53,55,57,-1,-1,-1,-1,-1,-1,-1,-1,-1,-1,-1,-1,-1,-1,-1,-1,-1,-1,-1,-1,-1,-1,-1,-1,-1,-1,-1,-1],"loss_changes":[5.81382E3,8.966553E2,2.4013457E3,7.090696E2,2.6735645E2,1.4215471E3,4.1674658E2,6.5959155E2,2.9388058E2,1.3177649E2,5.598181E1,5.9748486E2,5.4135034E2,4.9909473E2,2.5543872E2,1.4266846E2,2.039226E2,1.3956433E2,2.52178E2,0E0,0E0,7.052424E1,3.346936E1,2.7400037E2,3.019295E2,2.6635815E2,1.795267E2,4.4320447E2,3.396062E2,1.2881209E2,2.7951343E2,0E0,0E0,0E0,0E0,0E0,0E0,0E0,0E0,0E0,0E0,0E0,0E0,0E0,0E0,0E0,0E0,0E0,0E0,0E0,0E0,0E0,0E0,0E0,0E0,0E0,0E0,0E0,0E0],"parents":[2147483647,0,0,1,1,2,2,3,3,4,4,5,5,6,6,7,7,8,8,9,9,10,10,11,11,12,12,13,13,14,14,15,15,16,16,17,17,18,18,21,21,22,22,23,23,24,24,25,25,26,26,27,27,28,28,29,29,30,30],"right_children":[2,4,6,8,10,12,14,16,18,20,22,24,26,28,30,32,34,36,38,-1,-1,40,42,44,46,48,50,52,54,56,58,-1,-1,-1,-1,-1,-1,-1,-1,-1,-1,-1,-1,-1,-1,-1,-1,-1,-1,-1,-1,-1,-1,-1,-1,-1,-1,-1,-1],"split_conditions":[1E-45,1E-1,1E-45,2E0,1E-45,5E-2,1E-45,1E-45,1E-45,2.4133333E1,2.0766666E1,1E-45,-2.6666668E-1,-1.130269E-1,-5.236652E-2,-1.91E-1,4.31E1,2.2E0,3.4381E1,1.5261011E-1,5.1293415E-1,3E0,3E0,2.578E1,1E-45,1.72E1,2.8752E1,1E-45,1E-45,-9.714286E-2,2.94E1,1.2536228E-1,2.6824072E-1,8.626862E-2,3.409913E-1,1.6539012E-1,-7.419497E-2,2.0775435E-2,-1.6938984E-1,2.8289023E-3,1.9831418E-1,2.6211333E-1,1.1507799E-1,7.4711226E-2,-1.5638672E-2,-3.291011E-2,-9.50985E-2,3.1768557E-1,-0E0,8.811305E-2,-5.1881056E-2,5.74292E-2,-9.56159E-2,-1.070129E-1,-2.3786089E-1,-1.6132903E-1,9.112023E-2,-4.5495562E-2,-2.899722E-1],"split_indices":[2,17,2,14,0,17,2,2,2,7,7,2,10,11,11,9,19,10,8,0,0,14,14,7,2,19,8,2,0,11,7,0,0,0,0,0,0,0,0,0,0,0,0,0,0,0,0,0,0,0,0,0,0,0,0,0,0,0,0],"split_type":[1,0,1,0,1,0,1,1,1,0,0,1,0,0,0,0,0,0,0,0,0,0,0,0,1,0,0,1,1,0,0,0,0,0,0,0,0,0,0,0,0,0,0,0,0,0,0,0,0,0,0,0,0,0,0,0,0,0,0],"sum_hessian":[4.405E3,1.113E3,3.292E3,9.86E2,1.27E2,2.396E3,8.96E2,6.1E2,3.76E2,3.1E1,9.6E1,2.087E3,3.09E2,7.38E2,1.58E2,1.82E2,4.28E2,7.4E1,3.02E2,1E1,2.1E1,2.5E1,7.1E1,4.96E2,1.591E3,6.5E1,2.44E2,4.15E2,3.23E2,2.3E1,1.35E2,4.7E1,1.35E2,4.19E2,9E0,6.6E1,8E0,2.77E2,2.5E1,1.5E1,1E1,5.3E1,1.8E1,2.41E2,2.55E2,1.203E3,3.88E2,5.3E1,1.2E1,2.06E2,3.8E1,8.7E1,3.28E2,1.84E2,1.39E2,1E1,1.3E1,2.3E1,1.12E2],"tree_param":{"num_deleted":"0","num_feature":"22","num_nodes":"59","size_leaf_vector":"1"}},{"base_weights":[-5.2564528E-2,-1.8359957E0,1.009272E0,-1.1723111E0,-4.8921437E0,1.9324888E0,-8.8135064E-1,-2.6379037E0,-4.4527936E-1,-6.6887677E-1,-4.0426455E0,1.4454457E0,4.7347918E0,9.762484E-2,-3.026035E0,-2.211869E0,-4.3396173E0,-1.6814449E0,3.4657982E-1,-2.161404E0,-5.19962E0,1.8342235E0,-1.3103143E0,5.564212E0,1.7229084E0,-1.8480787E0,9.513138E-1,-3.8178065E0,-5.007064E-1,-2.5340027E-1,-1.1230869E-1,-3.2884765E-1,-1.3579531E-1,-1.6618896E-2,-1.3325277E-1,6.3136674E-2,-1.8248292E-2,-1.8654993E-1,-2.2050582E-2,-3.6060226E-1,-1.3200317E-1,1.4739457E-1,2.8192937E-2,-4.1145515E-3,-1.7971785E-1,2.826303E-1,4.700764E-1,5.6992844E-3,3.867453E-1,8.850356E-3,-1.7289002E-1,9.716741E-2,-6.326448E-2,-9.5722035E-2,-2.570903E-1,1.0526362E-1,-1.2043114E-1],"categories":[0,1,2,3,4,6,8,14,16,17,20,23,26,33,41,51,54,67,68,70,82,83,88,89,99,100,101,116,126,133,134,136,140,144,148,155,164,178,179,185,189,200,203,212,213,218,233,238,260,261,263,265,266,267,275,283,284,294,295,299,300,315,340,0,1,2,3,4,6,7,8,9,10,11,12,14,16,17,18,19,20,21,23,24,25,26,27,29,30,32,33,35,50,60,76,222,235,236,253,257,271,288,312,0,1,2,3,4,33,70,83,126,133,155,200,263,283],"categories_nodes":[2,11,26],"categories_segments":[0,63,103],"categories_sizes":[63,40,14],"default_left":[0,0,1,0,0,0,0,0,0,0,1,1,1,0,0,0,0,0,1,1,0,0,0,0,0,0,1,0,1,0,0,0,0,0,0,0,0,0,0,0,0,0,0,0,0,0,0,0,0,0,0,0,0,0,0,0,0],"id":3,"left_children":[1,3,5,7,9,11,13,15,17,-1,19,21,23,25,27,29,31,33,35,37,39,41,43,45,47,49,51,53,55,-1,-1,-1,-1,-1,-1,-1,-1,-1,-1,-1,-1,-1,-1,-1,-1,-1,-1,-1,-1,-1,-1,-1,-1,-1,-1,-1,-1],"loss_changes":[8.366054E3,3.3182822E3,4.839992E3,1.4422871E3,1.323581E3,2.5107754E3,1.9154628E3,2.85115E2,8.976262E2,0E0,5.2421484E2,1.7148877E3,6.425132E2,1.050473E3,5.6116016E2,2.3427429E2,1.3754309E2,2.4617224E2,2.4893027E2,1.6400476E2,2.828623E2,1.0953179E3,3.9900162E2,2.8306885E2,4.786242E2,3.787138E2,5.6215015E2,1.5815381E2,2.5014908E2,0E0,0E0,0E0,0E0,0E0,0E0,0E0,0E0,0E0,0E0,0E0,0E0,0E0,0E0,0E0,0E0,0E0,0E0,0E0,0E0,0E0,0E0,0E0,0E0,0E0,0E0,0E0,0E0],"parents":[2147483647,0,0,1,1,2,2,3,3,4,4,5,5,6,6,7,7,8,8,10,10,11,11,12,12,13,13,14,14,15,15,16,16,17,17,18,18,19,19,20,20,21,21,22,22,23,23,24,24,25,25,26,26,27,27,28,28],"right_children":[2,4,6,8,10,12,14,16,18,-1,20,22,24,26,28,30,32,34,36,38,40,42,44,46,48,50,52,54,56,-1,-1,-1,-1,-1,-1,-1,-1,-1,-1,-1,-1,-1,-1,-1,-1,-1,-1,-1,-1,-1,-1,-1,-1,-1,-1,-1,-1],"split_conditions":[2.548E1,1.35E1,1E-45,1.782E1,1.568E1,3.67E1,5E-2,1.05E1,2E0,-6.6887677E-1,2.6366667E1,1E-45,3.5334E1,3.098E1,3.588E1,1.072E1,1.652E1,2.2753334E1,2.0546667E1,2.3326666E1,5E-2,5E-2,3.4663334E1,3.998E1,1.4651411E-2,1.65E1,1E-45,2.8143333E1,3.181E1,-2.5340027E-1,-1.1230869E-1,-3.2884765E-1,-1.3579531E-1,-1.6618896E-2,-1.3325277E-1,6.3136674E-2,-1.8248292E-2,-1.8654993E-1,-2.2050582E-2,-3.6060226E-1,-1.3200317E-1,1.4739457E-1,2.8192937E-2,-4.1145515E-3,-1.7971785E-1,2.826303E-1,4.700764E-1,5.6992844E-3,3.867453E-1,8.850356E-3,-1.7289002E-1,9.716741E-2,-6.326448E-2,-9.5722035E-2,-2.570903E-1,1.0526362E-1,-1.2043114E-1],"split_indices":[5,6,2,5,5,5,15,6,4,0,7,2,8,5,5,5,5,7,7,7,17,15,7,5,18,6,2,7,8,0,0,0,0,0,0,0,0,0,0,0,0,0,0,0,0,0,0,0,0,0,0,0,0,0,0,0,0],"split_type":[0,0,1,0,0,0,0,0,0,0,0,1,0,0,0,0,0,0,0,0,0,0,0,0,0,0,1,0,0,0,0,0,0,0,0,0,0,0,0,0,0,0,0,0,0,0,0,0,0,0,0,0,0,0,0,0,0],"sum_hessian":[4.41E3,1.645E3,2.765E3,1.356E3,2.89E2,1.858E3,9.07E2,4.46E2,9.1E2,3E1,2.59E2,1.588E3,2.7E2,6.25E2,2.82E2,3.64E2,8.2E1,3.54E2,5.56E2,1.03E2,1.56E2,1.393E3,1.95E2,2.09E2,6.1E1,1.89E2,4.36E2,2.13E2,6.9E1,5.3E1,3.11E2,5.1E1,3.1E1,9.4E1,2.6E2,2.69E2,2.87E2,6.7E1,3.6E1,1.24E2,3.2E1,9.8E2,4.13E2,1.13E2,8.2E1,1.53E2,5.6E1,4.8E1,1.3E1,6.3E1,1.26E2,3.31E2,1.05E2,3.4E1,1.79E2,2.7E1,4.2E1],"tree_param":{"num_deleted":"0","num_feature":"22","num_nodes":"57","size_leaf_vector":"1"}},{"base_weights":[-2.0163143E-2,1.8073814E0,-6.3019305E-1,2.3839428E0,4.5395797E-1,-4.4777412E-2,-1.9885209E0,3.3212209E0,1.596989E0,1.0886078E0,-9.915443E-1,4.6679822E-1,-1.3829834E0,-6.341443E-1,-2.5708005E0,2.9008615E0,6.670566E0,5.719474E0,1.3074597E0,4.3222162E-1,2.1225302E0,1.5346976E-1,-1.5601935E0,1.6044909E-1,1.8536338E0,-8.690455E-1,-2.4918566E0,8.6731815E-1,-1.5521948E0,-1.5258176E0,-3.4055905E0,-3.0426472E-2,1.9512305E-1,1.0981932E-1,4.91359E-1,1.46473E-1,4.1939783E-1,7.063131E-2,3.0652347E-1,6.577622E-2,-1.13487594E-1,8.5850485E-2,2.8747377E-1,-2.7915034E-1,-4.8277173E-2,8.4892824E-2,-1.82987E-2,1.8911085E-1,7.003666E-2,-2.4618147E-2,-1.3318248E-1,-3.103551E-1,-1.1062108E-1,1.5856905E-1,7.982447E-3,6.969295E-2,-1.06780104E-1,-7.022156E-2,-2.1090414E-1,-1.6986151E-1,-2.7054998E-1],"categories":[0,1,2,3,4,5,6,7,9,10,12,14,17,18,19,20,21,24,25,26,27,29,30,32,33,34,35,37,38,39,40,41,42,43,45,46,47,48,49,50,51,52,53,54,55,56,61,62,63,64,65,66,67,68,69,70,71,73,74,75,76,78,79,80,81,82,83,85,86,87,88,89,90,91,92,93,94,95,96,97,98,99,100,101,102,103,104,105,106,107,108,109,110,111,112,113,114,115,116,118,119,120,121,123,124,126,127,128,129,130,131,132,133,134,135,136,137,139,140,141,143,144,145,147,148,149,150,151,152,154,156,157,159,160,161,162,163,167,168,169,170,171,172,173,174,175,177,178,179,180,181,182,184,185,186,187,189,190,192,193,195,196,197,198,199,201,202,203,205,207,208,209,210,211,212,213,214,215,216,217,218,220,221,222,224,226,227,228,229,230,231,233,234,236,237,238,240,241,242,243,244,245,246,248,249,250,252,253,254,255,256,257,258,259,260,261,262,263,264,265,266,268,269,270,271,274,275,277,278,279,280,282,283,284,286,287,288,291,293,294,295,297,298,299,300,301,302,303,305,306,307,308,309,311,312,313,316,317,319,320,321,322,323,324,325,327,328,329,330,331,332,333,334,335,337,338,339,340,0,1,2,3,4,5,6,7,8,9,10,11,12,13,14,16,17,18,19,20,21,22,24,25,26,27,29,30,31,32,33,34,35,37,38,39,40,41,42,43,45,46,47,48,49,50,51,52,53,54,55,56,57,58,59,61,62,63,64,65,66,67,68,69,70,71,73,74,75,76,77,78,79,80,81,82,83,84,85,86,87,88,89,90,91,92,93,94,95,96,97,98,99,100,101,102,103,104,105,106,107,108,109,110,111,112,113,114,115,116,118,119,120,121,122,123,124,125,126,127,128,129,130,131,132,133,134,135,136,137,138,139,140,141,143,144,145,147,148,149,150,151,152,153,154,155,156,157,159,160,161,162,163,164,167,168,169,170,171,172,173,174,175,176,177,178,179,180,181,182,183,184,185,186,187,188,189,190,192,193,194,195,196,197,198,199,201,202,203,205,206,207,208,209,210,211,212,213,214,215,216,217,218,219,220,221,222,223,224,225,226,227,228,229,230,231,232,233,234,235,236,237,238,240,241,242,243,244,245,246,248,249,250,252,253,254,255,256,257,258,259,260,261,262,263,264,265,266,267,268,269,270,271,272,273,274,275,276,277,278,279,280,281,282,283,284,286,287,288,290,291,292,293,294,295,297,298,299,300,301,302,303,304,305,306,307,308,309,311,312,313,314,316,317,318,319,320,321,322,323,324,325,327,328,329,330,331,332,333,334,335,336,337,338,339,340,0,1,2,6,10,15,21,28,18,26,37,38,41,47,49,50,62,65,70,71,74,82,83,89,92,98,106,112,121,123,128,130,131,134,140,150,160,173,177,189,209,212,221,233,236,238,240,245,246,254,263,265,266,275,295,306,327,334,1,4,5,7,8,9,10,11,13,14,16,18,19,22,23,25,26,0,1,2,3,4,5,6,8,9,10,11,12,13,14,15,16,17,18,19,20,21,22,23,24,25,26,27,28,29,30,31,32,33,34,35,36,37,38,39,40,41,42,43,44,45,46,47,48,49,50,51,52,53,54,55,56,57,58,59,60,61,62,63,64,65,66,67,68,70,71,72,74,75,76,77,78,79,80,81,82,83,84,86,88,89,90,91,92,93,94,95,96,97,98,101,102,103,104,105,106,107,108,109,110,111,112,113,114,115,116,117,118,119,120,121,122,123,124,125,127,128,130,131,132,133,134,135,136,137,138,139,140,141,142,144,145,146,147,148,149,150,151,152,153,154,155,156,157,158,159,160,161,162,163,164,165,166,167,168,169,170,171,172,173,174,175,176,177,178,179,180,181,182,183,184,186,187,188,189,190,191,192,193,194,195,196,197,198,199,200,201,202,204,205,206,207,209,210,211,212,213,214,215,216,217,218,219,220,221,223,224,225,226,227,230,231,232,233,234,235,236,237,238,239,240,241,242,243,244,245,246,247,248,249,250,251,253,254,255,256,258,259,260,262,263,264,265,266,267,268,269,270,272,273,275,276,277,278,279,281,282,284,285,286,287,289,290,291,292,293,295,296,297,298,300,301,304,305,306,307,308,309,310,311,313,314,315,316,317,318,319,320,321,323,324,326,327,328,330,331,332,333,334,335,336,337,338,339,1,2,6,9,10,11,12,13,15,16,17,18,19,20,21,22,23,24,25,26,29,0,1,2,3,4,5,6,7,9,10,11,12,13,14,15,16,17,18,19,20,21,22,24,25,26],"categories_nodes":[0,3,4,5,14,23,24,27],"categories_segments":[0,278,594,602,652,669,977,998],"categories_sizes":[278,316,8,50,17,308,21,25],"default_left":[0,0,0,0,1,1,0,0,0,0,0,0,1,0,1,0,0,0,1,1,0,0,0,0,1,1,0,1,0,1,1,0,0,0,0,0,0,0,0,0,0,0,0,0,0,0,0,0,0,0,0,0,0,0,0,0,0,0,0,0,0],"id":4,"left_children":[1,3,5,7,9,11,13,15,17,19,21,23,25,27,29,31,33,35,37,39,41,-1,43,45,47,49,51,53,55,57,59,-1,-1,-1,-1,-1,-1,-1,-1,-1,-1,-1,-1,-1,-1,-1,-1,-1,-1,-1,-1,-1,-1,-1,-1,-1,-1,-1,-1,-1,-1],"loss_changes":[4.9175474E3,8.5523145E2,2.6285474E3,5.464531E2,3.1129254E2,1.5884648E3,7.768801E2,4.1101172E2,4.773297E2,1.5407272E2,2.206893E2,7.102799E2,3.5518652E2,4.257123E2,5.8293994E2,3.1723242E2,1.7550867E2,3.233783E1,2.0354419E2,2.2561014E2,1.3714426E2,0E0,1.950941E2,7.793948E2,2.49146E2,2.6626248E2,3.1484814E2,1.4642003E2,1.068111E2,2.1127063E2,1.9329004E2,0E0,0E0,0E0,0E0,0E0,0E0,0E0,0E0,0E0,0E0,0E0,0E0,0E0,0E0,0E0,0E0,0E0,0E0,0E0,0E0,0E0,0E0,0E0,0E0,0E0,0E0,0E0,0E0,0E0,0E0],"parents":[2147483647,0,0,1,1,2,2,3,3,4,4,5,5,6,6,7,7,8,8,9,9,10,10,11,11,12,12,13,13,14,14,15,15,16,16,17,17,18,18,19,19,20,20,22,22,23,23,24,24,25,25,26,26,27,27,28,28,29,29,30,30],"right_children":[2,4,6,8,10,12,14,16,18,20,22,24,26,28,30,32,34,36,38,40,42,-1,44,46,48,50,52,54,56,58,60,-1,-1,-1,-1,-1,-1,-1,-1,-1,-1,-1,-1,-1,-1,-1,-1,-1,-1,-1,-1,-1,-1,-1,-1,-1,-1,-1,-1,-1,-1],"split_conditions":[1E-45,5E-2,1E-1,1E-45,1E-45,1E-45,2.591E1,2.39E1,1E-1,5.5E0,-7.358231E-2,5E-2,3.0096666E1,3.5E-1,1E-45,2.1266666E1,-3.984127E-2,2.7166666E1,5.733333E0,1.6666667E-1,3.461E1,1.5346976E-1,-5.0150603E-3,1E-45,1E-45,-1.1333333E0,-1.1666666E0,1E-45,-1.2261207E-1,3.4923332E1,3.1416666E1,-3.0426472E-2,1.9512305E-1,1.0981932E-1,4.91359E-1,1.46473E-1,4.1939783E-1,7.063131E-2,3.0652347E-1,6.577622E-2,-1.13487594E-1,8.5850485E-2,2.8747377E-1,-2.7915034E-1,-4.8277173E-2,8.4892824E-2,-1.82987E-2,1.8911085E-1,7.003666E-2,-2.4618147E-2,-1.3318248E-1,-3.103551E-1,-1.1062108E-1,1.5856905E-1,7.982447E-3,6.969295E-2,-1.06780104E-1,-7.022156E-2,-2.1090414E-1,-1.6986151E-1,-2.7054998E-1],"split_indices":[2,15,15,2,0,2,7,19,16,19,11,17,7,15,0,7,11,7,10,10,7,0,18,2,0,10,10,0,11,7,7,0,0,0,0,0,0,0,0,0,0,0,0,0,0,0,0,0,0,0,0,0,0,0,0,0,0,0,0,0,0],"split_type":[1,0,0,1,1,1,0,0,0,0,0,0,0,0,1,0,0,0,0,0,0,0,0,1,1,0,0,1,0,0,0,0,0,0,0,0,0,0,0,0,0,0,0,0,0,0,0,0,0,0,0,0,0,0,0,0,0,0,0,0,0],"sum_hessian":[4.404E3,1.1E3,3.304E3,7.69E2,3.31E2,2.312E3,9.92E2,3.45E2,4.24E2,2.31E2,1E2,1.674E3,6.38E2,3.01E2,6.91E2,3.13E2,3.2E1,2.3E1,4.01E2,1.45E2,8.6E1,1.2E1,8.8E1,1.375E3,2.99E2,4.41E2,1.97E2,1.14E2,1.87E2,3.12E2,3.79E2,2.4E1,2.89E2,9E0,2.3E1,9E0,1.4E1,3.9E2,1.1E1,1.15E2,3E1,7.2E1,1.4E1,1.4E1,7.4E1,3.73E2,1.002E3,1.04E2,1.95E2,3.29E2,1.12E2,3.6E1,1.61E2,3.1E1,8.3E1,1.1E1,1.76E2,2.66E2,4.6E1,2.43E2,1.36E2],"tree_param":{"num_deleted":"0","num_feature":"22","num_nodes":"61","size_leaf_vector":"1"}},{"base_weights":[3.5159893E-2,3.058431E-1,-3.651338E-1,1.0655802E0,1.14173464E-1,1.268174E-1,-1.6150768E0,6.795376E-1,2.9079072E0,1.2758462E0,-2.0676853E-2,6.0130346E-1,-3.859618E-1,-5.740702E-1,-3.2632527E0,1.0681002E0,-5.224044E-1,4.2092052E-1,1.8213823E0,6.2358695E-1,4.3187704E0,-2.7437744E-1,9.452488E-3,1.4202094E-1,1.2081656E0,2.1936963E0,-5.246581E-1,2.8577977E-1,-1.4138008E0,-1.8699856E0,-4.335415E0,4.582472E-2,1.5343715E-1,1.5774632E-2,-1.2950149E-1,1.4129733E-1,-7.3960744E-2,4.908426E-4,1.3404626E-1,2.4829628E-2,3.2402512E-1,6.588459E-2,-7.261049E-3,8.975138E-2,-4.098304E-3,5.7965685E-2,2.1222658E-1,1.9099973E-1,-3.2835426E-3,-1.903632E-2,-1.0032873E-1,-1.1356735E-1,4.0112533E-2,-4.853578E-2,-2.3115656E-1,-1.7405282E-1,9.047165E-2,-6.0028374E-2,-2.962727E-1],"categories":[0,1,2,3,4,5,6,7,8,11,12,13,16,18,19,20,22,23,24,25,26,27,28,29,2,4,5,8,9,10,12,14,15,17,19,23,26,27,3,4,6,7,8,10,11,14,16,18,20,24,27,0,1,2,3,4,5,6,7,8,9,10,11,12,13,14,15,16,18,19,20,21,22,23,24,25,26,27,28,29,14,15,0,1,2,3,4,5],"categories_nodes":[1,5,6,8,16,25],"categories_segments":[0,24,38,51,80,82],"categories_sizes":[24,14,13,29,2,6],"default_left":[0,1,0,0,0,1,1,0,1,0,0,0,0,0,0,0,1,0,1,0,0,0,0,0,1,1,1,0,1,1,0,0,0,0,0,0,0,0,0,0,0,0,0,0,0,0,0,0,0,0,0,0,0,0,0,0,0,0,0],"id":5,"left_children":[1,3,5,7,9,11,13,15,17,19,21,23,25,27,29,31,33,-1,35,37,39,-1,41,43,45,47,49,51,53,55,57,-1,-1,-1,-1,-1,-1,-1,-1,-1,-1,-1,-1,-1,-1,-1,-1,-1,-1,-1,-1,-1,-1,-1,-1,-1,-1,-1,-1],"loss_changes":[4.758111E2,3.8034753E2,1.0906984E3,3.6465698E2,3.296029E2,3.1095233E2,8.494464E2,2.0835999E2,3.337052E2,4.2057684E2,2.5644406E2,1.8341557E2,2.2280034E2,2.2744841E2,2.529104E2,1.4444974E2,1.3986746E2,0E0,1.23261856E2,1.7660281E2,1.3214014E2,0E0,2.5727795E2,1.07308556E2,1.5242657E2,6.902536E1,1.3618121E2,1.27878E2,2.1837955E2,3.1296896E2,1.573324E2,0E0,0E0,0E0,0E0,0E0,0E0,0E0,0E0,0E0,0E0,0E0,0E0,0E0,0E0,0E0,0E0,0E0,0E0,0E0,0E0,0E0,0E0,0E0,0E0,0E0,0E0,0E0,0E0],"parents":[2147483647,0,0,1,1,2,2,3,3,4,4,5,5,6,6,7,7,8,8,9,9,10,10,11,11,12,12,13,13,14,14,15,15,16,16,18,18,19,19,20,20,22,22,23,23,24,24,25,25,26,26,27,27,28,28,29,29,30,30],"right_children":[2,4,6,8,10,12,14,16,18,20,22,24,26,28,30,32,34,-1,36,38,40,-1,42,44,46,48,50,52,54,56,58,-1,-1,-1,-1,-1,-1,-1,-1,-1,-1,-1,-1,-1,-1,-1,-1,-1,-1,-1,-1,-1,-1,-1,-1,-1,-1,-1,-1],"split_conditions":[2E0,1E-45,1.75E1,2.15E1,-6.7389615E-2,1E-45,1E-45,1.55E1,1E-45,1.85E1,-5.6533646E-2,2E0,-4.0476665E0,3E0,3E0,1.35E1,1E-45,4.2092052E-1,2.6467029E-2,-9.535319E-2,-1.11348875E-1,-2.7437744E-1,-1.3646983E-2,8.5E0,1.0791667E-1,1E-45,1.5969113E-2,1.85E1,1.125264E-2,7.908616E-3,1.85E1,4.582472E-2,1.5343715E-1,1.5774632E-2,-1.2950149E-1,1.4129733E-1,-7.3960744E-2,4.908426E-4,1.3404626E-1,2.4829628E-2,3.2402512E-1,6.588459E-2,-7.261049E-3,8.975138E-2,-4.098304E-3,5.7965685E-2,2.1222658E-1,1.9099973E-1,-3.2835426E-3,-1.903632E-2,-1.0032873E-1,-1.1356735E-1,4.0112533E-2,-4.853578E-2,-2.3115656E-1,-1.7405282E-1,9.047165E-2,-6.0028374E-2,-2.962727E-1],"split_indices":[14,1,6,6,12,1,1,6,1,6,13,4,9,14,14,6,1,0,18,12,12,0,13,6,11,1,18,6,18,13,6,0,0,0,0,0,0,0,0,0,0,0,0,0,0,0,0,0,0,0,0,0,0,0,0,0,0,0,0],"split_type":[0,1,0,0,0,1,1,0,1,0,0,0,0,0,0,0,1,0,0,0,0,0,0,0,0,1,0,0,0,0,0,0,0,0,0,0,0,0,0,0,0,0,0,0,0,0,0,0,0,0,0,0,0,0,0,0,0,0,0],"sum_hessian":[4.384E3,2.617E3,1.767E3,5.23E2,2.094E3,1.27E3,4.97E2,4.37E2,8.6E1,2.15E2,1.879E3,6.6E2,6.1E2,3.08E2,1.89E2,3.31E2,1.06E2,1.4E1,7.2E1,1.81E2,3.4E1,9E0,1.87E3,3.79E2,2.81E2,2.8E1,5.82E2,1.53E2,1.55E2,8.7E1,1.02E2,2.76E2,5.5E1,7.3E1,3.3E1,6.3E1,9E0,1.33E2,4.8E1,8E0,2.6E1,1.98E2,1.672E3,4.9E1,3.3E2,2.57E2,2.4E1,1.9E1,9E0,4.93E2,8.9E1,2E1,1.33E2,1.27E2,2.8E1,6.8E1,1.9E1,1.5E1,8.7E1],"tree_param":{"num_deleted":"0","num_feature":"22","num_nodes":"59","size_leaf_vector":"1"}},{"base_weights":[-2.69777E-2,5.9801054E-1,-1.4151206E0,1.7289056E0,3.4831747E-1,-9.06879E-1,-3.537138E0,2.732225E0,1.0744847E0,7.5949156E-1,3.258625E-2,-4.7157507E-2,-1.2915708E0,-2.4946024E0,-5.377348E0,4.188075E0,1.255409E0,2.8434098E0,5.1281047E-1,8.277373E-1,-2.8536913E-1,5.5053186E-1,-4.2957056E-1,1.0767329E0,-7.7551806E-1,-5.5688834E-1,-2.0115936E0,-1.4118251E0,-3.5853825E0,-4.0714507E0,-4.5277008E-1,1.596151E-1,3.8658643E-1,1.6793552E-1,1.1331964E-2,2.1964318E-1,-2.9364215E-2,1.2134135E-1,-1.2450777E-2,6.943329E-2,-6.826207E-3,2.6745984E-2,2.782337E-1,-1.0089001E-2,-8.7916546E-2,1.6299069E-1,4.0465508E-2,4.857758E-2,-8.692121E-2,3.375693E-2,-8.595071E-2,-6.750642E-2,-1.7441042E-1,-2.4554242E-1,-7.496411E-3,-1.644816E-1,-3.3725923E-1,-2.8700504E-1,6.2857447E-3],"categories":[0,2,4,0,5,7,8,11,12,13,14,19,20,21,23,24,26,28,29,2,4,6,8,14,19,20,27,0,2,3,4,5,7,9,10,11,12,13,14,16,17,19,21,22,23,25,28,29,1,2,3,4,5,6,7,8,9,10,11,12,14,15,16,18,20,21,22,23,25,26,29,1,2,3,5,7,13,15,19,23,24,25,26,27,28,29,0,1,3,5,6,7,8,9,11,12,13,15,17,18,19,23,24,1,3,4,5,9,11,13,15,18,19,21,22,23,27,28,29,2,4,1,2,3,4,5,6,7,8,9,10,11,13,15,16,19,20,21,22,23,25,26,27,28,29,7,14,16,20,24,27,28,29,0,1,2,3,4,5,6,7,8,9,10,11,12,14,15,16,17,18,19,20,21,22,23,0,1,4,5,9,13,14,15,16,17,20,21,23,26,1,4,5,6,10,12,13,15,16,18,21,22,27,0,1,2,3],"categories_nodes":[3,4,6,7,8,10,11,12,13,18,19,24,25,26,29],"categories_segments":[0,3,19,27,48,71,86,103,119,121,145,153,176,190,203],"categories_sizes":[3,16,8,21,23,15,17,16,2,24,8,23,14,13,4],"default_left":[0,0,0,1,1,0,1,1,1,0,1,1,1,1,1,1,0,1,1,1,0,1,0,0,1,1,1,0,1,1,0,0,0,0,0,0,0,0,0,0,0,0,0,0,0,0,0,0,0,0,0,0,0,0,0,0,0,0,0],"id":6,"left_children":[1,3,5,7,9,11,13,15,17,19,21,23,25,27,29,31,33,35,37,39,-1,41,43,45,47,49,51,53,55,57,-1,-1,-1,-1,-1,-1,-1,-1,-1,-1,-1,-1,-1,-1,-1,-1,-1,-1,-1,-1,-1,-1,-1,-1,-1,-1,-1,-1,-1],"loss_changes":[3.794025E3,8.475676E2,1.4490994E3,3.432522E2,3.206295E2,3.628927E2,4.4395508E2,4.316084E2,3.2574796E2,4.092968E2,3.3724896E2,2.8519888E2,3.958733E2,1.8256812E2,1.1736499E2,2.837307E2,1.7252766E2,2.063753E2,2.7627997E2,3.077218E2,0E0,2.90502E2,1.9624452E2,8.1173294E1,2.189932E2,3.6220065E2,2.7606982E2,3.0967908E2,8.295032E1,1.6962122E2,0E0,0E0,0E0,0E0,0E0,0E0,0E0,0E0,0E0,0E0,0E0,0E0,0E0,0E0,0E0,0E0,0E0,0E0,0E0,0E0,0E0,0E0,0E0,0E0,0E0,0E0,0E0,0E0,0E0],"parents":[2147483647,0,0,1,1,2,2,3,3,4,4,5,5,6,6,7,7,8,8,9,9,10,10,11,11,12,12,13,13,14,14,15,15,16,16,17,17,18,18,19,19,21,21,22,22,23,23,24,24,25,25,26,26,27,27,28,28,29,29],"right_children":[2,4,6,8,10,12,14,16,18,20,22,24,26,28,30,32,34,36,38,40,-1,42,44,46,48,50,52,54,56,58,-1,-1,-1,-1,-1,-1,-1,-1,-1,-1,-1,-1,-1,-1,-1,-1,-1,-1,-1,-1,-1,-1,-1,-1,-1,-1,-1,-1,-1],"split_conditions":[5E-2,5E-1,1.95E1,1E-45,1E-45,9.5E0,1E-45,1E-45,1E-45,3.05E1,1E-45,1E-45,1E-45,1E-45,-2.7345454E-2,-1.5272728E-1,8.333333E-1,1.0187908E-2,1E-45,1E-45,-2.8536913E-1,3.6063E1,2.05E1,-4E-1,1E-45,1E-45,1E-45,2.5E-1,2.215063E-2,1E-45,-4.5277008E-1,1.596151E-1,3.8658643E-1,1.6793552E-1,1.1331964E-2,2.1964318E-1,-2.9364215E-2,1.2134135E-1,-1.2450777E-2,6.943329E-2,-6.826207E-3,2.6745984E-2,2.782337E-1,-1.0089001E-2,-8.7916546E-2,1.6299069E-1,4.0465508E-2,4.857758E-2,-8.692121E-2,3.375693E-2,-8.595071E-2,-6.750642E-2,-1.7441042E-1,-2.4554242E-1,-7.496411E-3,-1.644816E-1,-3.3725923E-1,-2.8700504E-1,6.2857447E-3],"split_indices":[15,16,6,3,0,6,1,0,0,6,1,1,0,3,12,11,10,11,1,1,0,8,6,10,0,1,1,15,12,0,0,0,0,0,0,0,0,0,0,0,0,0,0,0,0,0,0,0,0,0,0,0,0,0,0,0,0,0,0],"split_type":[0,0,0,1,1,0,1,1,1,0,1,1,1,1,0,0,0,0,1,1,0,0,0,0,1,1,1,0,0,1,0,0,0,0,0,0,0,0,0,0,0,0,0,0,0,0,0,0,0,0,0,0,0,0,0,0,0,0,0],"sum_hessian":[4.365E3,3.011E3,1.354E3,5.4E2,2.471E3,1.097E3,2.57E2,2.08E2,3.32E2,1.07E3,1.401E3,3.41E2,7.56E2,1.7E2,8.7E1,1.01E2,1.07E2,7.6E1,2.56E2,1.06E3,1E1,6.61E2,7.4E2,1.33E2,2.08E2,3.78E2,3.78E2,9E1,8E1,6E1,2.7E1,6.3E1,3.8E1,4.2E1,6.5E1,6.2E1,1.4E1,8.2E1,1.74E2,7.99E2,2.61E2,6.47E2,1.4E1,5.9E2,1.5E2,2.3E1,1.1E2,6E1,1.48E2,1.64E2,2.14E2,1.86E2,1.92E2,2.7E1,6.3E1,6.1E1,1.9E1,5.2E1,8E0],"tree_param":{"num_deleted":"0","num_feature":"22","num_nodes":"59","size_leaf_vector":"1"}},{"base_weights":[-5.2740615E-2,-1.5302235E0,1.0853153E0,-1.0505105E0,-4.4374E0,1.8097628E0,-5.996572E-1,-2.285374E0,-4.1588157E-2,-4.4972873E-1,-3.55779E0,3.5194843E0,1.2399206E0,9.058316E-1,-1.366841E0,-3.1381103E-1,-1.9169395E0,3.5166174E-1,-1.4696774E0,-2.0440264E0,-4.9175615E0,2.6524968E0,5.712918E0,3.168436E0,7.297001E-1,3.2685702E0,3.0569825E-1,-2.6736295E0,1.6955025E-1,-7.13891E-2,-1.7714614E-1,-2.8232148E-2,6.1815973E-2,-1.3460626E-1,-1.1767553E-4,4.8891854E-2,-1.6402161E-1,-3.393656E-1,-1.030256E-1,2.0863251E-1,-5.7495017E-2,3.6985302E-1,6.5974265E-2,1.3102132E-1,2.695208E-1,2.2126194E-2,2.6187667E-1,4.5483656E-2,2.3644073E-1,7.851835E-2,-3.2561164E-2,-1.0713409E-1,-2.5324455E-1,3.9503668E-2,-1.6690597E-1],"categories":[0,1,2,3,4,5,6,7,8,9,10,11,12,14,15,17,19,20,21,22,24,25,26,27,28,29,30,32,33,34,35,36,37,38,39,40,41,42,43,44,45,46,47,48,49,50,51,52,53,54,55,56,57,58,59,61,62,63,64,65,66,67,68,69,70,71,72,74,76,77,78,79,80,81,82,83,84,86,87,89,90,91,92,93,94,95,96,97,98,99,100,101,102,103,104,105,106,107,108,109,110,111,112,113,114,115,116,117,118,119,120,121,122,123,124,125,126,127,128,129,131,132,133,134,135,136,137,138,139,140,141,143,144,145,146,147,149,150,151,152,153,154,155,156,158,159,161,162,163,164,165,167,168,169,170,171,172,173,174,175,176,177,178,179,180,181,182,184,185,186,187,189,190,192,193,194,195,196,197,198,199,200,201,202,203,205,206,207,208,209,210,211,212,213,214,215,216,217,218,219,220,221,222,223,224,225,226,227,228,229,230,231,233,234,236,237,238,239,240,241,242,243,244,245,246,249,250,252,253,254,255,256,257,258,259,261,262,263,264,265,266,268,269,270,272,273,274,275,276,277,278,279,280,281,282,283,284,286,287,288,290,291,292,296,297,298,300,301,302,303,304,305,306,307,308,309,310,311,313,314,315,316,317,319,320,321,322,323,324,325,326,327,328,329,330,331,332,333,334,335,336,337,338,339,340,0,1,2,3,4,5,6,7,9,10,11,13,14,15,16,17,18,19,20,21,22,24,26,27,28,29,0,2,5,12,13,17,18,22,23,25,26,27,28,0,1,2,3,4,5,6,7,8,9,10,11,13,14,15,16,17,18,19,20,21,22,24,25,26,27,28,29],"categories_nodes":[5,13,16,19],"categories_segments":[0,305,331,344],"categories_sizes":[305,26,13,28],"default_left":[0,1,0,0,0,0,1,0,1,0,0,0,0,1,0,0,1,0,0,1,1,1,1,0,0,0,0,0,0,0,0,0,0,0,0,0,0,0,0,0,0,0,0,0,0,0,0,0,0,0,0,0,0,0,0],"id":7,"left_children":[1,3,5,7,9,11,13,15,17,-1,19,21,23,25,27,-1,29,31,33,35,37,39,41,43,45,47,49,51,53,-1,-1,-1,-1,-1,-1,-1,-1,-1,-1,-1,-1,-1,-1,-1,-1,-1,-1,-1,-1,-1,-1,-1,-1,-1,-1],"loss_changes":[7.5072393E3,2.6879185E3,3.083247E3,2.0821074E3,5.942988E2,1.6995073E3,8.837195E2,7.450415E2,5.221016E2,0E0,4.0531152E2,7.711323E2,1.2969751E3,3.6066107E2,1.0189692E3,0E0,4.7719775E2,3.9169537E2,2.1350095E2,2.0795038E2,1.8643091E2,8.8823804E2,1.5524634E2,3.110652E2,1.371812E3,6.3677917E1,1.7568437E2,3.3849207E2,3.3027823E2,0E0,0E0,0E0,0E0,0E0,0E0,0E0,0E0,0E0,0E0,0E0,0E0,0E0,0E0,0E0,0E0,0E0,0E0,0E0,0E0,0E0,0E0,0E0,0E0,0E0,0E0],"parents":[2147483647,0,0,1,1,2,2,3,3,4,4,5,5,6,6,7,7,8,8,10,10,11,11,12,12,13,13,14,14,16,16,17,17,18,18,19,19,20,20,21,21,22,22,23,23,24,24,25,25,26,26,27,27,28,28],"right_children":[2,4,6,8,10,12,14,16,18,-1,20,22,24,26,28,-1,30,32,34,36,38,40,42,44,46,48,50,52,54,-1,-1,-1,-1,-1,-1,-1,-1,-1,-1,-1,-1,-1,-1,-1,-1,-1,-1,-1,-1,-1,-1,-1,-1,-1,-1],"split_conditions":[2.678E1,2.9073334E1,5E-2,2.012E1,2.052E1,1E-45,2.734E1,1.072E1,2.495E1,-4.4972873E-1,3.1746666E1,3.565E1,2.6456667E1,1E-45,3.388E1,-3.1381103E-1,1E-45,2.308E1,3E0,1E-45,4.3786075E-2,3.3115E1,6.335979E-2,3.045E1,3.927E1,1.9017382E-2,3.5E-1,3.335E1,3.7916668E1,-7.13891E-2,-1.7714614E-1,-2.8232148E-2,6.1815973E-2,-1.3460626E-1,-1.1767553E-4,4.8891854E-2,-1.6402161E-1,-3.393656E-1,-1.030256E-1,2.0863251E-1,-5.7495017E-2,3.6985302E-1,6.5974265E-2,1.3102132E-1,2.695208E-1,2.2126194E-2,2.6187667E-1,4.5483656E-2,2.3644073E-1,7.851835E-2,-3.2561164E-2,-1.0713409E-1,-2.5324455E-1,3.9503668E-2,-1.6690597E-1],"split_indices":[5,7,15,5,5,2,7,5,8,0,7,5,7,0,5,0,0,5,14,0,11,8,11,5,5,13,15,7,7,0,0,0,0,0,0,0,0,0,0,0,0,0,0,0,0,0,0,0,0,0,0,0,0,0,0],"split_type":[0,0,0,0,0,1,0,0,0,0,0,0,0,1,0,0,1,0,0,1,0,0,0,0,0,0,0,0,0,0,0,0,0,0,0,0,0,0,0,0,0,0,0,0,0,0,0,0,0,0,0,0,0,0,0],"sum_hessian":[4.457E3,1.939E3,2.518E3,1.669E3,2.7E2,1.761E3,7.57E2,7.48E2,9.21E2,5.6E1,2.14E2,4.35E2,1.326E3,2.55E2,5.02E2,8E1,6.68E2,7.24E2,1.97E2,1.06E2,1.08E2,3.18E2,1.17E2,2.73E2,1.053E3,4.8E1,2.07E2,2.7E2,2.32E2,3.83E2,2.85E2,3.24E2,4E2,1.3E2,6.7E1,1.9E1,8.7E1,8.8E1,2E1,2.63E2,5.5E1,1.08E2,9E0,1.55E2,1.18E2,9.58E2,9.5E1,1.1E1,3.7E1,9.5E1,1.12E2,1.71E2,9.9E1,2.02E2,3E1],"tree_param":{"num_deleted":"0","num_feature":"22","num_nodes":"55","size_leaf_vector":"1"}},{"base_weights":[3.198742E-2,-1.5415989E0,9.7469616E-1,-9.792056E-1,-4.3873353E0,1.5515938E0,-9.7307813E-1,-2.840508E0,-4.8498628E-1,-7.2651997E0,-3.2972565E0,2.1645892E0,1.6225953E-1,-1.23869844E-1,-2.6515133E0,-2.1783316E0,-4.223703E0,-0E0,-2.2579036E0,-5.6135974E0,-5.5263215E-1,-6.7636454E-1,-4.111082E0,1.8005973E0,4.868875E0,9.774825E-1,-1.0985206E0,-1.7969072E0,7.1121603E-1,-3.287662E0,-1.0828985E0,-2.148972E-1,-1.01747625E-1,-2.7164477E-1,-8.164972E-2,3.477015E-2,-6.4269915E-2,-9.758446E-2,-2.064283E-1,-5.9826948E-2,-3.9512148E-1,-2.4434793E-1,3.9967004E-2,-1.7898087E-1,-3.8070095E-1,1.2504542E-1,-3.3169746E-2,3.142438E-1,-2.0102104E-2,9.284737E-2,-5.7266843E-2,-1.7013182E-1,4.9020093E-2,8.774204E-2,-1.5344523E-1,6.1283853E-2,-2.5011384E-1,-2.3804193E-2,-2.2793157E-1,5.073837E-2,-2.1950099E-1],"categories":[0,1,3,17,20,23,26,33,41,49,54,67,68,71,75,81,82,83,89,100,106,116,131,133,134,140,144,148,150,155,185,213,238,253,265,266,271,283,284,294,295,306,322,340,20,38,47,49,65,66,77,98,112,118,121,143,173,205,209,212,213,221,229,302,306,328,334,10,38,50,60,99,129,189,204,209,218,246,11,2,9,13,22,24,29],"categories_nodes":[2,8,23,24,25],"categories_segments":[0,44,67,78,79],"categories_sizes":[44,23,11,1,6],"default_left":[0,0,1,0,0,0,0,1,1,0,0,0,0,0,0,0,1,1,0,0,0,0,0,1,1,1,0,0,0,0,1,0,0,0,0,0,0,0,0,0,0,0,0,0,0,0,0,0,0,0,0,0,0,0,0,0,0,0,0,0,0],"id":8,"left_children":[1,3,5,7,9,11,13,15,17,19,21,23,25,27,29,31,33,35,37,39,-1,41,43,45,47,49,51,53,55,57,59,-1,-1,-1,-1,-1,-1,-1,-1,-1,-1,-1,-1,-1,-1,-1,-1,-1,-1,-1,-1,-1,-1,-1,-1,-1,-1,-1,-1,-1,-1],"loss_changes":[6.5053936E3,2.609113E3,3.0881104E3,1.2589448E3,7.481489E2,1.8006665E3,8.930505E2,2.2422852E2,9.399558E2,3.8986816E0,4.1864575E2,1.4078794E3,6.749348E2,5.949018E2,1.9378284E2,1.1368024E2,2.8631958E1,5.163502E2,1.498147E2,1.536278E2,0E0,2.4495483E2,3.0957642E2,7.444756E2,2.4702368E2,4.174878E2,8.331398E2,3.3975226E2,4.0840402E2,1.786842E2,3.3292044E2,0E0,0E0,0E0,0E0,0E0,0E0,0E0,0E0,0E0,0E0,0E0,0E0,0E0,0E0,0E0,0E0,0E0,0E0,0E0,0E0,0E0,0E0,0E0,0E0,0E0,0E0,0E0,0E0,0E0,0E0],"parents":[2147483647,0,0,1,1,2,2,3,3,4,4,5,5,6,6,7,7,8,8,9,9,10,10,11,11,12,12,13,13,14,14,15,15,16,16,17,17,18,18,19,19,21,21,22,22,23,23,24,24,25,25,26,26,27,27,28,28,29,29,30,30],"right_children":[2,4,6,8,10,12,14,16,18,20,22,24,26,28,30,32,34,36,38,40,-1,42,44,46,48,50,52,54,56,58,60,-1,-1,-1,-1,-1,-1,-1,-1,-1,-1,-1,-1,-1,-1,-1,-1,-1,-1,-1,-1,-1,-1,-1,-1,-1,-1,-1,-1,-1,-1],"split_conditions":[2.548E1,1.35E1,1E-45,1.568E1,2.003E1,5E-2,5E-2,2.0313334E1,1E-45,1.75E1,2.675E1,3.768E1,1.65E1,3.072E1,3.417E1,1.072E1,2.6067818E-2,2.319E1,1.05E1,-3.076373E-3,-5.5263215E-1,-2.0576668E0,1.85E1,1E-45,1E-45,1E-45,3.398E1,2.5E-1,3.05E1,2.591E1,-1.4449085E-2,-2.148972E-1,-1.01747625E-1,-2.7164477E-1,-8.164972E-2,3.477015E-2,-6.4269915E-2,-9.758446E-2,-2.064283E-1,-5.9826948E-2,-3.9512148E-1,-2.4434793E-1,3.9967004E-2,-1.7898087E-1,-3.8070095E-1,1.2504542E-1,-3.3169746E-2,3.142438E-1,-2.0102104E-2,9.284737E-2,-5.7266843E-2,-1.7013182E-1,4.9020093E-2,8.774204E-2,-1.5344523E-1,6.1283853E-2,-2.5011384E-1,-2.3804193E-2,-2.2793157E-1,5.073837E-2,-2.1950099E-1],"split_indices":[5,6,2,5,5,15,15,7,2,6,7,5,6,5,5,5,13,7,6,18,0,9,6,2,2,0,5,16,6,7,12,0,0,0,0,0,0,0,0,0,0,0,0,0,0,0,0,0,0,0,0,0,0,0,0,0,0,0,0,0,0],"split_type":[0,0,1,0,0,0,0,0,1,0,0,0,0,0,0,0,0,0,0,0,0,0,0,1,1,1,0,0,0,0,0,0,0,0,0,0,0,0,0,0,0,0,0,0,0,0,0,0,0,0,0,0,0,0,0,0,0,0,0,0,0],"sum_hessian":[4.378E3,1.639E3,2.739E3,1.373E3,2.66E2,2.114E3,6.25E2,2.84E2,1.089E3,6.7E1,1.99E2,1.465E3,6.49E2,4.18E2,2.07E2,1.99E2,8.5E1,8.58E2,2.31E2,4.3E1,2.4E1,4.9E1,1.5E2,1.297E3,1.68E2,3.95E2,2.54E2,1.38E2,2.8E2,1.44E2,6.3E1,4.9E1,1.5E2,7.7E1,8E0,5.58E2,3E2,1.51E2,8E1,8E0,3.5E1,1.2E1,3.7E1,1.02E2,4.8E1,1.176E3,1.21E2,1.6E2,8E0,3.09E2,8.6E1,1.34E2,1.2E2,2.4E1,1.14E2,2.67E2,1.3E1,2E1,1.24E2,3.7E1,2.6E1],"tree_param":{"num_deleted":"0","num_feature":"22","num_nodes":"61","size_leaf_vector":"1"}},{"base_weights":[-6.244663E-2,-1.6409707E0,7.6997894E-1,-1.1560386E0,-5.1981697E0,1.3328499E0,-4.616499E-1,-2.9456732E0,-6.841123E-1,-8.472736E0,-3.7427053E0,5.159691E-1,2.302836E0,5.6528705E-1,-1.6408384E0,-2.2705498E0,-4.7042637E0,3.6665834E-2,-1.5295106E0,-2.5231186E-1,-5.8040583E-1,-4.6081915E0,-8.894109E-1,1.5403628E0,-8.388789E-1,1.8969207E0,4.6299567E0,1.3028029E0,-8.709077E-1,-2.216349E0,2.386113E0,-1.9289823E-1,-9.6787624E-2,-3.150249E-1,-1.3300987E-1,6.045134E-2,-1.8959763E-2,-1.4710097E-1,-3.5832416E-2,-3.530011E-1,-1.14542484E-1,3.3951316E-2,-1.9152427E-1,4.7890358E-2,1.7127505E-1,8.28117E-3,-1.8798022E-1,2.2247723E-1,8.424998E-2,3.4646145E-1,-0E0,1.0247473E-1,-5.931107E-2,-7.439266E-2,2.4604397E-1,-7.5290784E-2,-2.309788E-1,2.1339315E-1,-5.203527E-2],"categories":[0,3,4,5,8,9,13,17,18,22,26,28,29,0,1,2,3,4,5,6,7,8,9,1,2,4,15,18,24,25,26,27,2,7,10,14,19,20,22,26,27],"categories_nodes":[13,22,24,29],"categories_segments":[0,13,23,32],"categories_sizes":[13,10,9,9],"default_left":[0,0,0,0,0,0,0,0,0,0,0,0,0,1,0,0,0,0,0,0,0,0,1,0,1,0,1,1,1,1,0,0,0,0,0,0,0,0,0,0,0,0,0,0,0,0,0,0,0,0,0,0,0,0,0,0,0,0,0],"id":9,"left_children":[1,3,5,7,9,11,13,15,17,19,21,23,25,27,29,31,33,35,37,-1,-1,39,41,43,45,47,49,51,53,55,57,-1,-1,-1,-1,-1,-1,-1,-1,-1,-1,-1,-1,-1,-1,-1,-1,-1,-1,-1,-1,-1,-1,-1,-1,-1,-1,-1,-1],"loss_changes":[5.806452E3,2.604755E3,2.0083647E3,1.1281276E3,7.3764844E2,1.5677793E3,1.1059829E3,2.8680762E2,6.54349E2,7.438989E1,3.0853455E2,1.5095807E3,8.186997E2,5.2233887E2,1.0044026E3,1.05193726E2,3.5217163E1,1.9334251E2,4.0001196E2,0E0,0E0,2.735974E2,1.2416632E2,5.7922485E2,1.0232593E3,6.818855E2,6.292678E2,2.808415E2,2.9939822E2,5.530868E2,2.0825311E2,0E0,0E0,0E0,0E0,0E0,0E0,0E0,0E0,0E0,0E0,0E0,0E0,0E0,0E0,0E0,0E0,0E0,0E0,0E0,0E0,0E0,0E0,0E0,0E0,0E0,0E0,0E0,0E0],"parents":[2147483647,0,0,1,1,2,2,3,3,4,4,5,5,6,6,7,7,8,8,9,9,10,10,11,11,12,12,13,13,14,14,15,15,16,16,17,17,18,18,21,21,22,22,23,23,24,24,25,25,26,26,27,27,28,28,29,29,30,30],"right_children":[2,4,6,8,10,12,14,16,18,20,22,24,26,28,30,32,34,36,38,-1,-1,40,42,44,46,48,50,52,54,56,58,-1,-1,-1,-1,-1,-1,-1,-1,-1,-1,-1,-1,-1,-1,-1,-1,-1,-1,-1,-1,-1,-1,-1,-1,-1,-1,-1,-1],"split_conditions":[2.475E1,1.45E1,5E-2,1.568E1,1.982E1,3.233E1,1.65E1,9.5E0,9.5E0,1.55E1,5E-2,1.45E1,5E-2,1E-45,3.813E1,1.198E1,1.502E1,1.3993076E-2,2.142E1,-2.5231186E-1,-5.8040583E-1,2E0,1E-45,2E0,1E-45,1.45E1,8.780118E-3,3.1414E1,1.3257137E-1,1E-45,2.75E1,-1.9289823E-1,-9.6787624E-2,-3.150249E-1,-1.3300987E-1,6.045134E-2,-1.8959763E-2,-1.4710097E-1,-3.5832416E-2,-3.530011E-1,-1.14542484E-1,3.3951316E-2,-1.9152427E-1,4.7890358E-2,1.7127505E-1,8.28117E-3,-1.8798022E-1,2.2247723E-1,8.424998E-2,3.4646145E-1,-0E0,1.0247473E-1,-5.931107E-2,-7.439266E-2,2.4604397E-1,-7.5290784E-2,-2.309788E-1,2.1339315E-1,-5.203527E-2],"split_indices":[5,6,15,5,5,5,6,6,6,6,17,6,17,1,5,5,5,13,5,0,0,4,1,4,1,6,12,8,12,1,6,0,0,0,0,0,0,0,0,0,0,0,0,0,0,0,0,0,0,0,0,0,0,0,0,0,0,0,0],"split_type":[0,0,0,0,0,0,0,0,0,0,0,0,0,1,0,0,0,0,0,0,0,0,1,0,1,0,0,0,0,1,0,0,0,0,0,0,0,0,0,0,0,0,0,0,0,0,0,0,0,0,0,0,0,0,0,0,0,0,0],"sum_hessian":[4.411E3,1.522E3,2.889E3,1.344E3,1.78E2,1.983E3,9.06E2,2.76E2,1.068E3,4.9E1,1.29E2,1.08E3,9.03E2,4.85E2,4.21E2,2.06E2,7E1,5.78E2,4.9E2,1.3E1,3.6E1,9.7E1,3.2E1,6.15E2,4.65E2,7.75E2,1.28E2,3.21E2,1.64E2,3.7E2,5.1E1,8.4E1,1.22E2,5.6E1,1.4E1,1.53E2,4.25E2,2.51E2,2.39E2,6.5E1,3.2E1,2.1E1,1.1E1,3.88E2,2.27E2,3.26E2,1.39E2,1.73E2,6.02E2,1.04E2,2.4E1,2.77E2,4.4E1,1.56E2,8E0,2.31E2,1.39E2,3.8E1,1.3E1],"tree_param":{"num_deleted":"0","num_feature":"22","num_nodes":"59","size_leaf_vector":"1"}},{"base_weights":[1.20208375E-1,-9.090213E-2,1.6039348E0,-9.85486E-1,3.5778606E-1,2.547271E0,1.0256443E0,-3.8288584E-1,-1.659464E0,4.8324722E-1,-3.4815654E-1,1.3552687E0,3.9510944E0,1.7409341E0,-5.4480726E-1,1.2728474E-1,-1.1282573E0,-1.1693269E0,-3.051203E0,1.41822E0,3.7502357E-1,-2.179314E-2,-4.243823E0,2.5612557E0,-7.748512E-2,3.6702242E-1,2.736834E0,1.4184703E0,3.8028046E-1,1.3094509E0,-1.8045355E0,2.7898876E-2,-9.428884E-2,-0E0,-8.6361386E-2,1.7148234E-3,-1.1688847E-1,-1.524974E-1,-3.0956012E-1,1.1485115E-1,-3.0829072E-2,4.59177E-2,6.678325E-3,3.30214E-2,-6.792729E-2,-3.7010616E-1,-5.0030716E-2,1.9637863E-1,2.8868489E-2,7.463861E-2,-6.4304434E-2,8.7873474E-2,2.539995E-1,1.7875493E-2,1.0863956E-1,-4.8915233E-2,1.3121635E-1,-2.2138787E-2,-2.1242847E-1],"categories":[0,2,4,0,3,4,5,7,8,9,11,13,14,15,18,21,25,1,2,3,4,5,6,8,9,10,11,12,13,14,28,1,2,3,4,11,13,14,16,20,21,22,23,24,25,26,27,1,2,4,5,7,10,11,12,13,14,15,16,18,22,23,24,26,29,3,7,9,13,18,19,20,25,27,0,1,2,3,4,5,6,7,8,9,10,11,12],"categories_nodes":[2,7,11,17,20,21,30],"categories_segments":[0,3,17,31,47,65,74],"categories_sizes":[3,14,14,16,18,9,13],"default_left":[0,0,1,0,0,1,1,1,0,0,0,1,0,1,0,1,0,1,0,0,1,1,0,0,1,0,0,0,0,0,1,0,0,0,0,0,0,0,0,0,0,0,0,0,0,0,0,0,0,0,0,0,0,0,0,0,0,0,0],"id":10,"left_children":[1,3,5,7,9,11,13,15,17,19,21,23,25,27,29,31,33,35,37,39,41,43,45,47,49,-1,51,53,-1,55,57,-1,-1,-1,-1,-1,-1,-1,-1,-1,-1,-1,-1,-1,-1,-1,-1,-1,-1,-1,-1,-1,-1,-1,-1,-1,-1,-1,-1],"loss_changes":[1.3750624E3,1.5438298E3,2.858783E2,5.179636E2,2.2753757E2,3.186704E2,3.928702E2,2.6126886E2,3.9607043E2,2.1698795E2,4.8969727E2,2.04294E2,1.5969336E2,3.056424E2,2.680958E2,2.2593188E2,8.873596E1,4.0391266E2,1.20726074E2,2.0170999E2,1.943367E2,2.236549E2,1.6054218E2,7.798877E1,7.642672E1,0E0,9.263739E1,8.809628E1,0E0,8.978337E1,1.5554655E2,0E0,0E0,0E0,0E0,0E0,0E0,0E0,0E0,0E0,0E0,0E0,0E0,0E0,0E0,0E0,0E0,0E0,0E0,0E0,0E0,0E0,0E0,0E0,0E0,0E0,0E0,0E0,0E0],"parents":[2147483647,0,0,1,1,2,2,3,3,4,4,5,5,6,6,7,7,8,8,9,9,10,10,11,11,12,12,13,13,14,14,15,15,16,16,17,17,18,18,19,19,20,20,21,21,22,22,23,23,24,24,26,26,27,27,29,29,30,30],"right_children":[2,4,6,8,10,12,14,16,18,20,22,24,26,28,30,32,34,36,38,40,42,44,46,48,50,-1,52,54,-1,56,58,-1,-1,-1,-1,-1,-1,-1,-1,-1,-1,-1,-1,-1,-1,-1,-1,-1,-1,-1,-1,-1,-1,-1,-1,-1,-1,-1,-1],"split_conditions":[5E-2,4.5E-1,1E-45,1.35E1,3E0,-1.5272728E-1,-7.513597E-2,1E-45,3E0,-2.4666667E0,2.65E1,1E-45,-1.5243603E-2,3.674E1,2.762E1,9.3333334E-1,-5.6490046E-3,1E-45,2.35E1,2E0,1E-45,1E-45,2.95E1,3.5E-1,2.0313334E1,3.6702242E-1,1.8E0,8.5E0,3.8028046E-1,-6.9715185E-3,1E-45,2.7898876E-2,-9.428884E-2,-0E0,-8.6361386E-2,1.7148234E-3,-1.1688847E-1,-1.524974E-1,-3.0956012E-1,1.1485115E-1,-3.0829072E-2,4.59177E-2,6.678325E-3,3.30214E-2,-6.792729E-2,-3.7010616E-1,-5.0030716E-2,1.9637863E-1,2.8868489E-2,7.463861E-2,-6.4304434E-2,8.7873474E-2,2.539995E-1,1.7875493E-2,1.0863956E-1,-4.8915233E-2,1.3121635E-1,-2.2138787E-2,-2.1242847E-1],"split_indices":[17,16,3,6,14,11,12,1,14,10,6,1,18,7,7,10,18,1,6,14,1,1,6,16,7,0,10,6,0,12,1,0,0,0,0,0,0,0,0,0,0,0,0,0,0,0,0,0,0,0,0,0,0,0,0,0,0,0,0],"split_type":[0,0,1,0,0,0,0,1,0,0,0,1,0,0,0,0,0,1,0,0,1,1,0,0,0,0,0,0,0,0,1,0,0,0,0,0,0,0,0,0,0,0,0,0,0,0,0,0,0,0,0,0,0,0,0,0,0,0,0],"sum_hessian":[4.381E3,3.838E3,5.43E2,1.281E3,2.557E3,2.01E2,3.42E2,6.8E2,6.01E2,2.173E3,3.84E2,1.13E2,8.8E1,2.35E2,1.07E2,4.05E2,2.75E2,4.5E2,1.51E2,2.2E2,1.953E3,3.58E2,2.6E1,6E1,5.3E1,2.7E1,6.1E1,2.24E2,1.1E1,4.3E1,6.4E1,3.41E2,6.4E1,5.6E1,2.19E2,1.73E2,2.77E2,1.25E2,2.6E1,1.78E2,4.2E1,8.06E2,1.147E3,2.37E2,1.21E2,1.5E1,1.1E1,4.4E1,1.6E1,2.2E1,3.1E1,3.6E1,2.5E1,5.6E1,1.68E2,1.2E1,3.1E1,3.7E1,2.7E1],"tree_param":{"num_deleted":"0","num_feature":"22","num_nodes":"59","size_leaf_vector":"1"}},{"base_weights":[3.1397723E-2,1.5660813E0,-4.8756793E-1,2.4233694E0,8.1671965E-1,7.269597E-4,-1.5377498E0,4.4090176E0,1.8280063E0,2.0967612E0,1.0636866E-1,-2.2969866E-1,1.7793242E0,-1.0147172E0,-2.4473958E0,3.0202646E0,8.183565E0,1.5275719E0,3.6969066E0,2.7444842E-1,2.7845476E0,8.457396E-1,-8.52043E-1,-9.860177E-1,1.6442163E-1,2.4504092E0,4.783451E-1,-7.0904016E-1,-2.7006884E0,9.56758E-1,-2.7436898E0,2.2283135E-1,-3.3827133E-3,1.7116526E-2,6.817913E-1,-1.0417426E-3,1.1655685E-1,-5.3909104E-2,2.9750615E-1,-2.625957E-2,1.8010962E-1,2.972674E-1,1.17130026E-1,2.6599657E-2,1.9761345E-1,1.0117956E-2,-1.3708988E-1,-1.1207837E-2,-1.0157282E-1,5.923622E-2,-2.8837191E-2,1.9163999E-1,7.983092E-2,2.3359492E-1,-2.0954039E-2,-2.3648486E-2,-1.2993692E-1,-5.5403225E-3,-2.0652725E-1,1.6869786E-1,-8.193202E-2,-2.0279102E-1,-9.825551E-2],"categories":[0,1,2,3,4,5,6,7,9,10,11,12,14,15,17,19,20,23,24,25,26,27,29,30,31,32,33,35,36,37,38,39,40,41,42,43,45,46,47,48,49,50,51,52,53,54,55,56,57,58,61,62,63,64,65,66,67,68,69,70,71,74,75,76,78,79,80,81,82,83,84,85,86,87,88,89,90,91,93,94,96,97,98,100,101,102,103,104,105,106,108,109,110,111,112,113,114,115,116,118,119,120,121,123,124,125,126,127,128,130,131,132,133,134,135,136,138,139,140,141,143,144,145,146,147,148,150,151,152,153,154,155,156,160,161,162,163,164,167,168,169,170,171,172,173,174,175,177,178,179,180,181,182,184,185,186,187,189,190,192,193,195,197,199,201,202,203,205,207,208,209,210,211,212,213,214,215,216,217,218,219,220,221,222,223,225,226,227,230,231,233,234,236,237,238,240,241,242,243,244,245,246,248,249,250,252,253,254,255,256,258,259,260,261,262,263,264,265,266,267,268,269,270,271,272,274,275,276,277,278,279,280,282,283,284,286,287,288,291,294,295,297,298,299,300,301,302,303,305,306,307,308,309,311,312,313,316,317,320,321,322,323,324,325,327,328,329,330,331,332,333,334,335,336,337,338,339,340,0,2,3,4,5,6,7,9,12,15,19,20,21,23,24,25,3,4,5,10,12,23,26,33,37,38,41,47,51,65,68,71,75,81,82,83,89,100,105,106,112,123,132,133,134,140,144,147,148,154,155,160,172,173,175,181,189,213,218,221,237,238,245,253,260,261,263,265,266,268,275,295,299,301,306,311,312,327,330,0,1,2,3,4,5,6,7,8,9,10,11,12,13,14,15,16,17,18,19,20,21,22,23,24,25,26,27,28,29,30,31,32,33,34,35,36,37,38,39,40,41,42,43,44,45,46,47,48,49,50,51,52,53,54,55,56,57,58,59,60,61,62,63,64,65,66,67,68,69,70,71,72,73,74,75,76,77,78,79,80,81,82,83,84,85,86,87,88,89,90,91,92,93,94,95,96,97,98,99,100,101,102,103,104,105,106,107,108,109,110,111,112,113,114,115,116,117,118,119,120,121,122,123,124,125,126,127,128,129,130,131,132,133,134,135,136,137,138,139,140,141,143,144,145,146,147,148,149,150,151,152,153,154,155,156,157,159,160,161,162,163,164,165,166,167,168,169,170,171,172,173,174,175,176,177,178,179,180,181,182,183,184,185,186,187,189,190,192,193,195,196,197,198,199,200,201,202,203,205,207,208,209,210,211,212,213,214,215,216,217,218,219,220,221,222,223,224,225,226,227,228,229,230,231,232,233,234,235,236,237,238,239,240,241,242,243,244,245,246,247,248,249,250,251,252,253,254,255,256,257,258,259,260,261,262,263,264,265,266,267,268,269,270,271,272,274,275,276,277,278,279,280,281,282,283,284,285,286,287,288,289,290,291,292,293,294,295,296,297,298,299,300,301,302,303,304,305,306,307,308,309,310,311,312,313,314,316,317,319,320,321,322,323,324,325,327,328,329,330,331,332,333,334,335,336,337,338,339,340,0,1,2,3,4,5,6,7,8,9,10,11,12,14,15,16,17,18,19,20,21,22,23,24,25,26,27,29,30,31,32,33,35,36,37,38,39,40,41,42,43,45,46,47,48,49,50,51,52,53,54,55,56,57,58,61,62,63,64,65,66,67,68,69,70,71,73,74,75,76,77,78,79,80,81,82,83,84,85,86,87,88,89,90,91,92,93,94,96,97,98,99,100,101,102,103,104,105,106,107,108,109,110,111,112,113,114,115,116,117,118,119,120,121,123,124,125,126,127,128,130,131,132,133,134,135,136,137,138,139,140,141,142,143,144,145,146,147,148,149,150,151,152,153,154,155,156,157,158,159,160,161,162,163,164,165,166,167,168,169,170,171,172,173,174,175,176,177,178,179,180,181,182,184,185,186,187,188,189,190,192,193,194,195,196,197,198,199,200,201,202,203,204,205,206,207,208,209,210,211,212,213,214,215,216,217,218,219,220,221,222,223,224,225,226,227,228,229,230,231,232,233,234,236,237,238,240,241,242,243,244,245,246,248,249,250,252,253,254,255,256,258,259,260,261,262,263,264,265,266,267,268,269,270,271,272,273,274,275,276,277,278,279,280,281,282,283,284,285,286,287,288,289,290,291,292,293,294,295,296,297,298,299,300,301,302,303,304,305,306,307,308,309,310,311,312,313,315,316,317,319,320,321,322,323,324,325,326,327,328,329,330,331,332,333,334,335,336,337,338,339,340,1,4,7,8,11,13,14,16,20,26,27,3,4,12,15,20,21,23,0,1,2,3,4,5,6,7,8,9,10,11,12,13,14,15,16,17,18,19,20,21,22,23,24,25,26,27,28,29,30,31,32,33,34,35,36,37,38,39,40,41,42,43,44,45,46,47,48,49,50,51,52,53,54,55,56,57,58,59,60,61,62,63,64,65,66,67,68,69,70,71,72,73,74,75,76,77,78,79,80,81,82,83,84,85,86,87,88,89,90,91,92,93,94,95,96,97,98,99,100,101,102,103,104,105,106,107,108,109,110,111,112,113,114,115,116,117,118,119,120,121,122,123,124,125,126,127,128,129,130,131,132,133,134,135,136,137,138,139,140,141,142,143,144,145,146,147,148,149,150,151,152,153,154,155,156,157,158,159,160,161,162,163,164,165,166,167,168,169,170,171,172,173,174,175,176,177,178,179,180,181,182,183,184,185,186,187,188,189,190,191,192,193,194,195,196,197,198,199,200,201,202,203,204,205,206,207,208,209,210,211,212,214,215,216,217,218,219,220,221,222,223,224,225,226,227,228,229,230,231,232,233,234,235,236,237,239,240,241,242,243,244,245,246,247,248,249,250,251,252,253,254,255,256,257,258,259,260,261,262,263,264,265,266,267,268,269,270,271,272,273,274,275,276,277,278,279,280,281,282,283,284,285,286,287,288,289,290,291,292,293,294,295,296,297,298,299,300,301,302,303,304,305,306,307,308,309,310,312,0,1,2,3,5,6,7,8,10,11,13,14,16,17,18,19,20,21,22,23,24,25,26,27,28,29,0,1,2,3,5,6,7,8,10,11,13,16,17,22,26,0,1,2,3,4,5,6,8,10,12,13,14,16,17,18,19,20,21,22,23,24,25,26,27,28,29,30,32,33,34,35,36,37,38,39,40,41,42,43,44,45,46,47,48,49,50,51,52,53,55,56,57,58,59,60,61,62,63,64,65,66,67,68,69,71,72,73,74,75,76,77,78,79,80,81,82,83,84,86,87,89,90,91,92,93,94,95,96,97,99,100,101,102,103,104,105,106,107,108,109,110,111,112,113,114,115,116,117,118,119,120,121,122,123,124,125,127,128,129,130,131,132,133,134,135,137,138,139,140,141,142,144,145,147,148,149,150,151,152,153,154,155,156,157,158,159,160,161,162,163,164,165,166,167,168,169,170,171,172,173,174,175,176,177,180,181,182,183,184,187,188,189,190,191,192,193,194,195,196,197,198,199,200,201,202,204,205,206,207,209,210,211,213,214,216,217,218,219,220,221,222,224,227,228,229,230,231,232,233,234,235,237,238,239,240,241,242,243,244,245,246,247,248,250,251,252,253,254,256,257,258,259,260,261,262,263,265,266,268,270,272,273,275,276,277,278,279,281,282,285,286,287,289,290,291,292,293,295,296,297,298,299,300,301,302,304,305,306,307,308,309,310,311,312,313,314,315,316,317,318,319,71,112,133,155,213,238,265,275,327,0,1,2,3,4,5,6,7,8,9,10,11,12,13,14,15,16,17,18,19,20,21,22,23],"categories_nodes":[0,1,2,3,4,6,10,14,20,23,24,27,28],"categories_segments":[0,278,294,357,687,1009,1020,1027,1337,1363,1378,1659,1668],"categories_sizes":[278,16,63,330,322,11,7,310,26,15,281,9,24],"default_left":[0,1,1,0,0,0,1,0,0,0,1,0,0,1,0,0,0,0,0,0,1,1,1,1,0,0,0,1,1,1,0,0,0,0,0,0,0,0,0,0,0,0,0,0,0,0,0,0,0,0,0,0,0,0,0,0,0,0,0,0,0,0,0],"id":11,"left_children":[1,3,5,7,9,11,13,15,17,19,21,23,25,27,29,31,33,35,37,39,41,43,45,47,49,51,53,55,57,59,61,-1,-1,-1,-1,-1,-1,-1,-1,-1,-1,-1,-1,-1,-1,-1,-1,-1,-1,-1,-1,-1,-1,-1,-1,-1,-1,-1,-1,-1,-1,-1,-1],"loss_changes":[3.4943157E3,7.025342E2,1.6819277E3,5.736521E2,5.4116846E2,9.209886E2,4.8334082E2,5.054187E2,2.0109009E2,2.6166235E2,2.7823264E2,5.934144E2,2.1857233E2,3.3450537E2,3.912456E2,1.7659583E2,6.529855E2,2.0741736E2,3.0036975E2,1.2442666E2,2.3755566E2,2.094126E2,2.4402316E2,3.663062E2,6.7046936E2,1.13118774E2,2.6163458E2,2.5554175E2,1.7369678E2,1.5044612E2,2.0196362E2,0E0,0E0,0E0,0E0,0E0,0E0,0E0,0E0,0E0,0E0,0E0,0E0,0E0,0E0,0E0,0E0,0E0,0E0,0E0,0E0,0E0,0E0,0E0,0E0,0E0,0E0,0E0,0E0,0E0,0E0,0E0,0E0],"parents":[2147483647,0,0,1,1,2,2,3,3,4,4,5,5,6,6,7,7,8,8,9,9,10,10,11,11,12,12,13,13,14,14,15,15,16,16,17,17,18,18,19,19,20,20,21,21,22,22,23,23,24,24,25,25,26,26,27,27,28,28,29,29,30,30],"right_children":[2,4,6,8,10,12,14,16,18,20,22,24,26,28,30,32,34,36,38,40,42,44,46,48,50,52,54,56,58,60,62,-1,-1,-1,-1,-1,-1,-1,-1,-1,-1,-1,-1,-1,-1,-1,-1,-1,-1,-1,-1,-1,-1,-1,-1,-1,-1,-1,-1,-1,-1,-1,-1],"split_conditions":[1E-45,1E-45,1E-45,1E-45,1E-45,1E-1,1E-45,1.56E1,1E-1,3E-1,1E-45,4.5E-1,2E0,1.2723632E-2,1E-45,8E-1,-3.9001815E-2,2E-1,-1.0386355E-2,5E-2,1E-45,2.2448385E-2,-7.4022576E-2,1E-45,1E-45,3E0,1.1513859E-2,1E-45,1E-45,-2.8948924E-2,7E-1,2.2283135E-1,-3.3827133E-3,1.7116526E-2,6.817913E-1,-1.0417426E-3,1.1655685E-1,-5.3909104E-2,2.9750615E-1,-2.625957E-2,1.8010962E-1,2.972674E-1,1.17130026E-1,2.6599657E-2,1.9761345E-1,1.0117956E-2,-1.3708988E-1,-1.1207837E-2,-1.0157282E-1,5.923622E-2,-2.8837191E-2,1.9163999E-1,7.983092E-2,2.3359492E-1,-2.0954039E-2,-2.3648486E-2,-1.2993692E-1,-5.5403225E-3,-2.0652725E-1,1.6869786E-1,-8.193202E-2,-2.0279102E-1,-9.825551E-2],"split_indices":[2,1,2,2,2,17,1,19,17,16,1,16,4,18,2,16,12,16,12,17,1,18,12,1,2,14,13,2,1,13,16,0,0,0,0,0,0,0,0,0,0,0,0,0,0,0,0,0,0,0,0,0,0,0,0,0,0,0,0,0,0,0,0],"split_type":[1,1,1,1,1,0,1,0,0,0,1,0,0,0,1,0,0,0,0,0,1,0,0,1,1,0,0,1,1,0,0,0,0,0,0,0,0,0,0,0,0,0,0,0,0,0,0,0,0,0,0,0,0,0,0,0,0,0,0,0,0,0,0],"sum_hessian":[4.379E3,1.105E3,3.274E3,5.11E2,5.94E2,2.237E3,1.037E3,1.12E2,3.99E2,2.09E2,3.85E2,1.983E3,2.54E2,6.64E2,3.73E2,8.7E1,2.5E1,3.5E2,4.9E1,5.9E1,1.5E2,2.18E2,1.67E2,6.78E2,1.305E3,1.65E2,8.9E1,5.67E2,9.7E1,2.9E1,3.44E2,7.2E1,1.5E1,8E0,1.7E1,6.9E1,2.81E2,1E1,3.9E1,4.9E1,1E1,3.9E1,1.11E2,1.9E2,2.8E1,9.8E1,6.9E1,3.12E2,3.66E2,5.76E2,7.29E2,9.9E1,6.6E1,1.5E1,7.4E1,4.66E2,1.01E2,2.1E1,7.6E1,1.6E1,1.3E1,2.24E2,1.2E2],"tree_param":{"num_deleted":"0","num_feature":"22","num_nodes":"63","size_leaf_vector":"1"}},{"base_weights":[4.39983E-2,4.3175277E-1,-8.709203E-1,2.1761224E-1,1.4229232E0,-5.371435E-1,-2.1678977E0,1.6354553E-1,3.584079E0,1.9423982E0,5.824319E-1,-1.9175524E-1,-1.398746E0,-1.1828573E0,-4.106058E0,2.3314355E-1,-1.4652674E0,4.9437633E0,1.227673E0,5.180922E-1,3.4042006E0,1.889771E0,-8.5156757E-1,8.9331575E-2,-9.9941164E-1,-6.7868114E-1,-2.486659E0,-2.779921E0,-3.0378678E-1,-4.9735355E0,-3.7000662E-1,2.8975083E-2,-1.7637279E-2,-1.6991751E-1,7.733343E-2,4.2847458E-1,3.3025574E-2,1.1264218E-1,9.833326E-3,1.7720291E-1,-1.056185E-2,2.340073E-1,-0E0,1.2991813E-1,-1.020137E-2,1.7126207E-1,-8.846371E-2,6.034961E-2,-2.6279693E-2,-1.1100494E-1,6.5627894E-3,-2.431765E-2,-1.20154426E-1,-1.0598779E-1,-2.2168797E-1,-9.3229845E-2,-3.1012908E-1,1.4474492E-1,-7.601549E-2,-1.13619246E-1,-3.2450715E-1,4.1275624E-2,-8.834508E-2],"categories":[1,2,3,4,5,13,17,19,22,2,4,8,11,20,22,27,4,9,10,15,16,21,23,26,0,1,2,21,0,5,7,8,11,13,20,24,26,0,1,2,4,5,6,7,8,9,10,11,12,13,14,15,16,17,18,19,20,21,22,23,24,25,27,29,1,2,3,18,0,1,2,3,0,1,2,5,6,7,11,12,13,14,16,17,18,20,22,24,28,29,0,1,2,3,4,5,6,7,8],"categories_nodes":[5,6,12,14,15,19,20,21,23,27],"categories_segments":[0,9,16,24,28,37,64,68,72,90],"categories_sizes":[9,7,8,4,9,27,4,4,18,9],"default_left":[0,0,0,1,0,1,1,0,0,0,0,0,1,0,1,1,0,0,0,1,1,1,0,1,0,0,0,1,0,0,1,0,0,0,0,0,0,0,0,0,0,0,0,0,0,0,0,0,0,0,0,0,0,0,0,0,0,0,0,0,0,0,0],"id":12,"left_children":[1,3,5,7,9,11,13,15,17,19,21,23,25,27,29,31,33,35,37,39,41,43,45,47,49,51,53,55,57,59,61,-1,-1,-1,-1,-1,-1,-1,-1,-1,-1,-1,-1,-1,-1,-1,-1,-1,-1,-1,-1,-1,-1,-1,-1,-1,-1,-1,-1,-1,-1,-1,-1],"loss_changes":[1.5577467E3,6.5242224E2,5.5940063E2,4.577917E2,2.326781E2,3.087848E2,4.8532007E2,2.84493E2,1.00155E2,6.896992E2,4.095011E2,1.714221E2,2.2466339E2,2.4985863E2,2.738025E2,3.0215482E2,3.8212793E2,1.9595428E2,1.0417507E1,2.907995E2,2.3635413E2,5.7244232E1,2.4153442E2,2.6239557E2,1.7748068E2,6.2172974E1,7.2585754E1,1.4947726E2,3.1532623E2,3.0213745E1,2.7540306E1,0E0,0E0,0E0,0E0,0E0,0E0,0E0,0E0,0E0,0E0,0E0,0E0,0E0,0E0,0E0,0E0,0E0,0E0,0E0,0E0,0E0,0E0,0E0,0E0,0E0,0E0,0E0,0E0,0E0,0E0,0E0,0E0],"parents":[2147483647,0,0,1,1,2,2,3,3,4,4,5,5,6,6,7,7,8,8,9,9,10,10,11,11,12,12,13,13,14,14,15,15,16,16,17,17,18,18,19,19,20,20,21,21,22,22,23,23,24,24,25,25,26,26,27,27,28,28,29,29,30,30],"right_children":[2,4,6,8,10,12,14,16,18,20,22,24,26,28,30,32,34,36,38,40,42,44,46,48,50,52,54,56,58,60,62,-1,-1,-1,-1,-1,-1,-1,-1,-1,-1,-1,-1,-1,-1,-1,-1,-1,-1,-1,-1,-1,-1,-1,-1,-1,-1,-1,-1,-1,-1,-1,-1],"split_conditions":[1E-1,5E-2,1.95E1,5.062667E0,3E0,1E-45,1E-45,2.85E1,2E0,1.35E1,1.35E1,3E0,1E-45,3.5833332E-1,1E-45,1E-45,8.5E-1,7.905707E-2,1.35E1,1E-45,1E-45,1E-45,-1.364E0,1E-45,2E0,1.65E1,1.35E1,1E-45,2.9543651E-2,-3.6859933E-2,-4.89E-1,2.8975083E-2,-1.7637279E-2,-1.6991751E-1,7.733343E-2,4.2847458E-1,3.3025574E-2,1.1264218E-1,9.833326E-3,1.7720291E-1,-1.056185E-2,2.340073E-1,-0E0,1.2991813E-1,-1.020137E-2,1.7126207E-1,-8.846371E-2,6.034961E-2,-2.6279693E-2,-1.1100494E-1,6.5627894E-3,-2.431765E-2,-1.20154426E-1,-1.0598779E-1,-2.2168797E-1,-9.3229845E-2,-3.1012908E-1,1.4474492E-1,-7.601549E-2,-1.13619246E-1,-3.2450715E-1,4.1275624E-2,-8.834508E-2],"split_indices":[15,17,6,9,14,0,1,6,14,6,6,14,1,9,0,0,16,11,6,0,1,0,9,1,4,6,6,0,11,11,9,0,0,0,0,0,0,0,0,0,0,0,0,0,0,0,0,0,0,0,0,0,0,0,0,0,0,0,0,0,0,0,0],"split_type":[0,0,0,0,0,1,1,0,0,0,0,0,1,0,1,1,0,0,0,1,1,1,0,1,0,0,0,1,0,0,0,0,0,0,0,0,0,0,0,0,0,0,0,0,0,0,0,0,0,0,0,0,0,0,0,0,0,0,0,0,0,0,0],"sum_hessian":[4.384E3,3.081E3,1.303E3,2.538E3,5.43E2,1.041E3,2.62E2,2.502E3,3.6E1,3.32E2,2.11E2,7.47E2,2.94E2,1.78E2,8.4E1,2.403E3,9.9E1,2E1,1.6E1,1.71E2,1.61E2,1.1E2,1.01E2,5.56E2,1.91E2,1.81E2,1.13E2,6E1,1.18E2,6.7E1,1.7E1,1.646E3,7.57E2,6.7E1,3.2E1,1.2E1,8E0,8E0,8E0,3.6E1,1.35E2,1.43E2,1.8E1,9.9E1,1.1E1,1.2E1,8.9E1,2.03E2,3.53E2,1.09E2,8.2E1,1.53E2,2.8E1,7.4E1,3.9E1,4.3E1,1.7E1,2.9E1,8.9E1,9E0,5.8E1,9E0,8E0],"tree_param":{"num_deleted":"0","num_feature":"22","num_nodes":"63","size_leaf_vector":"1"}},{"base_weights":[-5.497402E-2,-1.4542602E0,7.965218E-1,-4.4739037E0,-1.1834017E0,1.2577612E0,-2.42242E-1,-3.9153264E0,-4.470823E-1,-9.1198343E-1,-2.7908394E0,1.0764847E0,3.6730454E0,3.602138E-1,-1.3074313E0,-2.9705262E-1,-2.729408E0,-1.2756132E-1,-1.3777238E0,-2.3426194E0,-5.54274E0,1.6661859E0,2.4741118E-1,4.3852406E0,7.9738474E-1,2.6954858E0,-8.204014E-2,-3.3795927E0,-3.2855818E-1,-1.9232148E-1,-5.181522E-2,2.5159795E-2,-8.970038E-2,-5.6744263E-2,-1.2820764E-1,6.697371E-2,-1.5509462E-1,-9.43573E-2,-4.1796288E-1,1.4977024E-1,2.3579335E-2,8.511247E-2,-5.085564E-2,4.098699E-1,2.1080385E-1,-5.945227E-3,1.4257129E-1,2.137821E-1,3.698877E-2,-2.5970967E-2,1.308192E-1,1.12441275E-2,-2.2990298E-1,3.3149157E-2,-1.1662444E-1],"categories":[0,3,4,5,6,8,9,10,11,12,14,15,17,19,20,22,23,24,27,0,1,2,3,4,5,6,8,9,10,11,12,13,15,16,17,18,19,20,21,22,24,26,27,29,0,5,7,13,18,22,24,25,28,29,3,5,6,7,12,13,16,17,22,23,25,26,28,0,1,2,3,4,5,6,7,8,9,10,11,12,14,15,16,17,18,19,20,21,22,23,24,25,26,27,28,29,0,1,2,3,4,5,6,7,8,9,10,11,12,13,14,15,16,4,7,8,10,11,17,19,20,21,22,27,29,1,3,4,5,10,13,14,15,17,18,21,22,24,28,0,1,2,3,0,1,1,2,8,16,20,24,27],"categories_nodes":[9,13,17,18,19,20,21,22,23,25,28],"categories_segments":[0,19,44,54,67,96,113,125,139,143,145],"categories_sizes":[19,25,10,13,29,17,12,14,4,2,7],"default_left":[0,0,0,1,1,0,1,0,0,1,0,1,1,1,0,0,0,1,1,1,1,1,1,1,0,1,0,0,1,0,0,0,0,0,0,0,0,0,0,0,0,0,0,0,0,0,0,0,0,0,0,0,0,0,0],"id":13,"left_children":[1,3,5,7,9,11,13,15,-1,17,19,21,23,25,27,-1,29,31,33,35,37,39,41,43,45,47,49,51,53,-1,-1,-1,-1,-1,-1,-1,-1,-1,-1,-1,-1,-1,-1,-1,-1,-1,-1,-1,-1,-1,-1,-1,-1,-1,-1],"loss_changes":[5.255483E3,1.3408625E3,1.3155101E3,9.8461426E1,6.5823975E2,8.134763E2,5.45218E2,8.000098E1,0E0,4.8081226E2,2.1635425E2,8.6382324E2,2.5097534E2,5.6325543E2,6.1548035E2,0E0,3.5948486E1,3.611028E2,2.5798022E2,1.4042676E2,9.727551E1,1.0296296E3,9.1931976E2,1.3119165E2,4.462345E1,1.3388397E2,3.515821E2,1.3646326E2,2.968894E2,0E0,0E0,0E0,0E0,0E0,0E0,0E0,0E0,0E0,0E0,0E0,0E0,0E0,0E0,0E0,0E0,0E0,0E0,0E0,0E0,0E0,0E0,0E0,0E0,0E0,0E0],"parents":[2147483647,0,0,1,1,2,2,3,3,4,4,5,5,6,6,7,7,9,9,10,10,11,11,12,12,13,13,14,14,16,16,17,17,18,18,19,19,20,20,21,21,22,22,23,23,24,24,25,25,26,26,27,27,28,28],"right_children":[2,4,6,8,10,12,14,16,-1,18,20,22,24,26,28,-1,30,32,34,36,38,40,42,44,46,48,50,52,54,-1,-1,-1,-1,-1,-1,-1,-1,-1,-1,-1,-1,-1,-1,-1,-1,-1,-1,-1,-1,-1,-1,-1,-1,-1,-1],"split_conditions":[2.548E1,1.25E1,5E-2,2.5523E1,2.63E1,3.927E1,2.9446E1,9.93E0,-4.470823E-1,1E-45,3.2785E1,2.6489E1,2.3759412E-2,1E-45,3.162E1,-2.9705262E-1,7.5E-1,1E-45,1E-45,1E-45,1E-45,1E-45,1E-45,1E-45,9.027327E-2,1E-45,3.632E1,-1.1485337E-1,1E-45,-1.9232148E-1,-5.181522E-2,2.5159795E-2,-8.970038E-2,-5.6744263E-2,-1.2820764E-1,6.697371E-2,-1.5509462E-1,-9.43573E-2,-4.1796288E-1,1.4977024E-1,2.3579335E-2,8.511247E-2,-5.085564E-2,4.098699E-1,2.1080385E-1,-5.945227E-3,1.4257129E-1,2.137821E-1,3.698877E-2,-2.5970967E-2,1.308192E-1,1.12441275E-2,-2.2990298E-1,3.3149157E-2,-1.1662444E-1],"split_indices":[5,5,15,8,8,5,8,5,0,1,8,8,11,0,5,0,16,0,0,1,0,0,1,3,11,3,5,12,1,0,0,0,0,0,0,0,0,0,0,0,0,0,0,0,0,0,0,0,0,0,0,0,0,0,0],"split_type":[0,0,0,0,0,0,0,0,0,1,0,0,0,1,0,0,0,1,1,1,1,1,1,1,0,1,0,0,1,0,0,0,0,0,0,0,0,0,0,0,0,0,0,0,0,0,0,0,0,0,0,0,0,0,0],"sum_hessian":[4.403E3,1.665E3,2.738E3,1.32E2,1.533E3,1.896E3,8.42E2,1.18E2,1.4E1,1.317E3,2.16E2,1.769E3,1.27E2,5.39E2,3.03E2,5.9E1,5.9E1,4.93E2,8.24E2,1.92E2,2.4E1,1.031E3,7.38E2,1E2,2.7E1,8.3E1,4.56E2,9.4E1,2.09E2,4.6E1,1.3E1,3.53E2,1.4E2,5.12E2,3.12E2,9E0,1.83E2,8E0,1.6E1,6.38E2,3.93E2,3.58E2,3.8E2,2.2E1,7.8E1,1.9E1,8E0,5.8E1,2.5E1,3.98E2,5.8E1,9E0,8.5E1,1.36E2,7.3E1],"tree_param":{"num_deleted":"0","num_feature":"22","num_nodes":"55","size_leaf_vector":"1"}},{"base_weights":[-4.2824596E-2,1.4861462E0,-5.77972E-1,2.8646991E0,1.1785192E0,-1.4332521E-1,-1.7136651E0,1.9848423E0,5.1980667E0,9.889973E-1,2.3313868E0,-2.889752E-1,8.9577836E-1,-1.2202514E0,-2.4959064E0,2.3288748E0,-1.7785752E-1,1.2605505E0,6.868557E0,1.530489E0,4.4591165E-1,2.6533322E0,-6.457613E-2,5.0328904E-1,-5.6589156E-1,1.761308E0,-2.7771404E-1,-2.6934705E0,-8.861515E-1,-2.6555817E0,1.7801678E-1,1.07913055E-1,3.4358263E-1,1.8640898E-1,-4.30816E-2,1.7477903E-1,4.6410125E-1,5.7337362E-2,1.8272366E-1,-8.617701E-3,6.1563767E-2,3.7388477E-2,1.9506955E-1,-2.4270402E-2,5.5767614E-2,-2.2086432E-2,-1.0557351E-1,1.6207956E-2,1.3730936E-1,1.1881395E-2,-1.3936016E-1,-9.0921976E-2,-2.2360212E-1,-6.655246E-2,1.0404317E-1,-1.7119463E-1,2.212828E-2,1.1666805E-1,-1.21655084E-1],"categories":[0,1,2,3,4,5,6,7,8,9,10,11,12,14,15,17,19,20,21,23,24,25,26,27,29,30,31,32,33,34,36,37,38,40,41,42,43,45,46,47,48,49,50,51,52,53,54,55,56,58,60,61,62,63,64,65,66,67,68,70,71,73,75,76,77,78,79,80,81,82,83,84,86,88,89,90,91,92,93,94,96,97,98,99,100,101,102,103,104,105,106,108,109,110,111,112,113,114,115,117,118,119,120,121,123,124,126,127,128,129,131,132,133,134,135,136,137,138,139,140,141,142,144,145,146,147,148,149,150,151,152,155,156,159,160,161,162,163,167,168,169,170,171,172,173,174,177,178,179,180,181,182,183,184,185,186,187,189,190,192,193,195,196,197,198,199,200,201,202,203,205,207,208,209,210,211,212,213,214,215,216,217,218,220,222,223,224,227,228,230,231,232,234,235,236,237,238,240,241,242,243,244,245,246,249,250,252,253,254,256,257,258,259,260,261,262,264,265,266,267,268,270,271,272,274,275,277,278,279,280,282,283,284,286,287,288,291,293,294,295,297,298,299,300,301,302,303,304,305,306,307,308,309,311,312,313,314,316,317,320,321,322,323,324,325,327,328,329,330,331,332,333,334,335,337,338,339,340,0,1,2,3,4,5,6,7,8,9,10,11,12,13,14,15,17,19,20,21,22,23,24,25,26,27,29,30,31,32,33,34,35,36,37,38,39,40,41,42,43,44,45,46,47,48,49,50,51,52,53,54,55,56,57,58,59,60,61,62,63,64,65,66,67,68,69,70,71,72,73,74,75,76,77,78,79,80,81,82,83,84,85,86,87,88,89,90,91,92,93,94,95,96,97,98,99,100,101,102,103,104,105,106,107,108,109,110,111,112,113,114,115,116,117,118,119,120,121,122,123,124,125,126,127,128,129,130,131,132,133,134,135,136,137,138,139,140,141,142,143,144,145,146,147,148,149,150,151,152,153,154,155,156,157,158,159,160,161,162,163,164,165,167,168,169,170,171,172,173,174,175,176,177,178,179,180,181,182,183,184,185,186,187,188,189,190,192,193,194,195,196,197,198,199,200,201,202,203,204,205,206,207,208,209,210,211,212,213,214,215,216,217,218,219,220,221,222,223,224,225,227,228,229,230,231,232,233,234,235,236,237,238,240,241,242,243,244,245,246,247,248,249,250,251,252,253,254,255,256,257,258,259,260,261,262,263,264,265,266,267,268,269,270,271,272,273,274,275,276,277,278,279,280,281,282,283,284,285,286,287,288,291,293,294,295,296,297,298,299,300,301,302,303,304,305,306,307,308,309,310,311,312,313,314,315,316,317,318,319,320,321,322,323,324,325,327,328,329,330,331,332,333,334,335,336,337,338,339,340,3,5,12,20,21,26,33,34,41,47,49,50,54,65,66,71,75,83,88,98,101,102,105,106,112,113,120,132,133,137,140,144,147,148,172,178,189,192,205,215,220,222,238,254,265,266,271,275,286,295,298,299,301,306,327,328,330,334,337,3,5,12,26,34,41,71,98,102,106,112,120,132,133,220,238,254,266,271,299,306,327,330,337,0,1,2,3,4,5,6,7,8,9,10,11,12,14,15,16,17,18,19,20,21,23,24,25,26,27,28,29,30,31,32,33,34,36,37,38,40,41,42,43,45,46,47,48,49,50,51,52,53,54,55,56,58,60,61,62,63,64,65,66,67,68,70,71,72,73,74,75,76,77,78,79,80,81,82,83,84,85,86,87,88,89,90,91,92,93,94,95,96,97,98,99,100,101,102,103,104,105,106,107,108,109,110,111,112,113,114,115,116,117,118,119,120,121,122,123,124,126,127,128,129,130,131,132,133,134,135,136,137,138,139,140,141,142,144,145,146,147,148,149,150,151,152,155,156,157,159,160,161,162,163,165,166,167,168,169,170,171,172,173,174,175,176,177,178,179,180,181,182,183,184,185,186,187,189,190,191,192,193,194,195,196,197,198,199,200,201,202,203,204,205,206,207,208,209,210,211,212,213,214,215,216,217,218,220,221,222,223,224,226,227,228,229,230,231,232,233,234,235,236,237,238,239,240,241,242,243,244,245,246,248,249,250,251,252,253,254,256,257,258,259,260,261,262,264,265,266,267,268,269,270,271,272,274,275,277,278,279,280,282,283,284,286,287,288,289,290,291,292,293,294,295,297,298,299,300,301,302,303,304,305,306,307,308,309,310,311,312,313,314,315,316,317,318,319,320,321,322,323,324,325,326,327,328,329,330,331,332,333,334,335,336,337,338,339,340,0,1,2,3,4,5,6,7,8,9,10,11,12,13,14,15,16,17,18,19,20,21,22,23,24,25,26,27,28,29,30,31,32,33,34,35,36,37,38,39,40,41,42,43,44,45,46,47,48,49,50,51,52,53,54,55,56,57,58,59,0,1,2,3,4,5,6,8,9,10,12,13,14,16,17,18,19,20,21,22,23,24,25,26,27,28,29,30,32,33,34,35,39,40,41,42,43,44,45,46,47,48,49,50,51,52,53,54,55,56,57,58,59,60,61,62,63,64,65,66,67,68,69,70,71,72,73,74,75,76,78,79,80,81,82,83,85,86,87,88,90,91,92,93,94,95,96,97,98,100,101,102,103,104,105,106,107,108,109,111,112,113,114,115,116,117,118,119,120,121,122,123,124,125,127,128,129,130,131,132,133,134,135,136,137,139,140,141,143,144,145,146,147,148,150,151,152,153,154,155,156,157,158,159,160,161,162,163,164,165,166,170,171,172,173,174,175,176,178,179,180,181,182,183,184,185,187,188,189,190,191,192,193,194,195,196,197,199,200,201,202,203,204,205,206,207,208,209,211,212,213,214,215,216,217,218,219,220,221,222,223,225,226,227,228,229,230,231,233,234,236,237,238,239,240,241,242,243,244,245,246,247,248,249,250,251,252,253,254,255,256,257,258,259,260,262,263,265,266,267,268,269,270,271,273,275,276,277,278,279,281,282,283,284,285,286,287,288,289,290,291,292,293,294,295,296,297,298,299,300,301,302,303,304,305,306,307,308,309,310,311,312,313,314,315,316,317,318,319,321,329,339,2,4],"categories_nodes":[0,1,2,6,9,10,11,12],"categories_segments":[0,278,608,667,691,1007,1067,1359],"categories_sizes":[278,330,59,24,316,60,292,2],"default_left":[0,0,1,0,0,0,1,1,0,0,1,0,1,0,1,0,0,1,0,0,0,1,0,0,1,0,1,0,0,0,0,0,0,0,0,0,0,0,0,0,0,0,0,0,0,0,0,0,0,0,0,0,0,0,0,0,0,0,0],"id":14,"left_children":[1,3,5,7,9,11,13,15,17,19,21,23,25,27,29,31,-1,33,35,37,39,41,-1,43,45,47,49,51,53,55,57,-1,-1,-1,-1,-1,-1,-1,-1,-1,-1,-1,-1,-1,-1,-1,-1,-1,-1,-1,-1,-1,-1,-1,-1,-1,-1,-1,-1],"loss_changes":[3.613274E3,4.6985083E2,1.6128063E3,3.7834912E2,1.9492603E2,3.5936417E2,3.350708E2,2.8739124E2,3.1529382E2,2.3622638E2,1.5324084E2,4.580689E2,2.992637E2,2.6544977E2,1.5116724E2,2.319198E2,0E0,8.268578E1,1.6096802E1,3.3803302E2,1.3710345E2,1.2061127E2,0E0,2.0024327E2,3.6350827E2,1.1780603E2,1.2275091E2,9.386304E1,2.4853143E2,1.4521997E2,9.961567E1,0E0,0E0,0E0,0E0,0E0,0E0,0E0,0E0,0E0,0E0,0E0,0E0,0E0,0E0,0E0,